-51 -33 -50 53 -4 -70 29 -9 4 -25 49 31 59 8 -56 51 54 10 58 5 22 -66 -61 30
-30 37 -61 -27 -62 -49 11 -33 44 -9 87 16 -9 -52 -32 -37 1 -27 56 -7 57 32 -48 -3
-10 -59 38 24 61 12 38 76 31 -56 57 -9 16 -56 -68 30 34 58 -67 -57 -47 -97 53 20
-10 -11 -11 11 -45 6 71 62 33 -54 -29 85 11 51 50 34 -100 31 -41 -45 12 -28 26 35
37 -31 90 -66 -21 11 -46 35 -31 -38 64 -19 46 61 18 67 -88 11 100 -1 -99 11 -41 -18
40 52 23 -43 8 86 -1 64 -24 -2 79 -15 51 71 51 42 46 69 -42 45 84 44 -46 75
36 -5 -76 64 -74 27 65 48 -46 -44 -43 -41 -5 55 27 -13 9 24 -42 50 -87 1 43 14
35 74 47 16 57 84 -18 -42 16 -4 85 -6 38 39 65 -25 51 25 42 -79 102 30 39 82
-34 3 -53 37 -9 29 -2 74 41 -78 -101 -9 -34 -37 96 38 15 48 -12 59 -2 -19 28 -56
57 18 33 37 -6 -7 -15 1 13 -128 71 55 -9 50 16 91 -49 -34 24 22 32 -22 4 70
-85 26 6 14 -67 -11 -2 70 89 -40 69 -55 30 26 -76 54 77 -20 -50 -4 46 -60 -11 53
81 81 94 99 65 -84 59 -18 -62 4 -20 -64 62 29 -45 -52 52 64 63 -54 33 -69 66 59
-77 22 89 -48 44 7 -37 34 61 107 46 -27 24 44 9 31 -10 -34 41 32 1 21 24 0
8 -11 -33 -45 -22 -37 24 -22 -54 -9 -9 -65 26 32 -39 -78 62 96 88 8 70 -39 -99 -52
115 -33 4 74 103 57 111 4 32 16 70 -41 89 -73 -46 34 33 16 -26 -4 89 56 -10 1
-55 101 33 -8 5 98 81 -60 5 31 -4 -60 -21 18 -6 -46 4 -59 -33 -15 115 -27 33 -12
22 -66 15 -46 73 -20 3 97 44 14 61 36 60 9 -41 27 -64 8 -35 -94 -51 -84 -21 -81
24 -1 -22 60 -63 -14 6 -17 20 50 -88 6 -79 -47 21 28 -6 -21 28 -2 -14 52 127 9
-59 -18 -62 67 -39 -38 33 90 27 -69 83 54 -44 19 -79 -18 -7 -59 10 16 -3 38 -60 15
-80 -17 -8 50 52 -21 58 46 41 43 -46 111 17 -65 -82 42 -22 59 22 -31 12 -53 127 35
35 53 -9 -37 -4 -69 -21 50 24 -7 -36 95 15 -57 31 51 -68 37 -26 77 -62 -18 -2 13
66 -59 28 -22 -36 -6 51 -45 -44 23 -18 1 55 30 -18 -41 -35 12 -8 -31 -53 -54 84 28
24 22 -23 37 24 -75 -25 -43 -72 71 68 -54 19 47 -88 -12 -43 -16 -14 -11 -14 -69 57 -10
-37 20 37 -1 -24 2 1 7 -43 -3 16 53 -15 -20 -43 51 27 84 84 69 -63 -12 89 52
28 51 -51 46 46 -15 -33 35 57 -21 38 31 59 49 -15 7 -33 3 -74 -14 51 -54 11 13
-22 75 35 -44 60 45 -26 -9 -58 -23 102 -36 22 -22 -35 -89 21 -13 39 2 -28 -45 -102 0
56 22 1 48 9 82 -57 -11 -21 -60 46 51 22 28 59 -16 -17 43 -25 -68 -5 43 -20 35
-11 91 46 -38 -48 83 -64 -40 82 34 42 -86 31 -1 63 -41 7 4 -65 -6 -51 -23 -80 37
-41 -101 -47 -51 0 -24 24 -37 -58 3 49 30 54 41 -42 22 -79 43 -23 35 -62 5 -49 44
-11 -10 -31 -54 -23 76 59 10 -32 13 29 -69 86 50 49 -72 29 73 7 -2 65 -18 30 32
-25 58 72 7 49 -12 -7 -24 51 87 0 -31 9 -62 117 60 55 -49 -14 -52 53 -14 -10 -54
8 13 -57 52 19 35 -57 39 55 30 -6 30 -37 47 23 39 -75 45 11 -57 -18 79 -44 45
64 -64 -51 -73 18 -85 58 75 -14 24 75 17 -39 -17 61 -54 -48 5 -4 -7 -51 -55 58 -3
-16 45 18 -45 -13 -51 -63 -35 56 20 -37 60 26 101 -61 39 54 38 -11 25 50 -44 50 -4
77 15 -31 52 -6 42 70 40 11 84 75 -37 16 11 20 -28 63 78 14 -65 102 -42 5 69
-45 -41 32 -48 -17 -48 -60 3 61 67 -30 -13 -8 71 -89 1 -8 -8 46 -56 -78 -55 13 15
12 -33 34 53 11 8 -45 -56 23 30 80 -10 -22 66 -111 80 70 74 33 -1 35 -45 8 -31
-11 -40 56 32 12 -30 -14 108 30 -57 2 36 32 14 -41 42 45 27 13 -67 -56 54 -16 -47
-70 15 43 24 50 -82 -71 59 78 16 50 117 -33 84 31 -56 -14 76 71 -26 54 -58 39 23
26 26 12 38 63 36 48 83 34 -36 -26 54 14 91 -25 23 -77 -25 44 -49 -29 5 11 78
-12 22 -47 11 21 -19 31 43 -51 -101 66 -28 30 20 11 50 -63 11 -13 27 27 40 64 67
38 -28 -63 -11 -25 -47 -37 -48 0 -66 -36 27 -57 65 -33 49 56 51 -63 -9 5 -45 -56 -71
-43 18 -19 29 -26 -27 6 101 18 -106 99 14 48 21 -83 29 -55 -63 -14 25 -14 -21 -38 90
23 -47 -47 -21 -10 -1 -24 -22 -84 45 -26 65 -9 18 -56 4 -12 47 -16 34 -26 -14 -38 -9
13 -13 -36 38 25 82 -23 50 60 39 69 -83 70 -13 39 68 13 -12 40 57 -63 83 17 41
3 -41 -5 1 -62 46 62 -61 11 -89 -19 93 9 61 28 28 -90 44 -19 -46 -26 74 -13 64
-7 -45 -48 42 43 -30 -9 63 -31 -31 49 58 3 33 -87 -6 -75 -9 23 15 48 -6 -30 -47
-35 -93 10 26 90 45 -14 13 34 -68 2 37 -43 88 -9 82 -23 -24 14 -69 -38 -14 54 35
64 -43 15 -53 47 2 -64 69 -64 -26 41 -23 -47 4 -59 84 -39 3 54 -2 -10 -67 39 51
-47 38 38 49 -9 -28 65 66 -29 -70 100 -18 -30 -27 21 9 62 -20 11 -57 -55 -103 23 45
7 60 8 -19 26 -103 34 -37 62 -112 95 43 47 26 10 8 -19 15 31 58 13 -46 48 95
77 -63 2 20 -21 42 -77 62 -51 -2 -3 -79 23 22 -53 59 65 -1 -4 -40 -60 -64 -8 -27
-22 8 73 -23 59 -61 -17 -8 19 39 81 15 42 66 72 24 -63 38 51 43 15 26 15 68
24 21 -56 36 46 -41 -73 72 -3 34 54 59 -43 15 -100 11 37 -29 37 -67 35 -74 -30 -59
29 -81 50 -81 -16 -20 4 -10 65 26 -15 -3 -40 -46 -44 57 -70 90 103 22 36 5 57 50
-99 70 0 -51 86 22 26 -16 42 38 -50 -42 16 -102 86 -67 -20 -6 -19 25 -6 26 12 30
5 -21 -58 -15 32 -15 -45 24 -58 28 -28 -20 32 88 -58 26 -2 -25 -20 -14 -92 52 -54 -71
-61 68 -22 -18 42 14 -15 28 -21 -68 -24 -10 -17 -81 9 -17 81 28 -2 0 -61 -46 -42 -43
-71 52 74 -68 -38 16 59 31 4 70 107 -17 31 8 -22 -31 47 77 -22 -82 -36 -7 -68 33
44 67 -28 50 97 65 52 23 38 77 69 64 6 25 73 -48 4 -75 -18 67 -35 67 53 -56
-55 2 -67 40 -10 45 -2 -11 -42 -3 67 -1 -1 -16 -39 2 47 -5 -18 54 81 -56 -49 8
-29 -2 -27 -14 -48 28 26 93 62 -27 47 30 10 -61 -23 40 20 34 66 73 -60 -21 29 36
-51 12 -2 42 -10 15 16 83 -12 20 16 52 -18 29 -84 24 -78 -40 -12 -53 49 32 29 -23
60 84 -26 3 64 98 49 -84 -44 44 -77 40 28 -46 -49 -50 79 26 58 -39 -14 47 -49 45
17 75 -10 -17 -25 80 8 -30 -84 59 108 -62 26 -24 -36 -78 21 79 -15 65 10 -34 -61 69
18 39 -25 94 -56 13 33 -3 -63 -27 9 -34 -62 33 -2 -24 -15 17 53 13 58 -7 26 -50
56 -26 49 25 -40 -19 34 40 14 -4 -34 -47 -57 -23 -64 13 43 43 42 21 37 55 31 81
-72 74 51 -51 -68 31 75 41 -61 69 17 -32 -31 1 62 -18 -33 18 -33 -85 78 -20 -72 -61
46 53 -60 -19 1 -16 12 -8 31 -80 -79 54 50 43 9 5 -47 -55 -67 3 -36 -76 50 85
-25 -84 23 -20 55 -48 50 13 63 26 75 40 -14 2 53 -50 -21 40 32 -39 -87 3 -2 -27
19 66 -47 33 -27 -14 -12 110 24 22 -6 57 -46 -103 -55 5 -51 47 1 -24 -36 68 120 -39
39 -15 0 -24 -48 -40 5 61 16 59 91 5 31 -41 66 54 -104 -57 -39 -66 -92 36 -10 49
-7 -27 -19 2 0 -70 -61 32 20 5 30 -3 -47 39 -12 -57 62 -14 -80 -60 -42 -83 46 -39
-38 89 -22 -16 -33 46 -32 -61 -25 -45 53 16 36 -66 -67 -27 77 10 70 42 47 -16 15 -35
12 -33 -54 -37 -23 -22 -47 41 -50 49 -38 32 44 94 -74 -4 -50 -32 -60 -43 0 57 21 0
-2 -30 55 -61 -6 -81 -33 -30 -66 -3 -23 31 58 9 -5 -3 34 94 -14 -73 19 12 82 27
37 24 12 2 43 86 -18 -53 -66 18 52 3 67 19 42 -51 62 75 57 14 -40 67 -10 -60
52 59 47 70 13 61 90 35 13 -2 -8 23 -42 18 -82 -56 -26 -50 69 15 -25 66 34 51
-57 -77 -72 66 -51 -93 -36 21 41 1 7 11 10 41 -93 -67 6 21 30 8 49 -44 14 -36
-43 -71 79 -57 -9 39 -64 36 -65 70 74 6 51 61 -16 34 -1 -33 5 -61 -93 7 -37 -30
37 -38 54 -75 -54 20 -26 17 27 -65 -33 30 -27 86 -70 73 29 -2 -12 63 55 -56 -26 -7
1 -54 -77 24 7 -59 36 88 -25 50 37 34 -27 64 36 -73 -14 -24 -38 -50 -21 -30 -32 30
13 -65 0 -63 -44 29 27 18 34 -35 79 -52 -54 -21 -33 87 1 -12 44 75 -72 -39 67 79
6 49 34 -10 -8 4 -10 82 18 -96 96 -31 7 52 23 52 -30 -28 82 13 86 66 33 98
14 37 45 80 12 29 -7 4 -31 37 -1 85 7 -5 -47 18 -50 -11 -13 -75 50 -48 91 88
68 65 -7 -53 -14 -10 39 34 -50 -62 17 56 40 -4 50 -29 -84 38 54 -50 -31 26 9 -19
-64 -63 -44 -25 -6 -17 -46 80 51 21 82 85 -26 32 -56 -25 -36 -12 -56 53 -69 19 -28 22
69 33 77 4 -40 -6 -14 -21 -24 -56 21 -23 0 17 -43 3 -36 90 -1 -54 -31 22 69 84
-17 19 -67 30 -7 -32 0 34 -67 -21 -122 4 -12 -28 -22 4 -40 51 7 58 -14 38 28 20
-36 24 -2 -39 -45 -58 -22 -71 -10 -55 -42 82 40 99 25 -41 35 17 10 -46 -3 25 15 16
-25 50 -38 43 -60 39 93 -19 -75 39 -56 29 -81 -71 -72 32 -12 -58 -46 6 51 -31 18 78
60 27 53 -14 -72 -60 -71 109 15 13 -22 -39 -64 71 -20 69 35 -45 -70 -35 -18 -8 17 5
-15 15 -61 24 -2 -50 3 -53 6 -20 -66 82 -79 9 4 -11 40 33 11 -3 70 70 31 60
54 45 9 -62 10 -17 -54 -45 -63 -68 7 -42 -15 3 -8 48 34 64 -14 50 38 68 31 76
41 17 -75 1 65 98 -39 -6 52 -20 57 9 32 34 68 -25 41 -49 55 11 -7 59 43 -15
4 38 17 -51 12 -75 53 -16 -51 -11 15 62 35 -30 16 50 -108 41 -2 -85 -2 34 88 54
9 -12 11 13 71 -10 -10 -46 44 62 -30 10 94 8 91 -4 65 21 60 -68 69 14 50 35
59 -10 -62 55 -50 53 46 -16 66 -52 -32 -73 6 28 -39 19 17 89 -5 10 45 -28 0 65
24 57 -75 23 -65 0 9 23 73 79 -84 49 -52 -96 95 80 -40 -78 45 48 26 46 -22 28
-36 -42 -77 62 30 -31 40 84 12 -57 47 -9 64 -23 -77 -61 -51 -27 -25 -44 -50 -48 24 51
74 44 22 6 85 108 -4 -73 -52 -1 -30 43 -39 -87 8 -6 76 -50 24 77 108 68 -35 -13
66 42 34 -13 5 -52 56 -17 -96 -31 50 37 21 26 27 -17 -96 79 54 14 -70 8 40 70
73 -60 -46 -66 8 3 31 -45 4 -40 -14 16 59 35 -33 -7 -38 -25 -59 -25 -75 -5 78 27
17 2 -39 44 76 75 -31 51 -8 -18 59 -57 -44 97 16 62 -63 49 54 -41 -9 70 15 55
49 -82 27 -64 3 40 61 61 -3 -7 17 29 68 13 -46 19 -63 31 -67 -45 -101 -47 -17 47
17 31 -14 26 10 41 -24 79 -9 -76 83 38 -40 11 -80 60 2 68 -42 57 65 77 -60 76
-51 -47 -2 70 26 75 -8 39 43 90 88 25 78 25 76 55 39 -15 55 2 47 -1 -68 -36
-7 -80 -71 25 10 -24 11 -51 -23 -26 -32 74 -25 63 -64 26 -73 41 52 33 -4 -20 -21 -46
56 -58 -12 -9 -37 39 -89 24 -67 -82 -5 -8 -20 92 -31 19 20 -20 26 50 -28 -9 40 26
37 30 -31 -64 -16 -74 -46 44 -42 -15 -44 71 44 48 -25 41 -47 50 38 -17 -50 -57 89 26
60 -8 57 34 -79 -4 13 72 -84 -25 19 47 -81 20 75 12 -52 32 37 -21 -71 72 62 31
31 -24 90 72 73 69 -45 -39 12 -18 114 -54 65 63 -59 60 30 56 -20 79 76 -32 41 1
9 -12 -3 -62 49 -21 48 -8 -74 -77 -24 -1 49 27 54 57 9 -10 -11 -51 -98 -9 79 -30
56 -8 -3 -30 96 56 -45 -39 -79 93 84 31 53 1 33 -23 -32 31 -3 49 -12 61 -56 -70
-6 7 -8 -48 13 82 47 78 -20 -78 58 -49 92 32 -83 24 -43 42 -11 -46 49 -29 45 75
8 80 -81 -104 -32 88 -34 0 -63 -20 94 19 50 -38 32 19 -28 10 -17 29 45 3 -77 -64
-29 -12 -52 71 -20 -68 17 -31 67 -15 13 47 28 -22 -36 -24 -5 38 -48 -17 -2 -68 105 -6
-53 12 -62 45 -52 51 18 74 74 -66 -62 91 -23 35 -5 81 68 37 80 18 38 -66 -36 -43
22 -98 20 6 -69 -56 -21 26 -29 -4 38 -56 -16 -47 -9 -36 73 27 2 -35 -84 22 88 -49
23 -13 -84 38 -38 -20 5 5 52 14 -109 49 -78 -8 60 47 11 -56 -51 -68 -14 -21 19 -62
0 -52 -12 -44 -46 -43 6 87 -26 -79 95 -1 -18 34 -13 51 -9 39 3 35 -90 -45 -81 20
45 -7 15 -13 -49 -82 19 -69 33 -103 25 7 53 -26 46 18 -61 13 64 24 -5 38 67 104
50 46 4 -58 -24 -50 51 -30 59 -13 -15 -57 19 68 -81 -79 -75 -26 45 53 4 -24 56 -20
-48 16 53 -8 -70 -25 -15 82 -2 -17 44 61 -28 -46 -24 56 35 -12 11 53 -36 3 -1 86
-51 -9 10 37 41 61 -27 -21 -10 -40 -80 72 -53 -5 -60 46 83 -48 -55 -1 -36 -15 33 -27
-61 -69 13 3 12 -18 65 73 82 -42 127 59 -27 -45 -55 -25 -90 -31 -13 16 -37 -44 48 30
25 -31 57 -34 53 13 62 -33 27 30 -10 89 31 78 -60 -17 -55 -10 21 25 55 -70 42 17
65 -28 -22 -107 46 16 -30 36 -70 -46 64 34 -27 2 7 82 -51 25 -14 -20 -64 31 0 -19
