embedding_M.weight: [[1.9269150495529175, 1.4872841835021973, 0.9007171988487244, -2.1055214405059814, 0.6784184575080872, -1.2345449924468994, -0.043067481368780136, -1.6046669483184814], [-0.809211015701294, 1.5640575885772705, -0.18921901285648346, -1.270133376121521, -0.6410287618637085, -0.5726282000541687, -0.6643691062927246, 0.6568866968154907], [1.615908145904541, -0.08918780088424683, -0.42094847559928894, 0.4398742616176605, -0.7303622364997864, 1.1211931705474854, 0.8093147277832031, 1.6088404655456543], [1.320286512374878, 1.370514988899231, 0.7123395204544067, 1.165027141571045, -0.031030774116516113, 0.2203313261270523, -0.24929296970367432, 0.6603673696517944], [-1.220149278640747, -0.6044321060180664, -0.05713936686515808, 1.576294183731079, 0.4188195765018463, -0.26776906847953796, 0.17254987359046936, -0.9096595048904419], [-1.4314039945602417, 1.0721803903579712, -0.7726725339889526, -0.5458346605300903, -1.1119236946105957, 2.218921661376953, -1.1404250860214233, -0.5589209198951721], [-0.9467873573303223, -0.563331127166748, 0.1424504667520523, 0.5230387449264526, -0.38035184144973755, 1.1566295623779297, -0.7385286688804626, -0.7599905133247375], [-1.2890903949737549, -0.13296988606452942, -0.043409425765275955, 0.631591260433197, -0.05966196581721306, 1.6739345788955688, -1.1155534982681274, 1.287940263748169], [1.3412249088287354, 0.774850606918335, 2.1180365085601807, 0.6068351864814758, 0.3774917423725128, -0.118169404566288, -0.9292837977409363, 1.1025093793869019], [-0.21357037127017975, 0.36169207096099854, 0.1207079365849495, 0.5956811308860779, 0.39376458525657654, -0.6486860513687134, -2.0508580207824707, -0.6311559677124023], [-0.03876049444079399, -0.1636623740196228, -1.2340469360351562, -0.5453129410743713, 0.6612902879714966, 0.6398233771324158, 1.0982812643051147, 0.014874448999762535], [0.6997405290603638, -0.39239582419395447, -0.9776434898376465, 0.5980042219161987, -1.6669336557388306, -0.7760077118873596, 1.2976056337356567, 0.37398606538772583], [-2.5095443725585938, 0.4880010485649109, 0.7845868468284607, 0.028647208586335182, 0.640755295753479, 0.5832474231719971, 1.0669267177581787, -0.4501534402370453], [-0.26490962505340576, 0.6395897269248962, 0.33691394329071045, 0.17493192851543427, 0.1717095971107483, 1.17935049533844, -0.0591302365064621, -0.35578590631484985], [-1.4633071422576904, -0.019456414505839348, -0.4433192312717438, 0.4403603971004486, 0.7816084027290344, 0.1641179621219635, -0.39834150671958923, 0.3419380187988281], [-0.1545318216085434, 0.11181297898292542, 0.2989870011806488, 0.6170899868011475, 1.0461111068725586, 0.29243865609169006, 0.6129996180534363, 0.4053538143634796], [1.788887619972229, 1.1548353433609009, -1.2355598211288452, -1.0595993995666504, -0.006503692362457514, 1.780894160270691, 0.4822230935096741, 0.4235103726387024], [1.1530998945236206, 0.11424960196018219, -1.6883217096328735, 0.9276477098464966, -0.3485216200351715, 1.0811413526535034, -0.6681448817253113, 0.566701352596283], [-0.8157275915145874, 1.0668127536773682, 1.6110734939575195, 1.3578071594238281, 0.4802303612232208, 0.0006101548206061125, -0.564160168170929, -0.06442528963088989], [0.3487516939640045, 0.9675940275192261, -0.46568843722343445, 1.6047972440719604, -2.4801204204559326, -0.4175437390804291, -1.1954537630081177, 0.8123368620872498], [-1.8642451763153076, 0.21962207555770874, 0.01251620426774025, -0.3329561650753021, 0.30349525809288025, -0.7016589641571045, 0.16140003502368927, -1.0825759172439575], [-1.472334861755371, 1.3284838199615479, 1.3741867542266846, -0.03764021769165993, -1.4602887630462646, 0.7500271201133728, 0.6795493364334106, 1.8745263814926147], [0.00307864835485816, 0.1846523880958557, -0.6632547974586487, -0.12015322595834732, -0.9197402596473694, -1.5297209024429321, -1.1153432130813599, -0.5179245471954346], [-0.5759001970291138, -1.4205414056777954, -1.8196651935577393, 0.09711006283760071, 0.958655595779419, -0.5753841996192932, 0.6181133389472961, 0.5921436548233032], [1.585801601409912, -0.7934128642082214, 1.0999659299850464, -0.3893936574459076, -1.0074747800827026, 0.3775940239429474, 0.4606529772281647, 1.2093284130096436], [0.49519917368888855, 2.061810255050659, -0.4879307746887207, -0.9023467302322388, 0.15623986721038818, 0.9947008490562439, 1.2628639936447144, 0.44538354873657227], [-0.8705956339836121, -0.8753031492233276, -0.3088001608848572, -0.5201016664505005, 0.24143178761005402, 0.5327401161193848, -0.11650391668081284, -2.2509284019470215], [-0.3362535536289215, 1.1453279256820679, -1.6126807928085327, 1.3706012964248657, 0.44025465846061707, -0.39686551690101624, 0.9406448602676392, 1.5205978155136108], [-0.031237980350852013, 1.6815519332885742, 0.2635650038719177, -0.9839792847633362, -0.4738459885120392, 0.19076837599277496, 0.37764015793800354, 1.8158806562423706], [-0.07198750972747803, -0.9060945510864258, -2.0487122535705566, -1.0810552835464478, 0.017623215913772583, 0.07822597771883011, 0.19315828382968903, 0.40967339277267456], [-0.7800042629241943, 0.41318202018737793, -0.40846389532089233, 0.29221224784851074, -0.7067404389381409, 0.1431400030851364, -0.40599876642227173, 1.3394125699996948], [1.0809046030044556, -0.5224862694740295, 0.9666901230812073, 0.4563906490802765, 0.601938784122467, 0.504483163356781, 0.4846300780773163, -0.004481907933950424], [-0.6965462565422058, 0.5503681302070618, -1.4765788316726685, -1.5744982957839966, -1.4242010116577148, 0.4112136960029602, -0.13852369785308838, 0.7265554666519165], [-1.5456997156143188, -0.024533730000257492, 0.6385393738746643, 0.08540457487106323, 1.3725095987319946, 0.30589550733566284, -1.8275246620178223, -0.061198994517326355], [-1.2987477779388428, 0.7205832600593567, -2.43062162399292, -0.05249815806746483, 0.0448160357773304, -0.5906134247779846, 1.660168170928955, -0.11515799909830093], [1.0266321897506714, 1.8482307195663452, 0.6781977415084839, 1.0405018329620361, 0.46769872307777405, 1.1054190397262573, 0.39689335227012634, -0.12287446856498718], [0.9469554424285889, -0.9296091794967651, -0.524572491645813, -0.3997829854488373, -0.3248656392097473, -0.11673428863286972, -0.6736870408058167, -0.0704990103840828], [1.8286069631576538, 0.23870521783828735, 1.1177983283996582, 0.5481864809989929, 0.1445615291595459, 0.10438884794712067, 1.171211838722229, 0.5463759899139404], [0.28478312492370605, -0.5170573592185974, 0.8394846320152283, -0.8536615371704102, 0.5061166882514954, 1.338948130607605, -2.1839098930358887, -1.233741283416748], [0.14443038403987885, -2.0996549129486084, -0.13171513378620148, -1.0230029821395874, -0.7712970972061157, -0.05058108642697334, 1.2160381078720093, -1.0188310146331787], [0.4105876386165619, -0.6120502948760986, 1.1030791997909546, -1.356902837753296, 0.6103131771087646, 0.42265868186950684, 0.03672940656542778, 0.011944066733121872], [0.2942739725112915, 0.7394767999649048, -1.6465423107147217, -0.7099366784095764, 0.47009995579719543, 0.27271783351898193, -0.48500198125839233, 0.05459103360772133], [0.7707164883613586, 0.2703709602355957, 0.6948292851448059, 0.08919676393270493, 0.4701879322528839, -0.6096296310424805, -0.33782267570495605, -0.09974389523267746], [0.44823548197746277, 1.4162862300872803, -0.07166645675897598, 1.0361829996109009, 0.8678444027900696, -0.6441137194633484, -0.43868809938430786, -0.3326737880706787], [-0.7733826041221619, 0.4455976188182831, 0.18717947602272034, -1.1024912595748901, -0.2159571647644043, -0.7232327461242676, -0.5016923546791077, 1.845939040184021], [1.861989974975586, 1.7004903554916382, 0.06459745764732361, -0.10067406296730042, -1.532721996307373, -0.6224278807640076, -0.3331466615200043, 1.661017656326294], [-0.20068170130252838, 0.24511373043060303, 2.1841912269592285, 1.6033222675323486, 0.34472718834877014, 0.7107669115066528, -0.13168276846408844, 0.5825088024139404], [-0.140294149518013, -1.159439206123352, -1.2442790269851685, 0.44347092509269714, -0.5781064629554749, 0.8564127683639526, -0.4861375391483307, -0.3573191463947296], [0.6663737893104553, -0.0742657482624054, -0.20960482954978943, 0.16632141172885895, 1.4703037738800049, -0.9390866756439209, -0.6013189554214478, -0.09964022785425186], [-0.9488763809204102, -2.38979434967041, -0.2540198266506195, 0.8163998126983643, 0.959474503993988, -0.26033052802085876, -0.7864238619804382, 0.6978719830513], [-0.08046664297580719, -0.8590274453163147, -0.5085695385932922, -0.24699263274669647, 0.8553886413574219, 0.013748809695243835, 0.06962323933839798, -0.10534887760877609], [0.7811435461044312, -1.3985800743103027, 0.9898779988288879, 1.1290409564971924, -0.12656240165233612, -0.18037156760692596, -0.3616234064102173, 0.585790753364563], [0.6075880527496338, -1.1825639009475708, -0.4102936387062073, 0.6404674053192139, -0.3816034495830536, -0.479968398809433, -0.09651875495910645, -1.6061655282974243], [-0.5790438055992126, -0.5173662900924683, 0.5000118613243103, 0.19476941227912903, 1.010336995124817, -0.44411858916282654, -0.39647403359413147, 0.5337579846382141], [-0.478272408246994, 1.0442955493927002, -0.3600398600101471, 1.2818803787231445, 0.82752525806427, -0.051460377871990204, 0.6063666343688965, 0.9797745943069458], [0.6723307371139526, -1.2826422452926636, 0.06639092415571213, -1.1397565603256226, -0.06788131594657898, 1.1636320352554321, 0.781387448310852, -0.724936842918396], [-1.2526382207870483, 0.40821167826652527, -0.8271772861480713, 0.037525974214076996, -0.3229069709777832, -0.8806492686271667, -0.5312462449073792, 0.6941506862640381], [1.4618011713027954, -0.0530339777469635, -0.2940555512905121, 0.16024383902549744, 0.163192480802536, -0.7773208618164062, -1.1150983572006226, 0.9009204506874084], [0.8988602757453918, -0.4655160903930664, 0.29720330238342285, 0.15011964738368988, 0.3570655584335327, 1.219021201133728, -1.1302056312561035, -1.373988151550293], [-1.0581814050674438, 0.2238418012857437, 0.5255071520805359, -0.7356162071228027, 2.7423198223114014, 1.8312716484069824, 1.9402086734771729, -1.106552004814148], [1.526619791984558, 0.9166678786277771, -0.2844060957431793, -0.5190265774726868, -0.4185798764228821, -0.5202835202217102, -1.5185015201568604, -1.0152037143707275], [-0.4455277621746063, -0.07934902608394623, -0.30811914801597595, -1.0427420139312744, -0.25662392377853394, 0.0569084994494915, 0.31429561972618103, -0.15797759592533112], [1.186130404472351, -0.3432013690471649, 0.6635785698890686, 0.1063002273440361, -0.7502531409263611, -0.6585102677345276, -1.293460726737976, 1.974063754081726], [-0.9413542747497559, -2.5636963844299316, 0.7247210741043091, 0.8030542731285095, 0.6379289627075195, 0.40325769782066345, -0.35306552052497864, 0.5094960331916809], [-1.267226219177246, 0.17428818345069885, -0.47459086775779724, 0.2604997754096985, 1.4030070304870605, 0.22449788451194763, -0.6120020151138306, -0.8630641102790833], [0.45339035987854004, -0.39987823367118835, 0.2501029968261719, -0.3367142677307129, -1.7277151346206665, 0.17859569191932678, -1.887609601020813, -0.6297086477279663], [1.3360971212387085, -1.2894561290740967, 0.7624028921127319, 0.6777722239494324, 0.3511543869972229, -2.642970561981201, -1.4485021829605103, -0.9700620174407959], [0.24877607822418213, -0.11066273599863052, 1.1667191982269287, -0.3732742369174957, 1.006787896156311, 0.7426604628562927, 1.214928388595581, -0.6546251177787781], [-1.6996233463287354, -0.15589091181755066, -1.327051043510437, 1.0819183588027954, -0.5893085598945618, -0.7239678502082825, -0.16395427286624908, 1.5917524099349976], [1.9350197315216064, -1.169163703918457, 1.1204397678375244, 1.74667489528656, -1.966544508934021, -0.3276712894439697, -0.8782486915588379, -0.20744529366493225], [1.7483000755310059, 2.594663381576538, 0.39337942004203796, 0.4426800012588501, 0.2612856328487396, -0.16931384801864624, 0.2378402054309845, -0.5304971933364868], [0.48761236667633057, 0.7492172718048096, 1.1800287961959839, 0.008503596298396587, 0.5814945697784424, -0.5692276954650879, -0.1561727672815323, 0.5574309825897217], [-0.7261390686035156, -1.0345966815948486, 0.2528015077114105, -0.6847391724586487, -1.6935805082321167, -0.16017913818359375, -0.44611412286758423, 2.145720958709717], [-0.43677613139152527, -1.2145678997039795, 0.8276201486587524, 0.18490152060985565, -0.29440200328826904, -0.2447926253080368, -1.060309886932373, -1.0017797946929932], [0.061276569962501526, 0.0852610319852829, 0.7481252551078796, -0.16356196999549866, -0.9085567593574524, 0.3129958212375641, 0.8050476908683777, -1.1133602857589722], [0.4669114351272583, -1.1852531433105469, 0.12711893022060394, 0.41070422530174255, 0.6707712411880493, 0.16244763135910034, 1.713293194770813, 0.5524267554283142], [-1.8736529350280762, 2.3259060382843018, -0.9203909635543823, 0.6661149263381958, -0.44026491045951843, -2.3179564476013184, 1.294582724571228, 0.22267311811447144], [-0.7682580351829529, 1.5776698589324951, 1.5519174337387085, 0.05091172084212303, 0.4740576148033142, 0.3975309729576111, 0.5951399803161621, 1.0653166770935059], [-0.33340808749198914, 0.4209933876991272, -0.5518967509269714, -0.3197544813156128, 0.17593148350715637, 0.035637855529785156, 0.6915562152862549, -0.4981768727302551], [-1.0923229455947876, -0.3984074890613556, 0.7546449303627014, 1.4151662588119507, 0.05508580431342125, 1.391572117805481, 0.16959089040756226, 0.47461411356925964], [-1.1324005126953125, 0.09289977699518204, 1.8437690734863281, 0.45016026496887207, 0.03005168028175831, -0.5989906191825867, -1.0665686130523682, 0.5962761640548706], [0.3373402953147888, 0.3328755497932434, -1.2347064018249512, 1.765862226486206, 0.017792876809835434, -0.06653913855552673, -0.733905553817749, -0.7611573934555054], [-0.4852837920188904, -0.5989834070205688, -0.1278679072856903, -2.088810682296753, 0.15100541710853577, 1.0846219062805176, -0.02037644013762474, -0.3506869077682495], [-1.0178112983703613, -0.09866108000278473, -0.862280547618866, 0.02779177576303482, -0.42032119631767273, 0.8805062174797058, -0.11305642873048782, -1.5730078220367432], [2.219963312149048, -1.6251330375671387, 0.21862035989761353, -1.2907235622406006, -0.648189127445221, 0.9418290257453918, 0.37562963366508484, -0.5573047399520874], [-2.772218942642212, -0.6339039206504822, 0.5750856995582581, -1.6145561933517456, 0.818953812122345, -0.18471434712409973, 0.15349189937114716, 0.7556692361831665], [0.0950421392917633, 0.6568049788475037, 0.3600011169910431, 2.601296901702881, 0.5435284376144409, -0.23528647422790527, -0.09107127040624619, 1.4238039255142212], [-0.10874485224485397, -0.41890469193458557, 1.4384384155273438, -0.7068426609039307, -1.2519514560699463, 3.0250487327575684, 1.3462589979171753, 0.8556069731712341], [0.3527042269706726, 0.47148874402046204, 1.4806677103042603, 1.2838678359985352, -0.07590749859809875, 1.3916401863098145, -0.3345300555229187, -1.0020664930343628], [-1.1237053871154785, 0.19448988139629364, -0.5272913575172424, -0.6866815686225891, -0.13667401671409607, 0.589606523513794, 0.8074488043785095, 1.0555682182312012], [0.9350904226303101, 0.24532464146614075, 0.9105693697929382, 2.066009044647217, 0.9147692322731018, 0.4303632378578186, 0.2241838127374649, 0.21937353909015656], [0.07005051523447037, 1.70210862159729, -1.2093331813812256, 0.39150604605674744, 0.3246802091598511, -1.4012455940246582, -1.428009271621704, -0.2196110635995865], [0.0970144122838974, 0.022302355617284775, 1.0243314504623413, 1.1231772899627686, 0.23263679444789886, 0.750065267086029, -0.704763650894165, -1.3498653173446655], [0.45901596546173096, 0.5309328436851501, -1.3614805936813354, 1.9562491178512573, 1.7684898376464844, -0.9857985377311707, -1.237075924873352, -2.301875114440918], [0.06013162434101105, -0.7588430047035217, -1.560390591621399, 0.3331241309642792, 1.248827338218689, 0.41574570536613464, -0.363368421792984, 2.7348744869232178], [0.755111575126648, 0.7971357107162476, 1.793804407119751, 0.6333343386650085, 0.2004646509885788, -1.463844656944275, -0.4960911273956299, 0.4569457173347473], [0.33134230971336365, -3.0708045959472656, -1.445706844329834, -1.4176970720291138, -0.5939416885375977, -0.2687128484249115, -0.7307597994804382, -0.3733038008213043], [0.3406229317188263, -0.619450569152832, -0.26982545852661133, 0.5699301958084106, -0.19668669998645782, 0.6711878776550293, -0.6955040693283081, -0.928210437297821], [0.01775960437953472, 0.09723758697509766, 0.8153935074806213, 1.279819130897522, 0.23520945012569427, -2.3065638542175293, 0.38730141520500183, 1.749729037284851], [-0.7997041940689087, 0.12640732526779175, -1.3766086101531982, 0.26044565439224243, 0.657964289188385, 1.303784728050232, 0.6096441745758057, -0.27398955821990967], [0.8244088292121887, 0.47325193881988525, 0.03520328551530838, -1.3599145412445068, -0.5493054389953613, -0.14135877788066864, 0.24715781211853027, -1.170079231262207], [-0.3417682647705078, 1.3852124214172363, 0.43791189789772034, -0.9626758098602295, -0.6083361506462097, -0.4218011796474457, -1.2515966892242432, 0.9594589471817017], [-1.1492685079574585, -1.8498424291610718, 0.4503753185272217, 0.544928789138794, 0.15525047481060028, -0.8711567521095276, 0.14312264323234558, -0.8530142903327942], [1.3675811290740967, -0.3197358250617981, -0.9130924344062805, 1.9192092418670654, -1.6514869928359985, 2.1477253437042236, -0.6604135036468506, 0.11352583765983582], [-0.18379181623458862, 0.48492902517318726, 0.25001049041748047, 1.663611650466919, -0.33815106749534607, -0.42189204692840576, -1.0809433460235596, -0.5376087427139282], [-0.26019662618637085, 0.10906454920768738, 0.511026918888092, 0.4701162278652191, 0.48782095313072205, 0.9375507831573486, -0.7024227380752563, 0.2899135947227478], [0.9208053350448608, -0.6943631172180176, 1.512627124786377, 0.6969504356384277, -0.002093096962198615, 1.1037027835845947, 0.7358976602554321, -0.2349797487258911], [-1.3821510076522827, -2.3356611728668213, -0.2639959156513214, -0.12235333025455475, -0.13996794819831848, 1.116641879081726, -0.2687855064868927, 1.6487809419631958], [-0.5647391080856323, -2.0838258266448975, -1.6218836307525635, -0.6730967164039612, 0.43562018871307373, -0.3152059018611908, 0.48763880133628845, -2.3558993339538574], [-0.5623212456703186, -0.5354058742523193, 1.2529196739196777, 1.2771598100662231, -1.173673391342163, -0.011274173855781555, -0.9633474349975586, 1.4468369483947754], [1.3666198253631592, -1.2506757974624634, -1.279589056968689, -1.2076551914215088, -1.5660631656646729, -2.510990858078003, 1.361036777496338, -0.5513379573822021], [0.6642730832099915, -0.7649917602539062, 0.07649670541286469, 1.4727230072021484, 1.0419304370880127, -0.29500871896743774, -1.5474107265472412, -0.8818064332008362], [-0.781278133392334, -0.49595609307289124, 0.9111613631248474, -0.8300809264183044, -2.455488443374634, 0.21200187504291534, 1.927833080291748, 1.2110538482666016], [-0.5549824833869934, -0.6281178593635559, 0.3168031573295593, -0.14243781566619873, 0.5921462178230286, 1.550063967704773, 1.48422110080719, -0.49223560094833374], [1.861944556236267, -1.077892780303955, 0.8848567605018616, -0.8342104554176331, 1.0300743579864502, -0.8680981993675232, -0.5701602697372437, 0.323322057723999], [1.1641887426376343, -1.3232827186584473, 2.6232125759124756, -0.15280188620090485, -0.14411289989948273, 1.2227226495742798, 0.8156084418296814, -0.9232634902000427], [0.06178676337003708, -0.428653746843338, -2.1946520805358887, -0.4088791012763977, 0.3415871262550354, -0.4962915778160095, -0.3433969020843506, -0.2643786370754242], [0.896554172039032, -1.087850570678711, -1.3539295196533203, 0.7056541442871094, 0.3792262375354767, 0.6081562638282776, 0.9436001777648926, 0.6938345432281494], [0.41921085119247437, 0.04913024604320526, 0.16861385107040405, 0.35720667243003845, 0.09658738970756531, -0.7883526086807251, 0.6172695755958557, -0.7627967596054077], [-0.20846819877624512, -1.4790165424346924, -0.5977302193641663, 0.03687713295221329, 0.20330707728862762, 1.4502581357955933, -0.39931321144104004, -0.11314355581998825], [-0.5201396346092224, -0.9109638929367065, -0.3065921664237976, -0.3479832708835602, -0.7750166058540344, -0.9582217931747437, 1.4358898401260376, -0.7805346250534058], [-0.3241012394428253, 0.9374179244041443, -0.34734660387039185, -0.9239928126335144, -0.5675405263900757, 2.1804049015045166, -0.6811122298240662, 0.3025665879249573], [0.8608934879302979, -1.7139389514923096, 1.1881451606750488, -2.90234637260437, -0.40180984139442444, -0.7404487133026123, -1.6262848377227783, -0.36652323603630066], [0.14587630331516266, 0.6195783019065857, 1.8994721174240112, -2.0454843044281006, -1.5516157150268555, 0.3682953715324402, 0.5542688369750977, -2.2623603343963623], [-0.030115798115730286, -0.09860029071569443, 0.1877753883600235, -0.6346802115440369, -0.08028299361467361, -0.21300481259822845, -0.6157792210578918, -0.06929877400398254], [-1.0375560522079468, 0.48385024070739746, 2.0953712463378906, -0.522948145866394, 1.1331123113632202, 1.32259202003479, 0.9035881757736206, 0.1620662361383438], [0.6470159292221069, -0.6352334022521973, 0.2327328771352768, 0.008747066371142864, 0.49937933683395386, -0.6121962070465088, 1.3122540712356567, 0.8490563631057739], [0.6928544640541077, -0.8606944680213928, -1.4165136814117432, -0.4525562524795532, 0.09671584516763687, 1.133097529411316, 0.5975996851921082, 1.6240392923355103], [-1.2029622793197632, 1.0279954671859741, -1.5102331638336182, 0.672373354434967, -0.0704217180609703, 0.09409748017787933, -1.634568691253662, -0.8082247972488403], [1.1791359186172485, 0.6098875999450684, 0.04414362832903862, -0.23866006731987, -1.1456103324890137, 0.867668628692627, -0.06211715564131737, 0.07463895529508591], [-0.45906615257263184, 0.034916192293167114, 1.0881928205490112, -1.038050889968872, 0.38997524976730347, 0.05535249784588814, 1.2031790018081665, -1.4107537269592285], [-0.13038362562656403, 2.1077048778533936, 0.06615128368139267, 0.423321932554245, 0.977096438407898, 0.9544073343276978, -0.24553829431533813, -0.18253463506698608], [0.5236620903015137, 0.13790512084960938, 0.5277711153030396, -0.0025160640943795443, 0.2961692214012146, 1.1549880504608154, 1.3192476034164429, 1.024358868598938], [0.80229252576828, -0.760037899017334, 0.8938927054405212, -0.29950350522994995, -0.3488907814025879, -1.143907904624939, -1.723238468170166, -2.545322895050049], [0.09694309532642365, -0.7912065386772156, 0.37119561433792114, 1.5117958784103394, -0.8914596438407898, 0.5247467756271362, 0.35178086161613464, 0.2491273283958435], [1.1098881959915161, 1.4654902219772339, 0.7919148802757263, 0.5308878421783447, -0.03828679770231247, -0.938940167427063, -0.061581287533044815, -0.9698344469070435], [0.09178663790225983, 0.16005602478981018, -0.19487310945987701, 0.6802012324333191, 0.3532622158527374, 0.5150963068008423, 1.1884186267852783, 1.1534603834152222], [0.6885754466056824, 0.07530758529901505, -1.4108507633209229, -1.474966049194336, 0.4334995150566101, -1.3303955793380737, 1.9187800884246826, -0.11716374009847641], [-0.293364942073822, 1.397810459136963, -0.9166566729545593, -0.7793720364570618, -0.4175384044647217, 1.1059718132019043, 0.25285324454307556, -0.10754025727510452], [0.745309591293335, -0.9724719524383545, 0.9776323437690735, -1.115193486213684, 1.080281138420105, -1.023923635482788, -0.766556441783905, -0.25122979283332825], [-0.11662859469652176, -0.007016181014478207, 1.163593053817749, 0.5652050971984863, -1.685221552848816, 0.38947537541389465, 1.4459447860717773, -1.129796028137207], [-0.7624121308326721, -0.34590646624565125, 0.1427966207265854, -0.0794924795627594, 1.1530683040618896, 0.07016763836145401, -0.05370147526264191, 3.4557480812072754], [-1.0587542057037354, -0.4277445375919342, -0.02129361592233181, 0.5282188057899475, 0.13340158760547638, -0.8531078696250916, 1.2012743949890137, 0.27851471304893494], [-0.14472715556621552, 2.4177515506744385, 0.6200056076049805, 0.14766938984394073, -1.1430305242538452, -0.592616856098175, 0.5740646719932556, -0.2837212085723877], [-1.4618511199951172, -0.09890285134315491, 0.4461548626422882, 1.2077462673187256, 2.0289223194122314, 1.721133828163147, 0.37705641984939575, -2.2848527431488037], [-0.3888742923736572, -1.1546995639801025, -0.2545638680458069, -0.44409283995628357, 1.6871981620788574, -0.5408434867858887, 0.529521644115448, -0.659610390663147], [0.09454710781574249, -0.19276462495326996, 0.9647646546363831, -0.9774937033653259, -0.8718754649162292, -0.8775098919868469, 2.850233554840088, 1.2940211296081543], [-0.5293295383453369, -0.7193113565444946, -0.5548543930053711, 0.14980041980743408, -0.10095059871673584, -0.5512250661849976, 1.0897932052612305, 0.7945905327796936], [1.015055537223816, 0.7160385251045227, 0.8472846746444702, 0.8606945276260376, 0.3195008635520935, -0.4046768844127655, -0.6840050220489502, -1.5864452123641968], [-0.6507101058959961, 0.6263436079025269, 0.7402533888816833, 0.38607358932495117, 1.4047225713729858, 1.8680938482284546, 0.2688009440898895, 1.3573930263519287], [0.5455461144447327, 0.4078533351421356, 0.8636881709098816, 1.9930850267410278, 0.40343278646469116, 0.51807701587677, -0.043810177594423294, 1.0097309350967407], [-0.3764994740486145, -0.6726763844490051, -0.04155546426773071, 2.0514309406280518, -0.6004129648208618, -0.08652149885892868, 1.429512619972229, -0.3995228409767151], [-0.2889619767665863, 1.0350522994995117, 1.4317868947982788, 0.8831616640090942, 0.04580504447221756, 0.6659418940544128, -0.2282874435186386, -0.6257307529449463], [-1.9385048151016235, 0.3979729115962982, -0.5666226148605347, -0.08370017260313034, -0.1991863250732422, 1.1980068683624268, -1.4278019666671753, -0.41113683581352234], [0.1040995717048645, -1.4421583414077759, -1.6720863580703735, -0.5525490641593933, 0.5650739073753357, -1.2951626777648926, 1.2347161769866943, -2.0281105041503906], [1.3235737085342407, 0.3161862790584564, -0.9525125026702881, 0.45338526368141174, -0.7622275948524475, -0.2645350694656372, 0.25723519921302795, 0.5906420350074768], [-0.5176265239715576, 0.48291799426078796, -0.6287940740585327, -0.04148346930742264, -0.6299513578414917, 1.0142040252685547, 0.3139157295227051, 1.0176873207092285], [0.49058395624160767, -1.088990569114685, -0.6941244006156921, 0.03166869655251503, -0.6639405488967896, -0.5760036706924438, 0.7820082306861877, 2.23551344871521], [-1.7732727527618408, -0.9907275438308716, 0.634861409664154, 1.0238486528396606, 0.9574744701385498, 0.019129564985632896, -1.0700304508209229, -0.7518913149833679], [2.3802244663238525, -1.8348530530929565, 0.38712969422340393, -1.3647040128707886, -0.36521634459495544, 0.01941298320889473, -0.5986762046813965, -1.2444559335708618], [-0.154574453830719, -0.09232353419065475, 1.0133460760116577, 0.13537666201591492, 0.7453949451446533, -0.7705031633377075, 1.0959017276763916, 0.1356809437274933], [-0.43586841225624084, -0.9312842488288879, -0.0943077877163887, -0.6945457458496094, -0.11894884705543518, 1.577502965927124, -1.4479962587356567, -0.17935556173324585], [0.016305703669786453, 0.12404174357652664, 0.6891300082206726, 0.9420430660247803, -0.6508594155311584, -1.1643115282058716, -0.6739979982376099, 1.272339940071106], [0.23598231375217438, -0.4465661346912384, -1.1778024435043335, 1.4125137329101562, -0.02316661737859249, -0.011093219742178917, -0.9952821731567383, -0.29935362935066223], [0.6780985593795776, -0.8839688301086426, -2.234274387359619, -0.7578051090240479, 0.7463452219963074, 1.194179892539978, -0.08515133708715439, 1.0485925674438477], [1.0526583194732666, -0.18474601209163666, -0.5599770545959473, -0.22340717911720276, 0.48854610323905945, 0.2993985712528229, -0.5002292990684509, -0.43703097105026245], [0.03555459901690483, -1.4024368524551392, 0.5310555696487427, -0.39077597856521606, -1.898382306098938, 0.1060427650809288, -0.4578322172164917, -1.2058671712875366], [-0.45907261967658997, 0.015070661902427673, -0.06603045016527176, 1.1771146059036255, 1.706557035446167, 1.9925386905670166, -0.26839524507522583, -1.281595230102539], [-0.5503571033477783, -0.6235736608505249, 0.6219413876533508, -1.3190373182296753, 0.09519347548484802, 0.5840471386909485, -0.923151969909668, -0.4517383575439453], [-1.1338030099868774, -0.14128278195858002, -0.6456266641616821, 0.4101375937461853, 0.32671934366226196, -0.8344284892082214, -0.4921729862689972, 0.658042311668396], [0.45962920784950256, 1.1750506162643433, -0.3101397752761841, 1.4908243417739868, -0.9391014575958252, 0.270177960395813, -0.21636570990085602, -0.12786865234375], [-0.19569455087184906, -0.4493350088596344, 0.1118999570608139, -0.2582593262195587, 1.2540980577468872, 0.09075014293193817, -0.3599459230899811, -0.6297298669815063], [2.904782295227051, -1.1899527311325073, 1.9646872282028198, -1.1823164224624634, -1.5855859518051147, 0.056343041360378265, -0.9309106469154358, -0.3938339054584503], [-0.9810458421707153, 0.18227995932102203, 0.7112257480621338, -1.346615195274353, 1.1661449670791626, 0.039412762969732285, 1.9860352277755737, -0.1310405284166336], [-1.2827123403549194, 0.9609440565109253, -0.04562244564294815, -1.1409358978271484, 0.6824686527252197, -0.18382973968982697, -0.3883388936519623, -0.431009441614151], [1.5894044637680054, 0.3485496938228607, 1.6783595085144043, -0.005017011892050505, 1.127379298210144, 1.3801774978637695, 0.3029290735721588, 0.1047869324684143], [0.29090699553489685, -1.0972917079925537, -0.9937573671340942, -0.4848799705505371, -0.7794108986854553, 0.5095651149749756, -0.8688328266143799, 0.7484982013702393], [0.4062654376029968, -0.05260065943002701, 0.355697363615036, -1.1923973560333252, -0.650202214717865, -0.4011341333389282, -0.03907407447695732, 0.61771559715271], [-1.1201530694961548, 0.6137771606445312, 1.0978026390075684, -0.759743869304657, 0.6157989501953125, 0.5093993544578552, 1.8065028190612793, -0.761497437953949], [-1.122189998626709, -0.2019513100385666, 0.301481693983078, -0.32530251145362854, -0.6567481756210327, -0.6638075113296509, 1.3929013013839722, -1.4858912229537964], [0.6458368301391602, -0.38624075055122375, -0.9673241376876831, 0.39981523156166077, 0.06837514042854309, 0.6467053890228271, -1.3502826690673828, 1.04408860206604], [0.26687121391296387, 1.0489741563796997, -0.04127616435289383, 0.18104185163974762, -0.2171904444694519, -0.1873086839914322, -0.8394705653190613, 1.1557422876358032], [-0.4532548487186432, 0.14975690841674805, 1.6100654602050781, -0.5864127278327942, 0.36298346519470215, 1.5770548582077026, -1.1793897151947021, -0.7354656457901001], [1.149619698524475, 1.4314041137695312, -1.069678783416748, 0.375707745552063, -0.15430767834186554, -0.4736788868904114, -0.46680063009262085, -0.4779019057750702], [-0.8860907554626465, 0.3304198086261749, 0.2578747868537903, 0.5116817951202393, -0.6041198372840881, -0.4548030495643616, -0.35524770617485046, 0.19031797349452972], [0.27282434701919556, -1.7421244382858276, 0.3251632750034332, 1.489659070968628, 0.7919163107872009, 1.3756613731384277, -0.9585191607475281, -0.6546640992164612], [0.8371177315711975, -1.7342555522918701, 0.47130826115608215, 0.6913926601409912, 0.721467912197113, -0.46614280343055725, -0.5107012391090393, 0.13939198851585388], [0.36762145161628723, -1.83419668674469, -0.6327569484710693, -0.13142509758472443, -0.2504887878894806, 0.1697777509689331, -0.2971115708351135, 0.21966983377933502], [-0.21310557425022125, 0.1161523163318634, -1.4320244789123535, 0.5114155411720276, 0.8759523034095764, -0.13650797307491302, 0.5205894112586975, -1.8826327323913574], [-1.5651887655258179, -0.1985616236925125, -0.7129780054092407, -1.264486312866211, -1.2822208404541016, -1.5387357473373413, -0.5704790353775024, 1.2805657386779785], [-1.5905754566192627, -0.902010977268219, 1.4268563985824585, 0.8833240866661072, 0.5012072920799255, -0.8116070032119751, -1.0124320983886719, 0.5212374329566956], [-0.9170778393745422, 1.0041874647140503, -1.0198562145233154, -2.7226693630218506, 1.2145040035247803, 0.2621859908103943, 0.340390145778656, 1.2705023288726807], [-0.8923647403717041, -0.6855399012565613, 0.014388421550393105, -0.6445904970169067, 0.6910943984985352, 0.7243946194648743, -0.9585553407669067, -2.9620537757873535], [-0.9897713661193848, -0.6022038459777832, -0.7153372168540955, -0.46740469336509705, 0.551419734954834, 2.654942035675049, 1.0582451820373535, -0.1468161642551422], [-0.8484667539596558, 0.22240225970745087, 1.7987184524536133, -0.5205919742584229, -0.6998980045318604, -0.11316803097724915, -0.3897313177585602, -0.3686904013156891], [-1.2298917770385742, -1.494815468788147, -0.7594360709190369, 1.1456857919692993, 0.2765946686267853, 0.44112101197242737, 0.07215709239244461, -0.5848386883735657], [-0.19986620545387268, -0.1544511914253235, -1.178133487701416, -1.2810287475585938, 0.052055757492780685, -0.4785091280937195, 1.1887084245681763, -0.870809018611908], [1.146209955215454, -1.1787331104278564, -0.036672789603471756, 0.6718097925186157, 0.9242297410964966, 0.2697158455848694, 0.628537118434906, -0.7066188454627991], [-0.7345467805862427, 0.9931482672691345, -0.3908100426197052, 0.28085005283355713, -0.6354241371154785, 0.03333575651049614, 0.30260369181632996, 1.2411751747131348], [-0.8915002942085266, 1.6684852838516235, -1.1459169387817383, 1.1530693769454956, 1.1924464702606201, 2.094709873199463, 0.6439462900161743, -1.2221267223358154], [-0.2773733139038086, 0.4555998742580414, -0.3232904076576233, -0.40537959337234497, 0.35110795497894287, 1.1433830261230469, 0.8457913994789124, 0.9673205018043518], [-0.14116622507572174, -1.4545776844024658, -0.03284788876771927, -0.960084080696106, 1.190665602684021, 1.6323753595352173, -0.15554656088352203, 0.9517367482185364], [0.8736382126808167, -0.8781946897506714, -0.1300027072429657, 1.0354959964752197, -0.1515081822872162, -0.2823353707790375, 0.5460185408592224, 0.33102014660835266], [-0.525558590888977, 0.637951672077179, -2.9916839599609375, 0.19136646389961243, -0.45912712812423706, -0.9495753645896912, -1.5105481147766113, 1.490242838859558], [-0.8884067535400391, -0.44169920682907104, 0.37885087728500366, -0.3629210591316223, 0.022771531715989113, 0.15562088787555695, 1.569936990737915, 0.9435407519340515], [-0.2770329415798187, -1.0838819742202759, 0.41056010127067566, -0.2289123833179474, 0.2994464039802551, 1.3017152547836304, -0.6670297980308533, 0.7984392046928406], [0.4107944667339325, 0.2792479693889618, 0.15220913290977478, -0.20818305015563965, -1.4829041957855225, -0.6257439255714417, 0.8655737042427063, -0.20139147341251373], [-1.164878249168396, 0.37844327092170715, -0.962190568447113, 0.6913824677467346, 0.13479293882846832, 0.4998255968093872, -1.5253301858901978, -0.5608887672424316], [0.10698884725570679, -0.10149970650672913, 0.08301469683647156, 0.712009072303772, -0.9005929231643677, 0.890689492225647, 0.4765518009662628, -0.8396266102790833], [0.296188086271286, -1.1557135581970215, -0.5539088845252991, -1.8747798204421997, -0.945355236530304, 0.37373507022857666, -0.5766146779060364, 1.177810788154602], [0.7126340866088867, -0.40769636631011963, 1.1968544721603394, -0.7454029321670532, 0.5732758641242981, 1.3804265260696411, 0.17692312598228455, 0.10791169106960297], [0.33024170994758606, -0.9533718824386597, 1.5734566450119019, 1.8697383403778076, -1.0638948678970337, -0.22725839912891388, 0.25006136298179626, 1.161847710609436], [-0.06914915144443512, -0.19626936316490173, 0.858898401260376, -0.8803829550743103, -0.6408458352088928, 1.0649759769439697, 1.2554012537002563, 0.8138672113418579], [-1.2562004327774048, -1.4574648141860962, -0.5164268612861633, 0.37755224108695984, -0.05771036818623543, -1.0249502658843994, -2.7183847427368164, -0.0736895352602005], [-0.939267635345459, 0.4569729268550873, 1.844049096107483, 0.49267399311065674, 0.1970139741897583, 0.4198252856731415, 0.8528888821601868, 0.29054707288742065], [-0.18783996999263763, -1.5455304384231567, 0.4863740801811218, 0.22857707738876343, 1.3585572242736816, -0.9905256628990173, -1.6168277263641357, 0.7310684323310852], [-0.976205587387085, -0.29204392433166504, 0.24776393175125122, 1.0965697765350342, -1.465828776359558, -0.16463829576969147, -0.4654821753501892, -0.1326250433921814], [-0.8943579792976379, 0.6788010597229004, 0.7879161238670349, -2.0000739097595215, -0.6310003399848938, -0.888892412185669, 1.2018479108810425, -1.3651829957962036], [-0.4544503390789032, 1.6884442567825317, -0.6335400342941284, -2.9850895404815674, 1.0654032230377197, -0.0005085067241452634, 1.266202449798584, 3.015857219696045], [1.9377914667129517, -0.5536230206489563, -1.3029972314834595, 1.0696020126342773, -0.45618289709091187, 1.3634916543960571, -2.4219810962677, -0.08308011293411255], [-0.007692162878811359, 0.21901242434978485, 0.012799079529941082, 0.4800022542476654, 0.3435535430908203, -0.7762108445167542, 1.3840725421905518, -1.9070640802383423], [-0.6177604794502258, -0.42796096205711365, -0.14306043088436127, 1.090669870376587, 0.28185713291168213, 0.042935945093631744, -0.07251343876123428, -0.3013215661048889], [-1.121044397354126, -0.4303874969482422, -0.1311018317937851, 0.10028992593288422, 1.9895843267440796, 0.6590960621833801, -0.45521971583366394, 1.0614300966262817], [-0.3845979571342468, 0.34453698992729187, -0.5621755719184875, -0.3112695515155792, 0.5685667991638184, 0.772105872631073, 0.15502092242240906, 0.2485692948102951], [0.21192429959774017, 1.7063854932785034, 0.27746039628982544, -0.7911320924758911, -1.0027806758880615, -0.4337795078754425, -0.043430160731077194, -0.8422501683235168], [0.1838703155517578, 1.6621010303497314, -0.9472985863685608, 0.40150102972984314, 0.38949447870254517, 0.4591265916824341, 2.014981269836426, -0.6592397689819336], [-1.6836141347885132, -0.04174292832612991, 0.3890182077884674, 0.5619186162948608, 0.6310707926750183, 0.24734315276145935, -0.7635316848754883, -1.6033031940460205], [0.99629145860672, 0.7589653134346008, 1.0933252573013306, -0.0816870927810669, 0.5890651941299438, -2.2478291988372803, -0.7160336971282959, -2.2157633304595947], [-1.3722304105758667, 0.27589040994644165, 0.5925331115722656, -0.4163936376571655, -0.9517945051193237, -1.5762289762496948, 1.0337060689926147, 0.08586468547582626], [1.1546059846878052, 0.9823276996612549, -1.59581458568573, 0.04137143865227699, 0.19511204957962036, -1.2871702909469604, -0.9419529438018799, 0.9795641303062439], [0.64510577917099, 1.5022486448287964, -0.0180008877068758, 0.23819687962532043, -0.06667756289243698, 0.9057672619819641, -1.0397815704345703, 1.2848758697509766], [-0.6818792819976807, 1.1983294486999512, -1.595100998878479, 0.6586499810218811, 0.05788327381014824, -0.8633725047111511, -1.3248863220214844, -0.8412718772888184], [0.7094948887825012, 0.054154183715581894, -0.29245415329933167, -1.8628965616226196, 1.469162940979004, 0.36211952567100525, -0.4858115315437317, 2.1023945808410645], [0.06127312034368515, -0.2964582145214081, -0.055557120591402054, -0.5427023768424988, -0.4319656193256378, -0.18805517256259918, -1.627187967300415, -1.5552942752838135], [0.7855619192123413, 0.4727063775062561, 0.2321365475654602, 0.009119505994021893, 0.045210614800453186, -0.810771107673645, -1.102912425994873, -0.8136754035949707], [1.1550195217132568, 1.2210900783538818, -0.13345372676849365, -1.2683677673339844, -0.47564610838890076, 1.0908187627792358, 0.657565712928772, 0.7985067963600159], [-0.5345274806022644, -0.7161396145820618, 1.5995413064956665, 0.7637162208557129, 0.0036452796775847673, 0.8951736688613892, -0.03532344475388527, -0.7504050135612488], [-1.794676661491394, 0.4010520875453949, -0.6780986785888672, 1.7064239978790283, -0.16310162842273712, 0.624828577041626, 0.9031853079795837, -0.1092187911272049], [1.1182692050933838, 1.6587181091308594, 0.41449666023254395, -1.0117790699005127, -0.5792713761329651, -0.9800906181335449, 0.39229896664619446, 0.275805801153183], [-1.7979083061218262, 0.4945462942123413, -0.12595844268798828, -0.6513004302978516, -0.27358028292655945, 0.5345583558082581, -0.30492088198661804, 0.9683794379234314], [0.3517625033855438, 0.3225250840187073, 0.891986608505249, -0.6336494088172913, 1.465294599533081, -0.3156340420246124, 1.2321609258651733, -0.12601338326931], [-0.37906384468078613, -0.18100784718990326, 0.3341139256954193, 0.7063342332839966, 0.8296871185302734, -1.0620518922805786, 0.5387791991233826, 0.81083744764328], [-3.7981860637664795, 0.13338059186935425, 1.973732829093933, 1.0111839771270752, 2.1025171279907227, 0.2641657590866089, 1.1619758605957031, -1.2534714937210083], [-0.925286054611206, -0.06614109873771667, 0.3506147563457489, 0.6316007375717163, -0.12637443840503693, 0.7810525894165039, 1.4009301662445068, 0.06341838091611862], [-0.8555387854576111, -0.8649457693099976, -0.3786771595478058, -1.1397110223770142, -0.007027558051049709, 0.6517918109893799, 0.1288691759109497, 1.2711058855056763], [-0.2796395421028137, -0.6379639506340027, 0.46345028281211853, 0.7968149185180664, 0.3522026538848877, 0.942291259765625, 1.8499782085418701, 0.1120196282863617], [0.949813961982727, -1.399469256401062, -0.7374785542488098, 0.9613224864006042, -0.4341767728328705, -0.4985419809818268, 0.5085731148719788, -0.1304410845041275], [0.557232141494751, 0.5092085599899292, -1.9143221378326416, -0.6478732824325562, -0.6909425854682922, -0.44988545775413513, -0.8178809285163879, -1.4874087572097778], [0.468858927488327, -0.07969172298908234, 0.45524662733078003, 0.18286342918872833, 0.12490306049585342, 0.3322308659553528, 0.27486535906791687, -1.316275715827942], [-1.3049927949905396, 0.8858737349510193, 0.13062191009521484, 0.9323304295539856, 0.9987120628356934, -1.2458994388580322, 1.0107380151748657, 0.4668356776237488], [-1.0633231401443481, -0.34486281871795654, -1.0389333963394165, -0.5787967443466187, 0.13368865847587585, 0.3615263104438782, -0.9268108606338501, 1.3557257652282715], [-0.09897834062576294, 0.7928693294525146, -1.3210707902908325, 0.6182153224945068, 1.0905117988586426, 0.31313395500183105, 0.6006958484649658, 0.26808518171310425], [-0.948876142501831, -0.7139797210693359, 0.684573769569397, -0.41635042428970337, -0.9315062761306763, -0.9153095483779907, 1.255393624305725, 0.34960994124412537], [-2.0042967796325684, 0.005512263625860214, 0.46033239364624023, 1.179113507270813, -1.0105520486831665, -0.6202586889266968, -1.454878568649292, -0.5897568464279175], [-0.7278779745101929, 0.6193161606788635, 0.8099683523178101, -0.13971468806266785, -0.4103638529777527, -0.2670021057128906, -1.2069265842437744, 1.7672104835510254], [-0.17195014655590057, 0.6111039519309998, 0.729906439781189, 0.5154991149902344, -0.7186110615730286, -0.049754548817873, -0.8570108413696289, -0.34608080983161926], [-0.5863382816314697, -0.04974234104156494, 0.30420997738838196, 1.6522409915924072, -1.5261226892471313, -0.35046470165252686, -0.4374687969684601, -0.7841265201568604], [-1.4915300607681274, -1.2947864532470703, 0.9392812252044678, 0.046122051775455475, 0.28134670853614807, 0.18089716136455536, -0.5324602127075195, 0.8712747097015381], [2.0332632064819336, 1.0049149990081787, -1.9017080068588257, -0.5158042311668396, -0.12295833230018616, -1.1638998985290527, -0.12779918313026428, 0.6908044219017029], [0.015569462440907955, -0.5632143020629883, -0.40804803371429443, -0.06810533255338669, -1.4200173616409302, -0.2518952786922455, -0.6600248217582703, -1.4227392673492432], [0.2274663746356964, -0.02878851257264614, -0.3836108148097992, -0.8264474868774414, -0.7424806356430054, 1.4655667543411255, 0.06144513934850693, -0.18335777521133423], [-0.44896265864372253, 1.8752669095993042, -0.8789963722229004, 0.43526992201805115, -1.0126796960830688, -1.3864295482635498, 0.7122782468795776, 0.568652868270874], [-1.3197240829467773, 0.013098540715873241, -0.9957124590873718, 0.2913292944431305, -2.1977922916412354, -0.9964154362678528, 0.22122453153133392, -0.8721945881843567], [0.8365045785903931, -1.0882854461669922, 0.1278754323720932, -0.11517858505249023, 0.5978593230247498, 0.5343778729438782, -0.9292630553245544, -0.041627734899520874], [-0.5261417627334595, -1.3153742551803589, 1.8641128540039062, 1.3434141874313354, -0.7785831689834595, -1.7552649974822998, 1.3168784379959106, 1.0747745037078857], [-0.8254666924476624, -0.4761102497577667, -0.9330033659934998, -0.3408966362476349, -1.735862374305725, 0.3041151463985443, -0.45519980788230896, 0.9308849573135376], [0.28829309344291687, 1.7274506092071533, -1.6451973915100098, -0.4930238127708435, 0.507050096988678, 0.9606373310089111, 0.29259610176086426, 0.3727640211582184], [-1.9052097797393799, 0.268505334854126, -0.2397981882095337, 0.9375279545783997, -0.34400415420532227, 1.661163568496704, -0.6879780292510986, -1.3866063356399536], [-1.3264480829238892, -0.09735070914030075, 1.2881968021392822, 0.2638213634490967, 1.3611104488372803, 0.7214627265930176, 0.41751715540885925, -0.1838591992855072], [1.063738465309143, 2.8172967433929443, -0.1284811794757843, -0.1777641475200653, -1.3645974397659302, -0.9664241075515747, 1.0994271039962769, 0.13153225183486938], [0.4410557448863983, 0.3765465021133423, -1.076420545578003, -0.801129162311554, 2.091567039489746, 0.27413415908813477, 0.02301991917192936, -0.38377684354782104], [-0.5189593434333801, -0.6505187749862671, -1.5581879615783691, 1.0812551975250244, 0.4808123707771301, 1.0334800481796265, -0.3216487467288971, 0.7059873938560486], [-1.4135804176330566, -0.7928552627563477, 0.07204078137874603, 0.612282395362854, 0.9463304281234741, 1.1294389963150024, 0.333918958902359, -0.15399545431137085], [-0.7969973087310791, -0.9268509745597839, 0.8890432715415955, -1.6327710151672363, 0.37658268213272095, 0.20523399114608765, 0.793383777141571, 0.05216114968061447], [0.4104490280151367, 0.21237054467201233, 1.4382667541503906, -0.1589457392692566, 0.15366268157958984, -0.3693515360355377, -1.2781078815460205, 2.603830575942993], [-1.0513418912887573, 1.0511598587036133, 0.873528003692627, 0.3645465672016144, 1.2516578435897827, -0.8230313062667847, -0.01180460024625063, -1.880554437637329], [0.5165714025497437, 1.0843769311904907, -0.8542751669883728, 0.10099875181913376, 0.7342868447303772, -1.3285531997680664, -0.33071622252464294, -1.6202144622802734], [1.3898133039474487, 0.3712380826473236, 0.7068518996238708, -1.3580695390701294, -0.829101026058197, -1.5087072849273682, 0.1558692306280136, 0.2859295606613159], [-0.8140339851379395, 0.9398024082183838, -0.6073264479637146, 1.354562759399414, 1.7357914447784424, 0.4432370662689209, 0.5485320091247559, 0.45603224635124207], [0.34327515959739685, 0.7329735159873962, -0.6241675019264221, 1.617732286453247, 0.10265253484249115, -0.22176209092140198, 0.8608237504959106, -0.03893502429127693], [-0.18876269459724426, -0.8098741173744202, 1.5879007577896118, 0.2097959816455841, -0.03101298213005066, 0.3230716586112976, -0.5599886775016785, -0.20783588290214539], [-1.1181635856628418, 0.15150457620620728, 0.2537236511707306, 0.5651913285255432, 1.4929907321929932, 0.1311904639005661, -0.22191426157951355, -0.7041895985603333], [0.010005278512835503, -0.10068836808204651, -0.5747162103652954, 0.49888092279434204, 0.6923119425773621, 1.2888909578323364, -2.2042758464813232, 0.23271887004375458], [-0.9448207020759583, 0.6972631812095642, 0.8473809361457825, 0.1789964884519577, -0.24981023371219635, -0.05845346301794052, 0.2756076753139496, -0.839348316192627], [1.481297492980957, 0.10587787628173828, 1.4992411136627197, -0.055706556886434555, -0.08755987882614136, 0.30292466282844543, 0.5595564246177673, -0.2593887448310852], [1.337633728981018, 1.7382794618606567, 0.47931650280952454, 0.10959501564502716, 0.019869308918714523, 0.5846199989318848, -1.2012158632278442, 0.22316157817840576], [0.13273762166500092, -0.2867219150066376, 2.19882869720459, 0.9192128777503967, -0.17750100791454315, -0.6064248085021973, -0.20260976254940033, 1.2527140378952026], [-0.9434769749641418, 2.028413772583008, 0.3931215703487396, 0.41331255435943604, 0.4638986587524414, -0.029826905578374863, 1.2715272903442383, 1.0848652124404907], [-1.0831719636917114, -0.05315380543470383, -0.358736127614975, 0.4373362362384796, 0.34565243124961853, 1.2565573453903198, -1.442592740058899, 0.9129894375801086], [-0.6962541937828064, -0.44150254130363464, 0.12447281181812286, 0.20853033661842346, 0.8316842913627625, 1.8799422979354858, 0.00374413700774312, 0.15065696835517883], [0.46844780445098877, -0.03967659920454025, -2.273678779602051, -1.4665321111679077, 1.7891621589660645, -0.1725149154663086, 0.7197689414024353, 0.09777259826660156], [0.8243918418884277, 0.7756081819534302, 1.6782430410385132, 1.318611979484558, 0.3473338782787323, -1.0608015060424805, -0.5139833092689514, 1.2465263605117798], [-0.07038933783769608, -0.5966536402702332, -1.1230533123016357, -1.104677677154541, -0.7704349756240845, -0.5540935397148132, 0.06669951975345612, -0.7552991509437561], [-1.4285858869552612, -0.8797430396080017, -0.056635793298482895, 0.5030238032341003, 2.1773788928985596, 1.154260516166687, 0.6227148771286011, -0.4453749656677246], [-1.3889120817184448, 1.8697116374969482, -0.9078364372253418, -0.9528963565826416, 1.7832132577896118, 1.543765664100647, -0.9912574291229248, 1.291425108909607], [-0.18939857184886932, 0.8943135738372803, -0.12923185527324677, 0.7960931658744812, -0.5713309049606323, -0.4966866970062256, -0.7165044546127319, -0.4502999782562256], [0.694096565246582, -1.9141706228256226, -0.5635521411895752, -0.7811403870582581, 0.054025087505578995, -0.6835022568702698, 0.9067806005477905, 0.043074265122413635], [0.2154434323310852, -1.2841798067092896, 2.2291040420532227, 0.8249357342720032, 0.4553866684436798, 0.5599141120910645, 0.21209175884723663, 1.1861251592636108], [0.27592191100120544, 1.688988447189331, 2.4190139770507812, 0.26953092217445374, 1.3219410181045532, 0.1605810672044754, -0.13220997154712677, 0.5571774244308472], [1.0239744186401367, 0.7771130800247192, 0.7217239141464233, 0.5207053422927856, -0.6095262169837952, -0.4568430483341217, 0.3062824010848999, 0.7627032399177551], [0.2964959740638733, -0.448565274477005, 0.049374137073755264, -0.9742713570594788, 1.1553795337677002, -0.001318069058470428, 0.9873849153518677, -0.13223598897457123], [0.17101900279521942, -0.2924492657184601, 0.9078028202056885, -1.2490488290786743, -0.502439022064209, 0.782236635684967, 1.4215857982635498, -0.5512840747833252], [0.26150184869766235, 2.0628550052642822, -0.6415830850601196, -1.4331541061401367, -0.32193899154663086, -0.37550196051597595, -1.1786391735076904, 1.3661143779754639], [-0.18815159797668457, -1.106334924697876, 0.1334284394979477, 0.6444844007492065, -0.18512259423732758, 0.4070659279823303, -0.14308886229991913, 0.18546544015407562], [-0.3809734880924225, -1.632828712463379, -0.32575365900993347, 2.110002040863037, -0.5582383871078491, 0.3878995478153229, -2.2768144607543945, 0.3730675280094147], [0.16431859135627747, -0.8474296927452087, -0.545147716999054, 0.23958390951156616, -1.042901873588562, 1.353938102722168, -0.9259887337684631, -0.6700972318649292], [0.7525335550308228, 0.7886072993278503, 0.39422282576560974, 1.6196999549865723, 1.3324532508850098, -1.064749836921692, 0.38225895166397095, 0.4805951416492462], [-0.618596076965332, -0.6623284816741943, -0.8937484622001648, 1.2238731384277344, -0.9633936882019043, 0.3623585104942322, -0.49380606412887573, -0.4795131981372833], [-0.29057207703590393, -0.06168444827198982, 1.6095679998397827, 0.7633132338523865, 1.1468744277954102, 0.0855991467833519, -0.8094344735145569, 0.14505186676979065], [1.1379845142364502, -0.7288506031036377, 2.006291627883911, 0.39841893315315247, -1.297916054725647, -0.08198505640029907, 0.018285293132066727, 0.19323518872261047], [0.4191838502883911, -0.8154667615890503, -0.6950612664222717, 0.8987486362457275, -0.763476550579071, -0.19663101434707642, -0.3633078932762146, -1.5530608892440796], [-0.7774519920349121, -0.19210666418075562, 1.6117703914642334, 0.02652369625866413, -0.4362063407897949, 0.5422074198722839, 0.5694442391395569, 0.5246980786323547], [1.4536240100860596, 0.7640832662582397, 1.7137768268585205, -0.9492186903953552, -2.0498313903808594, -0.4891168773174286, 0.2877943515777588, 0.6841083765029907], [0.16146400570869446, 1.238031029701233, 0.7448856830596924, 0.09931287169456482, 0.10533569753170013, 0.5384952425956726, 0.4888424277305603, -0.37383612990379333], [0.5225478410720825, 1.229838252067566, 0.9267921447753906, 0.5803043842315674, -0.8896913528442383, 1.7275456190109253, -2.6993322372436523, -0.3264326751232147], [-0.6710050106048584, 1.0376214981079102, 1.6865944862365723, -0.30800050497055054, 0.37292569875717163, 0.05731584504246712, -0.5620691776275635, 0.9277138113975525], [-2.0683279037475586, 0.836211621761322, -0.5236726999282837, 0.24191907048225403, 1.0893276929855347, 0.32519376277923584, 0.6448933482170105, 0.7551068663597107], [-1.5389796495437622, -1.988479733467102, -0.8602590560913086, 0.6987399458885193, -0.4699282646179199, -0.5337610244750977, 1.7488957643508911, -0.9363934993743896], [1.238938570022583, -0.4818613529205322, -0.2840757966041565, 0.48763757944107056, -0.027695229277014732, -0.6021583080291748, -0.4494844675064087, -0.7316457033157349], [-0.1859939843416214, 0.9893548488616943, -0.08238892257213593, 0.7511136531829834, 0.2239835411310196, -1.3685873746871948, -1.7288155555725098, -0.16397559642791748], [-0.6744463443756104, -1.8892931938171387, -1.8424437046051025, 0.13227719068527222, -0.792870283126831, 1.2297093868255615, 0.07773400843143463, 1.8036106824874878], [-0.33883804082870483, -0.46696773171424866, -0.4018764793872833, -1.3109723329544067, 0.03079218789935112, -0.592189610004425, -1.1771180629730225, 1.7409440279006958], [-0.29729652404785156, -0.18393853306770325, -0.4253857731819153, -1.151896357536316, 1.1970689296722412, -0.1721748560667038, 0.2885611355304718, -0.5726931095123291], [1.0209895372390747, 0.16308358311653137, 0.11045607924461365, 0.4026736915111542, -0.39225631952285767, 0.897205650806427, 2.5867221355438232, -0.07418912649154663], [1.6160259246826172, 0.07098329812288284, -0.8349533081054688, 0.9004849195480347, -0.5933239459991455, 1.6307241916656494, -1.6002695560455322, -1.0123926401138306], [1.0197625160217285, 1.4173935651779175, -1.4536070823669434, -1.0878479480743408, 2.1625816822052, -0.8401139974594116, -0.8614436984062195, -0.04997353255748749], [0.9295058250427246, 0.025966845452785492, -2.0842678546905518, 1.1938477754592896, -1.7373887300491333, 0.3407321274280548, 0.6732161641120911, -1.1724117994308472], [-0.6628801822662354, -0.8032170534133911, -1.2826628684997559, 0.06395437568426132, 0.07206635922193527, 0.4162956476211548, 0.1842186599969864, -0.5154776573181152], [-0.029904402792453766, 2.2957687377929688, -0.09410054236650467, -0.2674124538898468, 1.3330802917480469, -0.47821396589279175, -1.5027599334716797, 0.7866774201393127], [-0.6877260208129883, -0.22069774568080902, 0.8322311043739319, 1.3116841316223145, -0.9090041518211365, 0.011576077900826931, 0.3694647252559662, -0.8756134510040283], [0.341797798871994, -0.7391915917396545, 0.13211016356945038, -1.5186954736709595, -0.46460264921188354, 0.528028666973114, 0.3089190125465393, 0.7022520899772644], [-0.604969322681427, 0.5975447297096252, 1.8190851211547852, -0.4289456903934479, -0.30189892649650574, 1.0412993431091309, 0.17218618094921112, -0.11436882615089417], [-1.2897135019302368, 0.6401699781417847, 1.2198961973190308, 0.7069457173347473, -0.5124958157539368, -0.01634145900607109, -0.4192397892475128, 0.42999690771102905], [0.11940571665763855, 0.3001466393470764, 0.4904594123363495, -0.6950660943984985, -0.15387824177742004, 0.9348927736282349, 0.08389002829790115, -0.5414934158325195], [0.27929311990737915, 0.41902753710746765, -0.2602097988128662, -0.7765846252441406, -0.1360616385936737, 0.4116736352443695, 0.911219596862793, -0.49117767810821533], [-0.22092624008655548, 0.48998433351516724, 0.4237373173236847, -0.4843812584877014, 1.1302984952926636, -0.13950785994529724, 1.4336702823638916, 0.0025313047226518393], [0.27891671657562256, 0.2094748318195343, -0.19758515059947968, 2.1370320320129395, 1.311963438987732, -0.5465691685676575, 1.8058350086212158, -1.2896262407302856], [-0.4714117646217346, 1.289070725440979, 2.177452564239502, 1.1115691661834717, -0.18569420278072357, -0.294986754655838, 2.12650203704834, -0.3319185972213745], [-0.6407798528671265, 1.1660953760147095, 1.513371467590332, -0.3057275116443634, 0.8680526614189148, 0.6200526356697083, -0.8796679377555847, 0.011160112917423248], [-0.48594748973846436, -0.062406379729509354, -0.18445417284965515, -0.5848138928413391, -0.8741512298583984, 0.001457097241654992, -0.9471286535263062, -0.12201999127864838], [-0.5664783120155334, -1.490769624710083, -0.9067758321762085, -0.4308857321739197, 0.01260817889124155, 0.08661368489265442, -0.35736319422721863, 0.10271047800779343], [-1.1285080909729004, 1.8685312271118164, -1.936523675918579, -0.5898394584655762, 1.2330405712127686, -0.6416639089584351, -1.3574752807617188, -0.030258607119321823], [-0.751080334186554, -0.6694685816764832, 1.7423344850540161, 0.7364743947982788, -0.3193882405757904, 0.5783488750457764, 0.4649750292301178, -0.554406464099884], [-3.4782514572143555, -2.0001907348632812, 0.392569899559021, -0.4603155851364136, 1.3617161512374878, -0.15377439558506012, -0.5137496590614319, -1.5140663385391235], [2.261685371398926, 1.7004913091659546, 1.2105021476745605, 0.8578013181686401, 1.3461313247680664, 0.9000194072723389, 1.4644721746444702, -0.6868671178817749], [-2.5897722244262695, -0.503093421459198, 1.1809840202331543, -0.42406508326530457, 2.094438314437866, 1.0815564393997192, 0.8447840213775635, -0.8199378252029419], [0.050297580659389496, -0.23566819727420807, 0.3660711944103241, 1.1242001056671143, 0.05131592974066734, 0.2595001757144928, 0.40445372462272644, 0.5414170622825623], [0.3367331922054291, -0.5774516463279724, 0.8070343732833862, 0.4364936947822571, 0.17731930315494537, 0.5670263171195984, -0.8533594608306885, 0.7914423942565918], [-0.4562682509422302, 1.530043601989746, -0.13607732951641083, -2.018669605255127, 0.8322511315345764, 0.5823118686676025, 0.554679811000824, -0.6003461480140686], [0.927141010761261, 0.5669661164283752, -0.1797972023487091, 0.03665565326809883, 0.06806420534849167, -0.5993574261665344, -0.28534480929374695, -0.7833760380744934], [1.466170310974121, -2.0964951515197754, -2.0801143646240234, 0.42940080165863037, 0.8711744546890259, -0.056371189653873444, 0.07899074256420135, -0.22102856636047363], [-0.625505268573761, -1.0952609777450562, -0.029834551736712456, 0.34202179312705994, 0.6443435549736023, -0.011809345334768295, 1.1841684579849243, 0.764355480670929], [1.9181482791900635, -0.7352756261825562, -0.7286286950111389, -2.1425509452819824, 1.4724903106689453, 0.3061082661151886, 0.12640655040740967, 0.23953285813331604], [0.6602409482002258, -0.339973121881485, -0.47490590810775757, 0.28573107719421387, -0.12552101910114288, 0.6160533428192139, -1.4032968282699585, 1.5951955318450928], [0.2527584135532379, -1.6280262470245361, 0.6406839489936829, -0.44169238209724426, -0.9069241881370544, 0.32020533084869385, 0.29562005400657654, -0.24742856621742249], [-0.23679211735725403, 0.6232503056526184, -0.5426240563392639, -1.024487853050232, -1.259347915649414, 0.5077875256538391, -0.03819975629448891, -1.3812575340270996], [-0.8221462368965149, 1.563245177268982, 0.1961613893508911, -1.3167698383331299, -0.5248043537139893, 1.0769777297973633, 1.375284194946289, -1.433061957359314], [-0.9023387432098389, 1.3676596879959106, 0.31679096817970276, -0.026545805856585503, 0.43410104513168335, 0.6036131381988525, -0.15828178822994232, -0.6788915395736694], [0.26958075165748596, -0.031602293252944946, -1.2756946086883545, -0.6372569799423218, -0.7615538835525513, -0.4670298993587494, -1.2028323411941528, -2.4587764739990234], [-0.5302321910858154, -1.398861289024353, 0.9550148248672485, -0.3438255190849304, -1.3686347007751465, -0.3032073676586151, 0.8513452410697937, -1.144171953201294], [0.13416945934295654, -0.5775071978569031, -0.20386821031570435, -0.284249871969223, -0.26706990599632263, -2.0102434158325195, -1.2842119932174683, -0.3156529366970062], [0.6896828413009644, -0.3702680468559265, 0.305180162191391, 0.4529713988304138, 0.7034233212471008, 1.7987146377563477, -0.38692307472229004, -0.196438267827034], [-1.7742079496383667, -0.920121431350708, 1.9944686889648438, -0.13894662261009216, 0.27703049778938293, 1.1268856525421143, -0.296194463968277, -0.7281494140625], [0.5772499442100525, 1.4461733102798462, 0.9145234823226929, -1.0412933826446533, -0.7440701723098755, -0.2840799391269684, 0.42472901940345764, -1.218254804611206], [0.6399659514427185, -0.15197856724262238, -0.16260427236557007, 0.07073464244604111, -0.24608342349529266, 0.05895401909947395, -1.314990520477295, 0.3730463683605194], [-1.1060287952423096, -0.555341899394989, -0.599957287311554, -1.6170064210891724, 0.7292976975440979, 1.9531360864639282, 0.7803964614868164, -1.4449293613433838], [1.731145977973938, -1.5638011693954468, -0.34928807616233826, 0.5119196176528931, 0.2873746454715729, 1.5002272129058838, 0.6538175940513611, 0.8926182389259338], [-1.069145679473877, -1.4898176193237305, 0.9114134907722473, 0.9743308424949646, 0.3836362659931183, -1.1400060653686523, 0.24670985341072083, -0.21180306375026703], [0.7015817165374756, 0.08228486776351929, 0.6538619995117188, -0.06178374961018562, 0.08998358994722366, 0.8921912908554077, -2.121152400970459, -0.588528037071228], [-2.0240182876586914, -1.367768406867981, 0.7975936532020569, -2.185307025909424, 1.5684157609939575, 2.565777540206909, -0.05469464883208275, 0.38266897201538086], [0.7843385934829712, -0.3193632960319519, 0.7016381621360779, 2.6726787090301514, -0.8969094157218933, 0.009829038754105568, 1.088708758354187, -0.3134279251098633], [0.4293237030506134, 0.4662141799926758, -1.6817229986190796, 2.5323448181152344, 0.35330161452293396, 0.4967220723628998, 0.3836299180984497, 0.37121444940567017], [0.6012324690818787, -0.12127552926540375, -0.24023555219173431, -0.4783661961555481, -1.9338041543960571, 1.094010829925537, 1.2408169507980347, -1.790316104888916], [1.020806074142456, -1.0254396200180054, -1.9907625913619995, 1.4823665618896484, 0.1931971311569214, 1.0724893808364868, 0.4917168617248535, -0.031794920563697815], [0.9340295791625977, 0.6355510950088501, -0.5798042416572571, 0.3414597809314728, -0.5725990533828735, -0.7370495796203613, -0.19778718054294586, 0.8448768854141235], [-0.8657812476158142, -0.5896129608154297, -1.047247290611267, 0.22152353823184967, -0.09605918079614639, 1.547804832458496, 0.15405456721782684, -0.8790518641471863], [-0.650050699710846, 0.3727286458015442, 0.4094279110431671, -1.0331478118896484, 0.8565505743026733, 0.8199045062065125, 0.5327962040901184, 0.13494054973125458], [-0.4962490499019623, -0.2154446840286255, -0.5794650316238403, -1.503343939781189, 0.8258494734764099, 3.144766330718994, -1.1419261693954468, 0.34135255217552185], [0.08956971019506454, 0.1480303853750229, 1.0660544633865356, -0.8846517205238342, -0.2438235878944397, -0.5225754380226135, -0.8646319508552551, -0.4330667555332184], [-1.4762943983078003, 0.9934948086738586, -1.0817596912384033, 0.8610756993293762, 0.3229227662086487, -0.6513784527778625, 2.15376877784729, 1.355681300163269], [-0.7479175925254822, 1.0772393941879272, 0.009654105640947819, 1.2556054592132568, 0.23205238580703735, -1.7248432636260986, -1.253386378288269, 1.24636709690094], [0.8001381754875183, 0.2765215337276459, -0.7904486060142517, -0.8872541189193726, -0.21594023704528809, -0.5062426328659058, -2.301199436187744, -0.16877470910549164], [-0.626937747001648, -0.600564181804657, 0.0847981721162796, 1.6130059957504272, 1.0222026109695435, -0.31533023715019226, 0.25394406914711, 0.07519521564245224], [1.1638576984405518, 0.43168744444847107, -0.3367629051208496, 0.4045593738555908, -1.2168227434158325, -2.4686102867126465, 0.8009335994720459, -1.5305026769638062], [-0.9634820222854614, -1.054305911064148, -0.6109879612922668, 0.11032738536596298, 0.12355764210224152, -1.4388847351074219, -0.45935821533203125, 0.719353199005127], [-0.16038376092910767, -0.6183334589004517, 0.7238587737083435, 0.18887433409690857, 1.0500532388687134, 0.7965143918991089, -0.9031647443771362, -0.28967148065567017], [0.9019067883491516, 0.3177003860473633, 1.5053801536560059, -0.0004540873342193663, -0.8399935960769653, -0.9963456988334656, 1.9695827960968018, -0.6241140961647034], [0.6005165576934814, -1.2646653652191162, 0.9108990430831909, -0.6685886979103088, -0.16531941294670105, -1.3892083168029785, 0.16340775787830353, 1.0554020404815674], [-1.3172051906585693, -0.0981225073337555, 0.17458908259868622, -1.4737915992736816, 1.0235675573349, 0.592513918876648, -0.6526955962181091, 0.8999417424201965], [0.8429184556007385, -2.0642848014831543, 0.9421494007110596, 1.8894331455230713, 0.03712515905499458, -0.3405744135379791, 0.4782891273498535, 0.7602844834327698], [-0.8081367611885071, 0.9678263068199158, -1.1993170976638794, 0.6793385148048401, 1.5464284420013428, 0.24491964280605316, -0.8038488626480103, -0.26010581851005554], [-0.5532312989234924, -0.46303147077560425, 0.3738028407096863, -0.5803876519203186, -0.9237598776817322, 0.9551625847816467, 0.21354949474334717, 0.7683014273643494], [-0.9993539452552795, -0.8315044641494751, 1.0433963537216187, 1.1222474575042725, -0.5812073945999146, 0.5590437054634094, -0.17817316949367523, -0.32663583755493164], [-1.0079289674758911, 0.026483580470085144, -0.8023473024368286, 0.4091435670852661, 0.21567471325397491, 0.3530029058456421, 0.14779989421367645, -0.8068605661392212], [-0.26937007904052734, 0.14967715740203857, 0.795779287815094, 0.6093188524246216, 0.5208801627159119, 1.5986922979354858, 1.066113829612732, -0.2799898684024811], [0.13451707363128662, -2.240705966949463, 0.44600963592529297, -2.195142984390259, 0.9693641662597656, -0.32568031549453735, 2.116556167602539, 0.8090626001358032], [-1.47100830078125, 0.7221210598945618, -0.4679519832134247, -1.7644633054733276, -0.041957151144742966, 0.3776355981826782, 0.03709804639220238, -0.492666631937027], [-1.2963242530822754, 0.6187394261360168, -2.116605758666992, 0.3046455383300781, 2.4513347148895264, 0.1458999216556549, -1.0939788818359375, 0.6960493326187134], [0.6497930884361267, 0.45403486490249634, -0.5044015049934387, 0.5097741484642029, 1.055510401725769, 0.4659685492515564, 0.3102363348007202, -1.7714498043060303], [1.7527565956115723, -1.1360715627670288, 1.305540919303894, -0.8842915892601013, -0.340819776058197, 0.7865548729896545, -0.1821272224187851, -0.13140371441841125], [0.07343877106904984, -0.0674281194806099, 1.2512627840042114, 2.2728123664855957, -0.07098778337240219, -2.1386594772338867, 1.575240135192871, 2.5262467861175537], [-0.49620163440704346, 1.5591261386871338, -1.2023934125900269, -0.6351390480995178, 0.20571336150169373, 1.2084790468215942, -1.297544002532959, -1.7842353582382202], [-1.554957389831543, 1.5322391986846924, 0.9137464761734009, 0.8431801795959473, 0.13279494643211365, -0.21754606068134308, -0.9286530017852783, -0.45333993434906006], [0.6350487470626831, 1.22092604637146, 0.19228389859199524, -0.24063740670681, 0.8652300238609314, -1.5239825248718262, 0.8270480632781982, 0.23539361357688904], [0.8963500261306763, -1.5208475589752197, -0.7353967428207397, -1.6608209609985352, 1.5582013130187988, -0.20857100188732147, 0.14806793630123138, 0.18999283015727997], [0.6042453050613403, 1.2740625143051147, 0.6603401899337769, -1.2661683559417725, -0.510073721408844, -1.832049012184143, 0.21801356971263885, 0.6228866577148438], [0.0029448126442730427, 0.4515101909637451, -0.236464723944664, -0.47985973954200745, -0.7665978670120239, -0.3603292405605316, 0.5804093480110168, 1.6683343648910522], [-1.9865995645523071, 1.2196831703186035, 1.3494799137115479, 0.4342137277126312, -0.4181011915206909, 1.3440090417861938, -0.11628519743680954, 0.11773229390382767], [0.0368381030857563, -0.5581580400466919, 1.331700325012207, 0.8709274530410767, 0.6931399703025818, -0.38346174359321594, -0.26233890652656555, 0.125697061419487], [0.6194465756416321, 0.536532461643219, 0.2093139886856079, 0.9810802340507507, 0.48374995589256287, -2.1519808769226074, 0.34573933482170105, -1.3778051137924194], [0.1526368111371994, -0.20784308016300201, -0.5713887810707092, -1.300349235534668, -0.2009938359260559, 0.20181195437908173, -1.243282437324524, -0.0670301765203476], [-0.6453295946121216, -0.9734370708465576, 1.0531389713287354, 1.696831464767456, -0.8316354155540466, -1.6757372617721558, 0.04206286743283272, -1.6368685960769653], [-0.6008678674697876, -1.4702156782150269, 0.4185265898704529, -0.4557616412639618, -0.5758394002914429, -0.16240522265434265, 0.8458632230758667, 0.021750379353761673], [0.5219618082046509, 0.34126174449920654, 1.010899543762207, -0.04691756144165993, 0.2992817163467407, -0.4206298589706421, -1.037724494934082, 0.6390634179115295], [0.012834255583584309, -0.9213014245033264, 0.8280825614929199, -0.6860103011131287, -0.7585285902023315, -0.2700418531894684, 0.05371887609362602, 0.478524774312973], [-1.690434217453003, -0.45143213868141174, 0.1396978497505188, 0.39370420575141907, 1.0838741064071655, 1.3418329954147339, 1.09403657913208, 0.34956568479537964], [0.6857869029045105, 0.20582818984985352, -0.24436166882514954, 0.08524498343467712, -0.8553093671798706, -0.5583587884902954, 0.05422113090753555, -0.5868743062019348], [-2.8517062664031982, 0.30791521072387695, 2.5885419845581055, -0.6095589399337769, 0.5314181447029114, -0.39201968908309937, -0.6508241295814514, 1.147251844406128], [-0.16425777971744537, -1.351103663444519, 0.4749908745288849, 0.37569108605384827, -0.5895901322364807, -0.4682861566543579, 2.8700203895568848, -0.042010970413684845], [-0.5372311472892761, -0.4305351674556732, 0.8205645084381104, -0.31844228506088257, 0.4396016299724579, 0.49535560607910156, -1.7349646091461182, 1.1278340816497803], [1.1484867334365845, -0.04979800432920456, -0.7275664806365967, -0.5030489563941956, 0.11058571189641953, 0.2578013837337494, -0.6032317280769348, -0.5542478561401367], [-0.6277158856391907, -0.3782062530517578, -1.4806182384490967, 1.459860920906067, 0.4470653533935547, 1.7118804454803467, -1.1781741380691528, -0.5419061183929443], [0.5277361869812012, -0.0009332166519016027, -1.5653921365737915, -0.6833752393722534, 1.3309353590011597, 0.4378528296947479, -1.3149601221084595, -1.9253342151641846], [0.1254591941833496, 2.4018733501434326, 0.3198740482330322, -0.3238561749458313, 0.9065350294113159, 0.610322117805481, 0.3641080856323242, 0.8413596153259277], [-0.05811738967895508, 0.06556722521781921, -0.1669483482837677, 0.7727709412574768, 0.5688537359237671, -0.14917923510074615, -1.2826648950576782, -0.41297054290771484], [1.3721728324890137, 1.342576503753662, -1.2918715476989746, 0.9494975805282593, -1.079017996788025, -1.0143449306488037, -0.5865140557289124, 1.7959517240524292], [-1.0896469354629517, 0.10825613886117935, -0.13015727698802948, -1.847184181213379, 0.3928796648979187, 0.48626455664634705, -0.11192479729652405, -1.2061443328857422], [-0.7250372767448425, 0.43572908639907837, 0.1753196269273758, 1.6326984167099, -0.06414224952459335, -0.08476004004478455, -0.8131833672523499, -0.036694444715976715], [0.3718416690826416, -0.5421395301818848, 1.3256022930145264, 0.46084609627723694, 0.7555108666419983, -0.03735361620783806, 0.056620605289936066, -0.0697116032242775], [-1.8639971017837524, -0.11230315268039703, -0.564323902130127, 0.451036661863327, -1.708175778388977, 0.4202945828437805, 1.465187430381775, -0.5248001217842102], [0.26333650946617126, 0.46226197481155396, 0.3737134039402008, 0.3489685654640198, -1.0544031858444214, 1.7982697486877441, 1.0133411884307861, -0.9601972699165344], [0.8490395545959473, 0.26790645718574524, -0.20194678008556366, 1.0245015621185303, 0.8148759603500366, 1.4135165214538574, 1.5934704542160034, -0.7425769567489624], [0.7365820407867432, 1.1429972648620605, 0.9005174040794373, -0.9711241722106934, -0.8038084506988525, 0.35817283391952515, 1.4451855421066284, -1.3926793336868286], [-0.45675691962242126, 0.7214623093605042, 0.5601421594619751, 0.5348814725875854, 0.3119059205055237, -1.0317087173461914, -0.28426894545555115, -1.5097236633300781], [0.18919861316680908, -0.11716558784246445, 0.7881127595901489, 1.1069092750549316, 0.4129806458950043, 0.05295300856232643, 0.20103122293949127, -0.5515211820602417], [-0.4790230691432953, 0.8604317307472229, -1.5406620502471924, 0.6648019552230835, -0.077004574239254, -1.047928810119629, -0.136786550283432, -0.7438921332359314], [-0.9135002493858337, -0.24671362340450287, 0.5723696351051331, -0.40990522503852844, 2.045341968536377, -0.711266279220581, 1.0363028049468994, 0.02427203767001629], [-0.8729866147041321, 0.6307705044746399, 0.5646681189537048, -0.2138938009738922, 0.6862689852714539, 0.316715806722641, 0.5601801872253418, -0.4073754847049713], [-0.304245263338089, 0.9738649129867554, 1.3317071199417114, 0.3467121422290802, 1.407804250717163, 1.8670849800109863, -0.021664071828126907, -1.014911413192749], [-0.3565942347049713, -0.7472929358482361, -1.0818336009979248, 0.14909452199935913, 1.0394045114517212, 0.7398742437362671, 0.653459906578064, 0.7653118371963501], [-0.7962785363197327, -1.0657750368118286, 0.472395658493042, -0.1603761613368988, 0.11198810487985611, 0.4264201819896698, 1.892551302909851, -1.1893831491470337], [0.39764702320098877, 1.544067621231079, 0.473380982875824, 0.40108954906463623, -0.2746257781982422, -0.3764408826828003, -2.1806747913360596, -0.38931775093078613], [-0.5449939370155334, 0.6652610301971436, -2.649855613708496, 0.2383485585451126, -1.2676090002059937, -0.6472657322883606, -0.1214262917637825, -1.1504625082015991], [0.5121238827705383, 0.3450745642185211, -1.1711503267288208, 0.255970299243927, 0.4515315592288971, -0.7774104475975037, -2.5792624950408936, 1.3327691555023193], [0.31002211570739746, 0.08071848005056381, 0.13722558319568634, 1.2756916284561157, 0.4262869358062744, 0.1224641352891922, 0.5574866533279419, 0.30463987588882446], [-0.537301242351532, -0.22872044146060944, -0.02743861824274063, -0.08796688914299011, 0.570805013179779, 1.126296043395996, 0.593954861164093, -0.6084417700767517], [1.6054524183273315, -1.2624887228012085, -0.05678940191864967, 0.6373395919799805, -2.725693702697754, 0.4709814190864563, 0.15499912202358246, 1.4409573078155518], [0.6352777481079102, 1.663554310798645, -0.4992286264896393, -0.28638923168182373, 1.0624603033065796, 0.29231375455856323, -0.6160327196121216, -0.09094429016113281], [-0.38007304072380066, -0.2619936764240265, -0.5226048231124878, -0.42274418473243713, 0.0772174745798111, 1.6049801111221313, 1.2685400247573853, 0.1908181607723236], [0.27732574939727783, -0.9281961917877197, 0.2747693955898285, 0.6636094450950623, 1.4663591384887695, -0.10432881861925125, 0.7689388394355774, 0.004070383030921221], [-1.9601762294769287, -0.6354121565818787, -0.6301679611206055, 0.09868120402097702, -0.3774760365486145, -0.3685913383960724, -1.8272855281829834, 1.0240694284439087], [-0.2618807256221771, -0.11539667099714279, 1.7064121961593628, 0.6562872529029846, 0.9635285139083862, -0.7884570956230164, 1.2449895143508911, -1.6292566061019897], [0.794691264629364, -0.8693318963050842, -0.4280425012111664, 0.8135801553726196, 0.2402588427066803, 0.08246424049139023, 0.19998179376125336, 0.9525629878044128], [-1.0551893711090088, -0.7437950372695923, 0.45536765456199646, 1.2969818115234375, 0.08273999392986298, -1.343658208847046, -1.497772455215454, 0.8512588143348694], [-0.7147102355957031, -0.28114911913871765, 1.9392108917236328, -0.5110329389572144, -1.880787968635559, 0.08125053346157074, -0.5161886811256409, -0.2965025305747986], [-1.095076322555542, -0.6406843066215515, 1.2206263542175293, 0.6233355402946472, 0.7811098694801331, -1.8814440965652466, 1.5313012599945068, -1.792153000831604], [-1.831260323524475, 1.450042724609375, 1.5378626585006714, -0.8868277668952942, 1.1999927759170532, 0.47374382615089417, 1.947522759437561, -0.9713919758796692], [0.36584603786468506, 0.5407525300979614, -0.4277418553829193, 0.4835282862186432, -1.2106035947799683, 0.7500133514404297, 1.1683599948883057, 0.6142928600311279], [0.08219418674707413, 0.5854137539863586, -0.8998968601226807, -0.5400270819664001, -1.4858176708221436, 0.38549646735191345, -0.36825188994407654, -0.2564631700515747], [-0.4496905505657196, 1.2991554737091064, -0.7062579989433289, 0.688740611076355, -0.8435136079788208, 1.7507209777832031, 0.022626308724284172, 0.281655490398407], [-0.6953997015953064, 0.6346474885940552, -1.0471423864364624, -1.0893971920013428, 0.873786211013794, 1.0892653465270996, -2.1155190467834473, 2.1854970455169678], [0.21620367467403412, 0.37403276562690735, -0.9621043801307678, -1.3054924011230469, 0.8302212357521057, 0.2292802929878235, -0.503689169883728, -0.1158984899520874], [-0.36437904834747314, 0.5414547324180603, -0.14336487650871277, 0.12277519702911377, 0.041202329099178314, -0.1698552668094635, -1.8528718948364258, 0.2577454447746277], [-0.02216072380542755, 0.4223840832710266, -0.8595789074897766, 0.2909908890724182, 0.6529440879821777, 2.0979738235473633, -0.9242795705795288, -0.459785133600235], [0.1051669791340828, 0.12207457423210144, 2.240628480911255, 0.128712996840477, -1.2052357196807861, 1.0994749069213867, -1.252654790878296, 0.7304125428199768], [-0.8956456780433655, 1.2566033601760864, -0.3445674777030945, -1.1577590703964233, 0.48213741183280945, -0.6194590926170349, -0.13554967939853668, -1.6086992025375366], [-0.08620203286409378, -2.2667324542999268, 1.6035358905792236, -0.5321890711784363, -0.23033685982227325, 0.7681152820587158, -0.3273657560348511, 1.4219236373901367], [-0.42157235741615295, 0.844718873500824, -1.9908636808395386, -0.17239362001419067, 0.3757345974445343, 0.317356139421463, -0.45172634720802307, 0.09417448937892914], [0.8093208074569702, -0.5293470621109009, 0.44828441739082336, -0.8013262152671814, 0.6317405700683594, 1.3970056772232056, -1.1161184310913086, 0.14304642379283905], [0.8268381953239441, 1.2083241939544678, 0.5293194651603699, -1.1865389347076416, 1.175750732421875, 1.3089414834976196, -1.4253108501434326, -0.415271133184433], [0.9272356629371643, 0.026323551312088966, 0.7056452035903931, 1.0615094900131226, -1.6115119457244873, 0.4529983699321747, 1.141260027885437, 0.23796877264976501], [-0.2804962396621704, 0.1613609343767166, 1.0970491170883179, -1.2478792667388916, 1.400433897972107, -1.0624010562896729, 1.582932710647583, -0.24057503044605255], [0.9975163340568542, -0.644947350025177, 0.3373742401599884, -0.3593127429485321, 0.8749080896377563, 1.4296149015426636, -0.7828224897384644, -0.33840489387512207], [-2.2593183517456055, 1.3006354570388794, 1.9944456815719604, -0.2885315418243408, 0.7958406805992126, 0.6043132543563843, -1.3710038661956787, -0.7549921274185181], [1.104739785194397, 0.5136830806732178, -0.20459173619747162, 0.35325056314468384, 1.138211727142334, 0.44770869612693787, 1.3752601146697998, 1.0139697790145874], [-1.0189085006713867, 0.9676913022994995, 0.43562424182891846, 0.27541330456733704, -2.5329887866973877, 0.09348833560943604, 0.34224987030029297, 1.8580621480941772], [-0.862877368927002, -1.2932426929473877, 1.385781168937683, -1.8474313020706177, 0.3152835965156555, -0.4545019567012787, -0.42542052268981934, -1.3200938701629639], [-2.0237388610839844, -1.0435905456542969, 1.2400845289230347, -0.5332344770431519, 0.8478463888168335, 0.5573976635932922, 0.26626136898994446, -0.3078652322292328], [0.2692487835884094, -1.8657021522521973, 0.3667602241039276, -0.32716840505599976, 0.21881842613220215, -0.10463003814220428, -1.3549643754959106, -1.7582751512527466], [-0.2858019173145294, -1.3136987686157227, -0.6683276891708374, 1.3938624858856201, 1.8829501867294312, -1.4966970682144165, -1.3890352249145508, 0.1665371060371399], [-0.16927683353424072, 0.14240093529224396, 0.5701324939727783, 1.141796588897705, -1.2290847301483154, 0.6237887144088745, 0.18695242702960968, -0.9171887040138245], [0.44650980830192566, 1.4706107378005981, -1.5907596349716187, -0.10224438458681107, -0.5457519292831421, -1.3756316900253296, 0.003624065313488245, -0.5703716278076172], [-1.0191301107406616, -0.5080394148826599, -1.2585797309875488, -1.2490119934082031, 0.6199308633804321, -1.318121075630188, 1.3763664960861206, 1.3577340841293335], [-0.23214715719223022, 0.0855514258146286, 0.2584249675273895, -0.6072355508804321, 1.1016660928726196, 0.4948608875274658, 0.6129975318908691, 1.831591010093689], [0.3766259551048279, 1.9457162618637085, -0.7216082811355591, 1.0020768642425537, 1.115466594696045, -1.8910245895385742, 0.822615385055542, -0.06879517436027527], [-0.07307874411344528, 0.3779967725276947, -0.13805224001407623, -0.2701924443244934, -0.4070979952812195, 1.5121307373046875, 1.2721173763275146, -0.5544473528862], [2.120957612991333, -0.26039597392082214, 0.7699914574623108, -0.5627405643463135, -0.7250169515609741, 1.1466935873031616, -1.7201610803604126, 0.9243206977844238], [0.21333853900432587, 0.698494553565979, 0.6487120389938354, 0.4419615864753723, -1.4038360118865967, 0.6766101121902466, 0.2563197612762451, 0.07222499698400497], [-0.738612949848175, -0.3716648519039154, 0.24450042843818665, 0.4065641462802887, 0.9375373721122742, 1.6227436065673828, 1.3542124032974243, -1.0272936820983887], [0.054692547768354416, 0.459781676530838, -0.782402753829956, 0.7791726589202881, -0.921663761138916, 0.30539965629577637, 1.4139856100082397, -1.1555697917938232], [-0.5909837484359741, -0.04641313850879669, -2.1801178455352783, 1.397722601890564, 0.5928274989128113, 0.19303438067436218, -0.05743199214339256, 0.10816953331232071], [0.3025141656398773, 1.4218727350234985, 0.44620007276535034, -0.31520289182662964, 2.9381515979766846, -0.6346884965896606, -0.763943612575531, -0.9884306788444519], [1.1699265241622925, -0.5924960970878601, -1.0345203876495361, 0.7797606587409973, -0.6041129231452942, -1.3115897178649902, 0.823075532913208, -0.38267531991004944], [-0.6996039748191833, -0.7208212614059448, -1.2667033672332764, -0.1284019649028778, -0.05722019448876381, 2.1528139114379883, -2.175631523132324, 0.5429074168205261], [-0.6445757150650024, 0.5872704386711121, -3.086716651916504, -1.3553884029388428, -0.29985958337783813, 1.0838757753372192, -0.8057299852371216, -0.033405549824237823], [-0.7364706993103027, 0.5629714727401733, 0.4775150418281555, 0.9197785258293152, 1.0253223180770874, -0.37836572527885437, -0.9876019954681396, -0.6906776428222656], [0.23876291513442993, -0.024025842547416687, 0.00687364861369133, 0.5609126091003418, 0.9247678518295288, -0.4560398459434509, -0.15244276821613312, -1.0021334886550903], [-0.5218655467033386, -1.2507532835006714, -1.419869065284729, -1.5754973888397217, -0.16278240084648132, -0.839137852191925, -0.415689080953598, -1.4937939643859863], [0.5842717289924622, -1.3322229385375977, -0.8798742294311523, -0.36435213685035706, -0.7791159152984619, -0.6266372799873352, 0.07908985018730164, -0.5066894888877869], [-0.640326201915741, 0.8958171010017395, -1.0106297731399536, 0.5463583469390869, -0.4552619457244873, 0.39305049180984497, 0.4458390772342682, 1.5878745317459106], [-2.5022897720336914, 1.2653814554214478, -0.5549216270446777, 0.37456372380256653, -0.01732584647834301, -0.20393642783164978, 1.1356070041656494, -0.7586637735366821], [-2.241901397705078, 0.3040502965450287, 0.43507158756256104, -1.2380584478378296, 0.14339102804660797, 1.2414616346359253, -1.6774247884750366, -1.0601524114608765], [1.4931585788726807, 0.2611626982688904, -1.0191572904586792, -0.8572338223457336, -0.3410451114177704, -0.7075935006141663, 0.018100500106811523, -1.170444369316101], [0.5960779190063477, -0.3803953528404236, -1.6326981782913208, -0.418736070394516, 1.3210870027542114, -2.141845703125, 0.34288063645362854, -0.827096700668335], [-1.5316675901412964, 0.0337597131729126, -0.761376142501831, 0.6620659232139587, 0.598589301109314, -0.21429897844791412, -1.6464332342147827, 0.8643509149551392], [-1.6493723392486572, -0.518862783908844, 0.4560682475566864, -1.227016568183899, -1.2122730016708374, -1.22354257106781, 1.6800538301467896, -0.2980635464191437], [-0.26074352860450745, 1.087004542350769, -1.3350000381469727, -1.361829161643982, -0.17613083124160767, 1.271532416343689, -0.17412731051445007, -1.4544240236282349], [-0.7072445154190063, 0.9476497769355774, 0.2600220739841461, -1.4921338558197021, -0.37128862738609314, -0.46590524911880493, -0.6786856651306152, -0.9306382536888123], [0.3019232749938965, 0.02806839346885681, -0.3276349604129791, -0.3359312117099762, -0.7878187298774719, 1.508878231048584, -0.004928602837026119, -0.11873232573270798], [1.6485515832901, -0.18079474568367004, -1.8577489852905273, 0.9701721668243408, -1.586909532546997, 0.04892049357295036, 1.1327776908874512, -1.9527696371078491], [0.562792956829071, -0.252256840467453, 1.4471967220306396, 0.978323757648468, -1.3194091320037842, -0.07127540558576584, 0.26853588223457336, -0.6990516185760498], [1.7537180185317993, -0.03834075480699539, 0.5283961892127991, -0.9873069524765015, 2.730340003967285, -0.35905134677886963, 1.114333987236023, 0.020523957908153534], [-0.5322664976119995, 1.8671642541885376, 1.754485011100769, 2.055403232574463, -0.697045624256134, -0.7757584452629089, -0.04777081683278084, 1.5339875221252441], [0.15844020247459412, 1.0467157363891602, 1.2938706874847412, 0.5033421516418457, -0.45463305711746216, 1.587544560432434, 0.32331666350364685, -0.2077411413192749], [0.8696016669273376, -1.4556156396865845, 0.30520159006118774, -1.0135380029678345, -1.329778790473938, 1.2747352123260498, -1.280494213104248, -0.7339885234832764], [-0.35773149132728577, 0.26981666684150696, 0.9867410659790039, -1.3670886754989624, 0.4498421549797058, 1.1926937103271484, -0.49309423565864563, 0.5563908815383911], [0.44073721766471863, -0.7104416489601135, -0.7779605984687805, 0.44004112482070923, -0.13164913654327393, 2.7175498008728027, 0.6370447278022766, -0.6780415773391724], [0.5965172052383423, 0.026461618021130562, 0.05200798064470291, 0.6017264127731323, -1.0243457555770874, 0.8370407223701477, -0.3161080777645111, -0.49438971281051636], [0.6363523006439209, -0.43357065320014954, -1.453594446182251, -1.5603164434432983, 0.41393640637397766, 0.3522183895111084, -1.1648808717727661, 0.420962929725647], [0.8225196003913879, 0.7889766097068787, -0.1410084366798401, 1.0673221349716187, 0.5451850891113281, 0.9041818976402283, -1.4341498613357544, -0.9098589420318604], [1.9939202070236206, 1.0568323135375977, -1.3720439672470093, -0.36209025979042053, 1.7369779348373413, 0.6487972140312195, 1.0441211462020874, -0.6406850218772888], [-1.364528775215149, 0.17917323112487793, 0.5652401447296143, 0.3271985352039337, 0.013574252836406231, 2.691838502883911, 1.2729166746139526, -0.6343012452125549], [0.5597841143608093, 0.5040096044540405, 0.9827832579612732, 1.9623005390167236, -1.2628151178359985, -0.7618913650512695, 2.1136608123779297, 0.34769779443740845], [0.9504527449607849, -1.5345430374145508, -0.17094236612319946, 0.9801838994026184, -0.058623652905225754, 2.073120594024658, -0.3976811170578003, -0.20158079266548157], [-0.17872339487075806, -1.1565746068954468, -0.9860196113586426, 1.1762789487838745, -0.6855717897415161, -0.9989407658576965, 0.5441225171089172, 0.08059342205524445], [1.7871289253234863, -1.0285906791687012, 0.5010676980018616, 2.0522828102111816, 0.41220423579216003, -0.5673707127571106, 0.6210050582885742, -0.36686021089553833], [0.12652306258678436, 0.2314559519290924, 0.1563931405544281, 0.24911004304885864, 0.9003470540046692, 1.67646324634552, -0.48615723848342896, -1.3001301288604736], [-0.3122968375682831, 1.1167606115341187, -0.4053144156932831, -0.2547151446342468, 0.11694902181625366, 1.529984474182129, -2.5727882385253906, -0.3974975347518921], [-0.16356655955314636, -0.39463287591934204, -1.942886471748352, 0.010881868191063404, -0.7503131628036499, -0.03891089931130409, 1.816697597503662, 0.4241141676902771], [-0.5850009918212891, 0.17411360144615173, -0.2031499594449997, -1.271364688873291, 0.8729038834571838, 0.14136415719985962, -1.4058040380477905, 0.4083256125450134], [1.3951780796051025, -0.39804700016975403, 0.9356304407119751, -1.0869492292404175, -1.2851779460906982, -0.048298414796590805, -2.355597972869873, -0.0360136553645134], [-0.6243464946746826, 0.8271304368972778, 0.04584736377000809, -1.4583700895309448, 0.320088267326355, -0.09788883477449417, 0.2827237844467163, 0.62965989112854], [-0.5734219551086426, 0.7699372172355652, 1.0547888278961182, -2.561612367630005, 0.6979954838752747, -0.2960425317287445, 0.611091136932373, -0.6058395504951477], [1.647339940071106, -1.7078118324279785, 0.09625458717346191, -0.2864520847797394, 1.0167992115020752, -0.6579540371894836, -0.3999125063419342, -1.7973577976226807], [-0.3783835768699646, 0.23239530622959137, -0.7321792840957642, -0.40373992919921875, 1.2062692642211914, -0.6938396096229553, -1.5164529085159302, 2.0242106914520264], [-0.791900098323822, 0.17774561047554016, 0.3763622045516968, 0.5606531500816345, -2.3700757026672363, 0.3044091761112213, 0.15026184916496277, -0.7868319153785706], [-1.3327548503875732, -0.05029365420341492, 0.8637793064117432, 0.2377571165561676, 0.5835780501365662, -0.837096095085144, -1.2172125577926636, -0.5044184923171997], [-0.16855879127979279, -1.610314130783081, 0.18958672881126404, 1.8399972915649414, -1.2023277282714844, -0.06107437610626221, 0.1497746706008911, -0.164901003241539], [-0.306861013174057, 0.11580333113670349, 1.0801633596420288, -0.451384574174881, -0.354533314704895, 0.19045329093933105, -0.3295849561691284, 0.8345956802368164], [0.601768434047699, -2.1156139373779297, 0.5151779055595398, 0.6650444865226746, 1.6133867502212524, -0.11868122220039368, -0.9381586909294128, 0.8577116131782532], [-0.9153621792793274, 1.0183851718902588, -1.3590060472488403, 1.5960923433303833, -0.2759764492511749, 2.1798882484436035, -0.4169771075248718, -0.17776265740394592], [-1.1010127067565918, 0.0970848947763443, -1.924856424331665, 0.05672859027981758, 0.6899877190589905, -0.4104763865470886, 0.875978410243988, 0.8379248380661011], [-0.0579388365149498, 0.17720189690589905, 0.6106939315795898, 0.13222043216228485, 0.7300435900688171, 1.9103084802627563, -0.3817211091518402, -0.8485997915267944], [-0.5154412984848022, -0.5843137502670288, 0.41594401001930237, -1.2237402200698853, 1.2417502403259277, -1.7022984027862549, 1.6513962745666504, -0.728043258190155], [0.593233585357666, -0.05740154907107353, -1.1251294612884521, -0.512715220451355, -1.4935013055801392, -1.1261852979660034, 0.22529101371765137, -0.6169297099113464], [0.8562402725219727, 1.4687479734420776, 0.38424476981163025, 0.025023600086569786, -0.011376454494893551, 1.1806811094284058, -0.6587064266204834, -0.08557292073965073], [0.3542347848415375, 0.5991357564926147, 0.1649438440799713, 0.7025135159492493, -0.0696307122707367, -1.0370862483978271, -0.08820927143096924, 0.4150751829147339], [-0.6600875854492188, 0.5991714596748352, 0.6500847339630127, 0.6218342781066895, 0.0658852607011795, -0.5401755571365356, 0.4274402856826782, -1.3749380111694336], [0.8475168943405151, 0.30968034267425537, -0.4213387072086334, -0.21576909720897675, 0.9453173279762268, 1.6619170904159546, -0.8477593660354614, -0.29044514894485474], [-1.2502610683441162, 0.28748631477355957, 1.0470653772354126, -0.7926537394523621, -0.20556321740150452, 0.04665634408593178, 0.909379243850708, -0.7291590571403503], [-0.38275671005249023, 1.0235966444015503, 1.0581613779067993, -0.7773873805999756, -0.06208392232656479, -0.7707175016403198, -0.054362159222364426, 0.8255497813224792], [0.2189946472644806, -0.2221146821975708, 0.27207762002944946, 1.0628771781921387, -0.5261879563331604, -0.9187023043632507, -1.6201081275939941, 1.758700966835022], [-1.3316433429718018, -0.10551641136407852, -0.5102807879447937, 0.9574351906776428, 0.25280630588531494, 0.1324346661567688, 0.2895447313785553, 0.9024277925491333], [-1.040544867515564, 0.21477459371089935, 0.20274797081947327, 0.2925291657447815, 0.055251553654670715, -0.01950247585773468, 0.03748045116662979, -1.7614582777023315], [0.53331059217453, 0.36720702052116394, -0.1837029904127121, -1.2569433450698853, -0.04324978217482567, -0.3142574727535248, 1.5506153106689453, 0.5992875695228577], [0.6369539499282837, -0.8092937469482422, 0.20269368588924408, 0.09979517012834549, -0.9346966743469238, 0.4123544692993164, -0.7529563307762146, -2.0468103885650635], [0.5268178582191467, 0.6353084444999695, 0.0072538238018751144, 1.3874146938323975, -0.018114060163497925, -0.07251600176095963, -0.2903297543525696, -0.14504949748516083], [0.33317503333091736, -0.18890896439552307, 0.015711277723312378, -0.4961913526058197, 0.5594168901443481, 0.43684229254722595, 0.5096427202224731, -0.08281396329402924], [-0.49125999212265015, 0.378836989402771, -0.49231570959091187, -0.3060978055000305, 0.4283730685710907, 1.1679643392562866, -0.7189806699752808, -0.5200907588005066], [0.20176240801811218, 1.2706987857818604, 0.2850250005722046, 1.0899255275726318, 2.457836389541626, 0.32516801357269287, 1.6718765497207642, -0.31103211641311646], [0.9287199378013611, 0.09849826246500015, -2.000816583633423, -1.062237024307251, -0.13452662527561188, -1.0145925283432007, 0.9115254282951355, -0.14079970121383667], [0.23299041390419006, -0.09918178617954254, 0.17814330756664276, -1.5775405168533325, 0.7387322187423706, -0.49529382586479187, -1.5260874032974243, 0.10358204692602158], [-0.42017653584480286, -0.00752230966463685, -0.18443073332309723, -1.5385760068893433, 0.3606572449207306, -0.29958629608154297, -1.2443697452545166, -0.8779445886611938], [0.8754565119743347, 0.20504482090473175, 1.019691824913025, -0.7156364321708679, 0.032956309616565704, -1.045678734779358, 1.4637068510055542, 0.39709270000457764], [0.8500044345855713, 0.48778510093688965, 0.5622345805168152, -0.0011058251839131117, -0.5473452806472778, 0.18326912820339203, -0.7545920610427856, -1.0412803888320923], [0.5777989625930786, 1.5129119157791138, 0.41803866624832153, 0.4140361249446869, 0.10297287255525589, 0.6006579995155334, -0.06823204457759857, -1.7288225889205933], [0.198943629860878, 0.7931885123252869, 0.7148221135139465, -0.6343191862106323, -0.4582560062408447, 2.205388307571411, -1.8541167974472046, -1.3600513935089111], [-0.9253077507019043, 1.305130124092102, 1.308132290840149, -2.7121641635894775, -0.9438676238059998, -0.6521618366241455, 0.7734078168869019, 0.8725299835205078], [-1.22651207447052, 0.7861263155937195, -2.095715284347534, 0.4538240432739258, -0.4390734136104584, 0.4836113750934601, 0.9263718724250793, 0.06930989772081375], [1.3653062582015991, -0.710239052772522, -1.4659621715545654, -0.5109949707984924, 0.8233895897865295, 1.1977022886276245, 1.3980343341827393, 0.2001211941242218], [0.11194629222154617, 0.9924570918083191, 0.8469497561454773, 0.19091705977916718, -0.4266550540924072, -0.48292064666748047, 0.6096129417419434, 0.5931153893470764], [-0.38073092699050903, 1.3123921155929565, -0.9919951558113098, 0.5365114808082581, -2.344559669494629, 1.3050613403320312, -1.2482588291168213, 0.26815280318260193], [1.020500659942627, -0.05965369567275047, 0.04093359783291817, -0.7471714019775391, -0.785394012928009, -0.6723272800445557, 1.8996667861938477, -0.5078429579734802], [-0.06308790296316147, 0.9503589868545532, 0.6692175269126892, 0.12500713765621185, 0.5085464119911194, -1.0646655559539795, -0.4647725224494934, -0.9152674674987793], [-0.35951921343803406, -0.08621222525835037, -0.8732696175575256, 0.3117755055427551, 0.12949959933757782, -1.9689935445785522, 1.0824037790298462, -0.7939976453781128], [-0.05412578582763672, 0.7956258654594421, 0.4980921745300293, -0.154833123087883, 1.320509672164917, -1.0362613201141357, 0.9919899702072144, 0.7098078727722168], [0.7465348243713379, 0.4349006116390228, -0.9983747005462646, 0.008348316885530949, 0.656700849533081, 1.2052075862884521, 0.7875191569328308, -0.9401962757110596], [0.7796703577041626, 0.18609671294689178, 1.082533836364746, 0.5627824664115906, -0.42588329315185547, 1.3324205875396729, -2.382286548614502, -0.5377679467201233], [-0.580207109451294, -0.7368903160095215, 1.7169411182403564, 0.3791958689689636, 0.4748137891292572, 0.41733691096305847, 0.23345151543617249, 1.586110234260559], [0.7207788825035095, 1.948853611946106, 0.17802779376506805, -0.9456325769424438, 0.011882373131811619, -0.6752824187278748, 1.3201978206634521, -1.6980592012405396], [0.700478732585907, 1.4601349830627441, -1.7565549612045288, 0.061297692358493805, 0.21377047896385193, -0.6795037388801575, -0.528132438659668, 2.030292272567749], [-0.6212678551673889, -0.7208005785942078, 0.05299517512321472, 0.4710422158241272, 1.3882709741592407, -1.2809112071990967, 0.34261515736579895, -1.531251072883606], [-1.8873894214630127, 0.864226222038269, 0.20053067803382874, -0.2410854995250702, -0.7543286085128784, -0.1702699512243271, -0.12077391892671585, 0.621518611907959], [-1.0246577262878418, 0.9556260108947754, -0.42411914467811584, -1.414432406425476, 2.2504515647888184, 0.9493568539619446, 0.7046743631362915, -0.6595548391342163], [-0.5683383345603943, -1.400467872619629, 0.5234264135360718, -1.394447684288025, -2.803607702255249, 0.4776649475097656, 0.3256658911705017, 1.5038625001907349], [1.4702991247177124, 0.2831921875476837, 0.9965240359306335, 0.2974933981895447, -0.31670674681663513, 1.3490521907806396, -0.5576766729354858, -0.478208065032959], [0.3752876818180084, -0.03187943622469902, -0.36111804842948914, -0.9239502549171448, 0.8751838803291321, -1.0344911813735962, 0.43541085720062256, -0.6297122240066528], [-0.06581125408411026, 1.4934002161026, -0.07963765412569046, -0.30194711685180664, -1.1212549209594727, -0.22997817397117615, -1.1604509353637695, -0.7538418769836426], [1.6695274114608765, -0.3783532977104187, 1.6375569105148315, 0.44471755623817444, -0.20888924598693848, 0.017187222838401794, -1.3584622144699097, 1.185271143913269], [0.35683414340019226, -0.8944808840751648, 0.240184023976326, 2.919741153717041, -0.7023525834083557, -0.7047621607780457, 1.2038114070892334, -0.785777747631073], [0.29647737741470337, 0.24316498637199402, 0.07484302669763565, 0.8991560339927673, -1.1043871641159058, 1.3527541160583496, 1.037936806678772, -0.5763443112373352], [-3.2456753253936768, 2.0672388076782227, 0.35479018092155457, 0.00869373045861721, 0.20314602553844452, -1.613258957862854, 0.09489043056964874, 1.1367512941360474], [-0.2354726940393448, 0.7608510851860046, 1.313018560409546, -0.25795885920524597, -0.3810645043849945, 0.4370218515396118, -0.9282481670379639, 0.3511030077934265], [1.7989004850387573, 0.5005401968955994, 0.6655059456825256, 0.2968508303165436, 2.7693965435028076, -0.48272475600242615, -0.15044540166854858, -0.3778468072414398], [-0.9632931351661682, 0.24365876615047455, -2.6503069400787354, -0.06660997867584229, -0.39832988381385803, -1.6674398183822632, -0.4480140209197998, -0.41367006301879883], [-0.2730070948600769, 1.246535062789917, -0.6154587864875793, 0.413928359746933, -0.6802127361297607, 1.3367033004760742, 0.8219903111457825, 0.822026789188385], [-0.9819430708885193, -1.1440315246582031, 0.16956964135169983, -0.2699536085128784, 0.3719022274017334, 1.6829878091812134, -0.2491532266139984, -0.28029924631118774], [-0.9371986985206604, -0.9417458772659302, 0.3640463650226593, -0.40119120478630066, -0.10648755729198456, -0.05061887577176094, -1.8612507581710815, -0.020756125450134277], [-0.740850031375885, 0.8860921859741211, -1.1339229345321655, -0.9327525496482849, -0.9162893891334534, 