0.402183 0.680004 -0.222833 0.057218 1.257694 0.042022 0.855214 -1.666280
0.247680 -0.431226 0.626785 -1.101895 0.029766 0.013577 -1.314290 -0.260894
1.055528 -0.401130 -0.395448 1.213315 0.512170 0.660300 -0.446798 1.246443
-0.812317 0.138715 0.164961 1.693593 0.083170 1.504009 -0.541982 -1.978178
0.193496 -0.196392 0.424575 0.897430 1.579638 -0.630534 0.650126 -1.235635
0.076690 -0.296454 -0.243456 0.513099 0.701757 -0.255592 0.250953 1.285841
0.270812 0.967956 -0.662375 0.289766 -0.164568 2.793526 -0.185368 -0.327089
1.696615 2.586591 0.659794 0.355528 0.707185 -0.691118 0.955490 0.092938
-0.140781 -0.201719 -0.652755 -0.149939 -0.760907 1.301978 0.793153 -0.934312
-1.730402 0.251867 0.347504 1.080085 -1.950858 -0.010488 0.817781 0.197986
1.034774 -0.714093 0.393550 0.608033 0.323877 0.334398 -0.469581 1.243437
-0.562972 0.353082 -0.113162 -0.574777 0.426709 -1.951888 -0.434785 -1.121305
-0.434278 0.727932 0.477952 1.509693 -0.258809 0.268191 -0.708985 -1.258045
-0.112165 -1.915900 1.155204 0.622058 -0.567527 -1.756160 -0.829106 -1.788415
-1.743377 -0.624077 0.966455 1.181626 0.753837 0.518405 -0.058736 1.565388
0.091042 -0.490791 1.357292 1.153325 -0.440048 -0.538621 -0.082562 -1.183887
-2.064677 1.701470 1.656965 -0.527257 1.432036 0.102082 -0.784299 0.809356
0.495888 -0.168692 -0.998035 -0.699860 -0.196654 0.460848 -0.693271 0.473354
0.265588 1.240375 -1.418927 -0.584246 -0.549919 1.477593 -0.928927 -1.886269
0.493212 -1.257462 0.082022 1.034549 0.339906 1.374017 0.458668 -0.461396
0.361035 -0.408547 -0.859253 -1.505975 -0.467078 -0.443371 0.313292 0.472271
-0.424072 -1.777462 2.403922 0.053447 0.408466 0.089105 -0.083038 -0.355490
0.673357 -0.047854 0.469916 0.619675 1.504158 -0.404463 -0.285109 0.064040
0.851510 0.190986 0.954825 -1.054039 0.716727 0.551252 0.922158 -0.547671
1.141912 0.304000 0.984150 0.550937 -0.597294 0.340991 -0.314695 1.287550
-0.310512 0.451801 1.802491 0.093873 -0.339779 0.298581 -1.141623 -0.300779
-0.660669 0.680337 -0.177138 0.490782 0.183022 -0.048702 0.788828 0.555693
-0.848557 -0.106206 0.690804 0.811322 1.690374 0.634511 2.265547 -0.085439
-0.532329 -0.785706 -2.212409 1.056111 0.712575 0.937234 -0.982711 0.952107
-0.245614 0.123687 -0.539268 0.014746 0.935151 0.176447 0.597364 -1.345775
-0.935492 0.919090 1.136189 1.920219 1.044520 0.680508 -0.067711 0.425590
1.877729 -0.777993 -0.387825 -0.244689 0.228506 -1.224015 -2.755951 0.931494
0.333778 0.449900 -1.567455 -0.219440 -1.264199 -0.199754 -0.813845 -0.752899
-1.783336 0.339454 -0.361279 -1.131684 0.209851 0.630432 -0.706144 -0.236831
0.384981 -0.705517 0.675719 -0.540822 0.253360 0.611533 -0.622858 0.275732
0.511535 0.325234 -0.466239 0.312239 1.173452 0.771289 -0.332452 -0.436119
-0.200986 0.595723 -2.378983 -1.052808 -1.619434 0.212322 0.086053 0.716200
0.232189 1.954284 0.264958 -0.832315 -0.152835 -1.395866 0.286911 -0.442475
-0.560237 -1.866572 -1.326671 0.131718 0.021303 2.042702 -1.376965 0.251619
-0.340695 -1.023564 1.938563 -0.230823 -0.015485 0.363208 1.467052 0.903799
0.833483 -0.094954 -0.152363 0.044948 -0.093666 0.654474 -0.203993 -0.600217
-1.340353 -0.107647 -0.354732 0.469668 -0.751152 0.279248 0.856991 0.350833
0.119346 -2.048808 1.340785 0.694807 1.154910 -0.415717 0.582077 0.187245
0.264661 1.276927 0.948962 -1.487116 1.193940 3.034789 -0.316584 1.295583
1.307721 -0.252803 0.274990 -2.455487 -0.045111 -0.687232 0.711501 1.962360
-0.074008 -0.322051 0.647875 -0.082497 -1.551661 -0.736239 -0.383278 -0.605316
-0.915345 0.380284 -1.007897 0.445042 0.889365 -1.392309 0.834159 0.674429
1.320340 0.310478 -0.502304 -1.195804 -0.117184 -0.129892 -1.583858 0.045851
-0.512552 -0.092200 0.023096 1.919437 0.764817 -0.342848 -0.085268 -0.059585
-0.888276 -1.115178 -0.653428 -1.550158 1.704006 -0.007751 0.206073 0.683532
-0.833922 0.682200 0.372826 -0.776612 -1.130541 -2.034262 0.850851 -0.491026
0.819467 0.681455 -0.148767 0.842980 1.024839 1.249343 -0.275776 1.733577
1.029547 0.852060 -0.327081 0.360950 2.246368 -1.309468 -0.948226 0.505972
0.159610 0.678021 0.443212 -1.365535 -0.326550 0.346142 0.145213 -0.736488
0.269240 -0.570089 -0.803311 -0.039861 0.674308 -0.466074 0.536895 -0.408687
0.958430 -0.006356 -1.316209 0.870861 0.284722 1.041531 -0.309905 0.176822
0.612548 -0.813106 -1.994679 1.109306 -0.499161 1.762528 0.414631 -0.373665
-0.024425 0.274555 1.287772 -0.773499 -0.889731 2.425086 -1.145787 1.268079
0.419985 2.108673 0.409052 0.841430 0.999516 -0.930934 -0.136827 0.907766
-0.162901 0.698241 0.106322 0.192645 -0.476032 0.430617 0.961738 1.692259
-0.487525 -1.439584 0.334044 -0.326122 0.492822 -0.413327 -0.316744 -0.652503
1.050693 -0.317040 -1.526840 2.022735 2.244667 0.668445 -0.992288 -0.204154
-2.032739 0.071356 1.260240 -2.006073 -1.100982 0.045423 0.266649 -0.168306
0.075424 -0.456095 -0.729655 0.473556 1.320158 -0.255742 0.412468 1.060791
0.523742 0.035643 -1.457931 0.601129 -0.487933 0.894467 0.259773 -0.614231
-1.058576 -1.053452 0.802334 1.019762 1.175312 -1.053479 -1.137864 0.687033
-1.616312 0.770679 1.024259 0.785771 -0.985485 -0.695946 -1.354848 -0.212491
0.426216 0.527968 0.330285 0.074955 0.703755 -0.423667 -0.556013 -0.242171
0.736933 0.473275 -0.080791 0.590478 -0.884089 -0.920730 -0.808285 -0.165244
-0.072070 -0.232272 0.941452 0.264778 -0.440819 -0.818050 0.942378 0.264534
-0.450253 0.259970 0.322034 0.754206 0.813342 -0.483251 1.702616 -0.271739
-0.854557 -0.574482 0.609740 -1.078547 -0.836727 1.480394 -1.412000 1.025025
-0.609856 1.154074 -0.437545 -0.065157 -0.371586 -0.626858 0.521885 -0.199960
0.220968 -1.413121 -1.470258 1.223418 0.280504 1.432877 -1.276813 -0.684898
-0.192338 -0.124844 -0.368208 -0.847748 1.413974 0.089978 -0.875322 -1.300169
-0.920946 -1.035921 0.334145 0.355818 0.849068 0.255206 -0.866900 -2.272842
-1.476059 0.210047 0.060911 -0.484741 -0.063664 -0.425893 0.529888 -0.248730
-0.641959 -0.583115 -1.292724 -0.268047 -0.285629 -0.520607 -0.052904 1.169679
-0.229684 0.450498 -1.244602 -0.637385 -1.542702 0.863232 1.100901 0.257161
-0.249673 0.383689 -0.506944 -2.555473 -0.947607 -0.214613 -0.681786 1.902215
2.011929 0.105225 -0.618819 -0.772561 0.942008 2.291521 -0.076510 -0.170206
-0.249559 0.255916 -0.376671 -1.259964 -0.706365 -0.122518 -1.787118 0.965336
-1.239425 -1.675246 -1.098256 1.151801 1.018268 -0.464138 -0.510938 -1.251383
1.721023 -0.928881 -0.078363 1.553678 0.941073 -0.788948 1.228799 -0.209861
1.219268 -0.660151 1.685302 0.420906 -1.061539 0.292510 2.426098 0.424133
2.115837 1.876215 -0.122237 -1.632265 -1.382640 -0.514940 0.332501 0.052826
0.260037 0.696835 0.083386 0.125555 -0.188833 0.456999 -1.071585 -1.647347
1.304950 -0.519015 -1.526311 0.652523 2.513585 -0.112615 1.186825 -0.406448
-1.220513 0.759958 -0.032444 1.397928 -1.044086 0.589530 0.395973 -1.438486
0.736457 -1.290851 -0.684464 -1.392051 0.739463 -1.144503 -0.623413 -1.069179
0.899752 -0.570769 -0.171490 1.652031 -0.380163 0.787828 -0.539830 -0.021582
0.901982 -0.531039 -0.558532 0.711704 -0.069091 0.619195 -1.379289 -0.822753
-0.699008 -0.951205 -0.404097 0.028675 1.190478 0.821880 -0.789573 -0.559343
1.321024 -2.725085 -0.803162 0.882602 -0.483156 1.087436 0.131273 -0.587688
-0.248923 2.218096 0.638495 1.392315 0.089690 0.568577 0.304894 -0.831578
-0.181585 -0.549810 0.045184 -0.905780 1.248839 0.465813 -2.474498 0.808981
-0.212929 0.411329 -1.729102 -1.368907 1.250975 -0.954923 1.156816 0.398902
-0.160644 -0.752763 0.396347 0.619836 0.101650 1.190853 -0.284907 -0.342392
0.138445 -0.881073 0.608191 0.990680 0.025782 0.892370 -0.321660 0.379941
2.146430 1.102046 1.104498 1.094938 -0.283697 0.052771 0.605027 0.858007
0.957479 0.214974 0.096662 2.027344 -1.024811 -1.757145 0.210649 0.515362
0.017974 0.727190 0.059788 1.266186 -1.446665 0.922776 0.582057 -0.392478
-0.612566 0.344185 0.589958 -1.210152 -1.777551 -1.019311 -0.489058 1.080240
-0.201908 1.109534 -1.461065 -0.975544 -1.217282 0.383209 -1.704216 0.053405
1.670929 -1.930771 1.547330 0.189354 0.184541 0.977947 -0.279721 -0.274984
-1.238699 0.603505 -0.113619 1.213148 0.372952 0.667265 -0.524305 -0.831616
-0.162820 2.008329 1.753848 -0.110444 -0.565286 -1.520776 -0.932505 -0.691103
1.586879 0.842446 -0.453828 0.489640 -0.925613 1.767339 1.479432 -1.407664
-0.817197 0.610732 -1.414337 -0.322628 0.967164 0.827829 1.154709 -1.756766
2.433037 -0.662096 0.409761 -1.282897 0.763376 -0.981008 -0.794300 -1.445357
0.989822 -0.578227 -0.521271 0.546015 1.425596 0.361036 -1.008334 -0.581310
0.319531 1.248124 -0.037022 0.286366 1.235810 0.336123 0.009189 0.357467
-1.827531 -0.197603 -0.337965 -0.203091 -4.574920 -2.043475 0.312580 0.370543
-0.726735 -0.186071 -0.081856 0.977054 0.746061 -1.215781 -1.119916 0.729059
0.293333 1.470022 -0.083548 1.678439 -0.501494 1.120017 0.434800 -2.238700
-0.984985 0.503346 -1.877899 -0.098805 -0.726613 0.834718 -0.804136 -0.380684
0.051606 0.048109 1.505563 -0.890691 0.277722 1.543147 -0.085579 0.011259
0.994809 -1.548733 -1.378121 -1.252418 -0.346857 0.327149 0.598637 0.208146
-0.143795 0.360679 0.350361 0.558083 0.925262 -0.601090 0.879146 -0.529003
0.082395 0.011084 0.199060 0.283349 -0.909337 -0.001303 0.394594 0.844320
-1.135084 -0.572482 1.994193 -1.254269 -0.580535 0.362759 -0.135734 1.265951
-0.244123 -0.302233 0.865962 -1.473759 -1.186917 -0.915983 -1.752384 -0.680586
-0.372673 1.110961 0.058593 0.067536 -0.491358 -0.293634 1.378207 -1.040201
0.554686 -0.577757 0.386570 2.195046 0.852260 -0.006769 1.112990 -0.910817
-0.180275 0.599417 0.673368 0.242675 0.896636 -1.440834 0.800625 0.576800
0.189513 0.308701 -0.102196 0.546915 1.103715 -0.481690 -0.623513 -0.831558
-0.423488 1.653540 -2.225226 -0.783615 -0.603715 -0.201701 1.072037 -0.202398
-0.398588 0.336705 0.581700 -0.424036 0.655680 0.057972 -0.269967 -0.923342
-0.378688 -0.520997 -0.125762 0.292413 0.185989 0.583046 -0.609626 0.874898
0.105681 -0.788793 1.399873 1.425097 -0.184362 0.212358 0.260562 0.146119
-0.457440 1.435090 0.348987 0.258703 -3.080709 -0.104328 0.221866 1.181542
0.245534 0.219172 0.950472 2.101450 -0.906003 -0.238493 -0.585420 -0.748236
-0.317783 -2.041718 0.376888 0.201348 0.865693 -1.430567 -0.464693 -0.453082
-0.518077 0.199835 -0.533400 0.387414 0.433587 0.313252 1.245630 0.123432
0.937424 -2.486207 0.556945 0.057926 0.058737 1.096965 1.374980 -1.306316
0.177590 -1.230432 -0.683531 0.312609 -0.551350 -0.426279 -0.904736 -0.679340
0.329863 0.158771 1.092632 0.899484 0.054889 -0.024636 -0.287170 0.561915
0.244121 0.217216 -1.523908 -0.141275 -2.144159 -1.700106 -0.208753 -1.496808
-0.063731 -1.585384 -0.516467 0.968732 -0.305225 -1.264096 -0.669990 0.486274
0.269169 0.006532 1.096734 0.277590 -0.260895 0.783324 0.709605 -1.208795
-0.413126 0.606538 -0.084787 0.399702 1.675957 0.903118 -0.728960 -1.852033
-0.417163 -0.868469 -0.086315 -0.628111 0.842840 -0.700370 -1.380433 -0.934056
-0.013479 1.432719 1.526446 -0.332320 -0.954262 2.421830 0.184214 -0.679303
0.130088 0.747579 0.534909 0.251200 2.064808 -0.767096 -1.108467 0.654931
0.117108 1.251230 -0.131328 0.257555 -1.903568 -1.458510 0.833557 -1.133035
0.137495 0.523894 -0.957102 -0.471665 1.405904 1.124774 -0.004827 -1.997007
0.158602 -0.300757 -0.491479 0.674162 0.241814 1.341861 -2.051357 -0.731780
-1.128937 -0.507510 0.322418 1.631276 0.392339 0.097634 -1.098475 -0.618852
-0.928159 -0.977265 -0.683742 0.401392 -2.506420 -1.374261 -1.846865 0.542180
0.019971 1.357644 -0.870768 -1.327110 -1.346789 2.225807 -1.103534 0.575727
-0.266111 -0.878069 0.601366 0.461428 -1.423013 0.561935 -1.408396 1.292452
0.165404 -0.481699 0.803729 1.041574 -0.406363 -1.126108 -0.078533 -0.361312
0.727542 -0.161276 0.621922 -0.729159 0.701628 0.273816 0.313600 0.252348
2.089781 -0.169209 0.424475 1.346084 -0.902281 -1.311674 0.583583 -1.491786
0.233216 0.328508 -2.292416 -0.933687 -1.146294 -1.432835 -1.378193 0.117958
-1.028425 -0.372140 -0.933484 1.159659 -0.543181 -0.312668 -0.810187 0.294687
1.255770 -0.552119 -1.078508 -0.639315 1.458586 0.718622 -0.101437 0.405145
-1.198810 1.079854 -0.146101 0.308511 -1.483254 0.219171 0.779964 -0.043621
-0.884082 0.310500 -0.967232 -1.287625 -0.748537 0.662253 0.491490 -0.442773
0.566084 -0.369722 -0.572682 -0.669882 1.117715 -0.967695 -0.966078 -0.412143
-1.866885 0.808048 0.451922 1.173985 -0.059965 -0.651050 -0.637519 0.757517
0.332060 0.663371 0.973818 -0.630631 0.202267 -1.508716 -0.520642 -0.165951
0.562066 0.414649 -1.332483 0.445992 0.258712 -0.595356 -0.502288 -1.335423
0.842820 0.303128 -2.099936 0.663162 0.090568 0.809605 1.418089 0.660148
-0.550947 0.484268 -0.030567 0.267668 -1.039075 -0.796772 1.152312 -0.056594
2.107137 0.466287 0.523450 1.537362 -1.232753 0.505235 -1.390427 0.991183
-1.728393 0.768120 -0.891144 0.451975 -1.484876 -0.182731 -0.406054 0.398659
0.231335 1.912266 -0.351532 -0.432729 -0.552064 0.000738 -1.740057 -1.900627
1.399543 -0.177133 -1.001699 -0.421196 -1.639945 0.137115 1.351679 -0.227861
0.053889 0.645635 0.590041 0.781537 0.258817 0.840966 -1.805041 -1.496509
-0.906870 -0.929300 -0.251213 -0.209239 0.477956 0.128441 -0.939110 0.492365
0.396419 -0.068525 -0.368351 -0.293268 -0.460653 2.517239 0.622764 0.170337
0.056028 0.163004 -1.065401 -0.524395 -0.833671 2.080194 1.923240 0.848917
-0.680936 -0.512557 -0.087949 -0.217089 0.408491 1.452038 -1.342043 0.766922
-0.689934 -0.408260 -0.088007 -2.878385 -0.805539 0.863692 0.862911 -0.466085
-0.558109 -0.063011 0.656768 -1.896519 -0.665252 1.236964 1.057300 2.036620
-0.885273 -0.563072 0.971760 -1.780213 1.214283 -0.246302 2.607400 1.159820
1.998954 -1.537540 1.305838 -0.137148 -0.141466 -0.337743 0.472519 -0.567542
0.762864 -0.975434 1.811673 -0.060656 1.683621 0.065989 0.073145 0.624096
-1.036258 0.198189 -1.175124 -1.581133 0.197459 -1.650058 -0.694626 0.060424
-0.700892 0.202100 0.941396 -0.649952 1.358922 -1.709404 0.457554 -0.965762
0.960206 -0.520094 -1.199937 1.335947 0.536933 0.292552 -0.541373 0.507930
1.197582 -0.662412 -0.229061 0.330568 0.072405 1.000167 0.737013 -1.314864
-0.555784 -0.397559 -0.496142 0.488890 0.532402 0.234835 -0.348762 -0.736376
0.797176 0.006764 1.174171 0.183326 1.751454 0.047046 -1.140197 1.627480
0.611962 -0.213926 -0.118785 -0.075416 -0.453456 0.403409 0.658664 -0.628208
-1.437188 -0.654136 -1.773182 0.111144 -0.780813 1.097281 -2.697303 0.247799
-0.340764 0.112433 2.404606 -0.862998 -0.034663 0.773336 0.104373 -0.787810
-0.468545 1.369669 -0.480857 1.384183 1.891363 1.320055 1.150428 -1.001783
0.589158 -1.890295 0.258419 -0.632791 -0.157541 0.756604 -0.892757 -1.008110
0.010665 -0.841391 0.803952 2.443331 0.655027 -0.573063 -0.371947 -0.491930
0.612502 -0.093930 0.322463 0.774544 1.481332 -0.639861 -0.702240 -0.644927
-1.807504 0.260426 -0.813058 -1.326670 -0.704921 -2.169881 0.483971 0.632477
1.274576 1.418975 0.162740 0.803292 -0.281856 0.853578 0.720676 0.182167
-0.175665 -0.317544 -0.026808 -0.284826 -1.142988 1.339121 -1.721134 0.978265
0.540414 0.063188 0.109919 -2.782277 -1.224757 0.823103 -0.926050 0.914175
-0.339755 0.592498 0.333706 0.166421 1.097600 1.286794 1.266293 -0.486928
1.812410 0.814931 0.879697 0.752090 0.830214 0.144159 0.106834 0.225461
-1.061226 0.204510 -0.627917 1.333121 0.804281 1.033259 2.285709 -0.161466
0.300307 -0.818345 0.502241 1.013972 -0.403401 0.499005 -0.046028 0.702848
0.352208 -2.068542 0.366293 0.712811 1.374974 -1.735086 0.050721 0.283513
-1.187838 0.321736 0.270982 -0.407363 2.061878 -0.918291 1.457007 -0.256146
0.220250 0.928273 1.583859 -1.682624 0.717507 1.690875 0.287284 -0.757955
1.229577 0.123948 -0.539138 -1.646607 0.969938 0.882037 -0.891230 -0.127189
-0.414936 -0.179277 -0.605918 0.618048 -0.297624 -0.238962 0.085137 0.663195
0.162617 -1.143645 -0.387610 -0.932806 0.871575 0.808049 0.435305 0.123985
0.076265 0.914811 -1.053280 -0.126803 -0.746439 -1.635394 -0.082744 -0.694792
-0.638261 -0.401926 -2.429286 0.085979 -1.881212 0.378581 1.648144 -1.567249
-3.938372 1.955198 -0.478810 -0.162286 -0.763249 1.427289 -0.219995 -1.115455
1.665234 -0.295671 -0.675771 1.168154 1.406940 -0.903479 0.295036 -0.726563
1.264852 -0.058903 -0.225030 0.142644 -0.633938 1.276349 -1.140530 -0.790081
2.022331 -0.464728 0.938637 -0.101196 0.787024 -0.696208 -0.447036 -1.549329
0.330590 -0.873909 -0.202124 -0.125610 1.651486 0.844818 -0.719666 -0.450822
-0.320752 0.966426 -1.905501 -0.109307 -0.258495 1.279217 0.206373 -0.733039
0.147320 0.822023 -0.837070 -2.697229 1.754754 0.425915 -0.853776 -1.584409
-0.605391 -0.352546 0.470471 -0.789337 0.061306 -0.067578 1.016160 -1.269872
-0.387684 0.791112 -0.602854 1.135329 0.885526 -0.648000 0.430995 -2.045212
1.021795 -2.217721 0.532313 0.152915 1.284184 -0.627105 -0.671647 0.879602
1.536549 1.264280 0.061948 -0.963753 -1.348982 -0.835112 -0.092138 -0.561270
-1.092907 -0.329298 -1.545779 -3.042842 1.365235 -1.803321 0.602785 0.026547
-2.225358 0.140878 -0.061773 -0.940117 1.782956 0.319116 -1.065411 0.067711
-0.865819 -0.684258 -0.338556 0.252763 0.357011 -0.065435 1.484994 1.109930
1.475339 0.160580 -0.692959 0.773710 -0.161878 -0.507354 1.135999 -1.778113
0.119414 1.831510 -1.054591 0.106450 0.136798 1.498982 0.863904 -0.175749
-0.143267 0.391600 -0.385323 0.916814 1.021654 1.443432 -0.490761 -0.079730
0.771739 -0.359974 0.059537 -1.173710 0.572023 -0.284546 -1.572132 -0.062907
-0.980650 -1.432837 0.388096 1.160652 -0.616054 0.186242 0.273047 -2.853771
-0.661400 -1.324080 1.511208 0.934500 0.418120 -0.737883 -0.497667 0.822880
-0.747518 0.782469 0.003677 -3.471091 0.524315 0.886714 -0.094032 0.029454
1.529653 -0.813634 -0.824275 -1.846737 -1.097143 2.878722 0.051271 -1.242227
-0.184056 -0.611206 0.320091 -0.188902 0.502434 0.664085 0.127421 -0.703394
-0.393402 -1.325228 -1.297454 0.068637 0.790773 0.359026 -0.250444 -0.561993
0.290331 -0.233259 -0.110498 0.606754 1.559511 -0.226398 -0.208491 -0.512166
-1.956560 -0.155521 0.565427 -0.912909 1.648493 0.180779 0.669459 0.229374
0.093580 0.798478 2.193712 -0.310896 0.448375 -1.019869 0.510996 -2.281879
-1.008113 -0.801804 -2.274749 0.231998 -0.539923 0.452381 -0.616363 -1.175441
0.164878 1.114965 0.820529 1.936486 -1.621898 0.931106 0.780617 0.049030
-1.514925 1.034313 0.202233 -1.176997 -1.370429 -0.319146 0.431181 0.323627
0.628227 -0.452565 -0.478446 0.261382 0.698821 0.777436 1.304739 0.288627
0.938709 1.626261 0.034874 0.513213 0.753723 -0.062830 2.370058 -1.713617
0.770985 0.510244 -0.711347 0.373005 0.308702 -0.475426 0.959825 0.714006
-0.463826 0.015457 0.407546 -0.623211 0.608269 0.450346 0.571859 0.049512
0.626206 1.155303 -1.047969 1.915761 -0.796382 0.135307 0.047034 1.062828
1.565513 -0.301300 0.483119 -0.903710 0.562258 0.412914 0.004855 -0.189345
0.261424 -0.946913 -0.060761 0.228874 -0.231976 -1.489456 1.902294 0.077578
0.422968 -1.551240 -0.693846 0.675702 -0.713875 0.610937 0.698410 -0.590420
0.211050 -1.095396 -0.946239 -0.705839 -0.188399 -0.208892 1.494576 -0.059089
-0.243523 -0.334320 0.068858 0.266172 1.037875 0.176182 -1.807440 0.352635
-1.530900 0.388412 0.734535 -1.230800 1.563441 -0.007703 -0.298221 -1.809820
0.344900 -0.099626 0.032880 -1.431109 0.052466 -0.296084 0.498106 0.609383
0.488884 -0.875177 0.289726 -0.538773 0.402900 -0.432810 0.388511 -0.704645
-0.822026 0.747731 -0.480551 0.165348 1.499520 -0.282224 1.208451 -0.882792
-0.197312 -1.196002 -0.720990 0.338143 0.204308 0.137551 -1.640505 1.475950
0.894082 -0.567887 -0.749563 -0.739785 -0.157283 0.946624 1.356471 -0.887993
0.651422 0.547342 -0.178130 -0.128752 0.237053 -0.426736 -2.175658 0.713068
-0.967664 0.051143 -0.674362 -0.546541 0.160717 0.448378 -2.338696 0.566915
1.214399 -0.885343 -0.014766 -0.219394 0.240254 -0.576021 -0.187163 -0.064917
0.873429 -1.443571 0.189861 -0.587615 1.817712 1.015483 0.524158 -1.482632
-0.067916 -1.621081 1.058824 -0.184671 -0.777991 -1.117027 -0.015843 0.929969
-0.206047 0.755234 -1.275480 0.404971 1.679398 -1.568513 -0.635330 -0.770118
0.105242 -0.434293 0.037454 0.019152 0.848456 -0.131892 0.374638 -0.151088
0.237524 -0.948486 -0.652624 0.965941 0.010413 -0.418395 0.263011 -0.904680
-0.751035 -1.993501 0.917336 0.305092 -0.462337 -0.167904 -1.277915 0.154420
1.029598 0.513702 0.046707 0.801148 1.972110 0.288221 -0.921053 0.160874
-0.723634 1.115841 -1.168184 0.944998 0.641802 0.715190 -0.278117 -1.385829
1.855840 0.154874 -0.484662 1.014079 0.251309 0.926545 0.284145 -2.439520
0.127101 -0.356298 -0.981660 0.368261 -1.121777 1.848019 1.090491 -0.658117
0.114975 0.981422 0.155830 -0.603680 1.098498 -0.049233 -0.226664 -0.703298
0.529517 0.499443 -0.816678 0.918368 0.363705 0.378356 1.060030 -0.173156
-0.905246 -0.813596 -1.224251 -0.852526 -0.163786 0.380332 -0.280621 1.338487
0.521433 -1.076555 -0.176774 0.466006 -0.041862 0.616059 -0.229864 -1.260054
-0.603605 -0.259437 -0.533030 1.072590 -1.320532 1.407717 0.764707 1.060890
0.690228 -0.831435 1.023053 0.758368 0.601149 1.050047 -0.708971 -1.141871
1.062130 -2.268368 -0.385800 -3.070879 -1.203758 0.053172 -0.377664 0.174757
1.021214 0.166932 -0.048700 -0.755944 0.845715 0.793632 -0.473358 0.548474
0.652399 0.155821 -0.436681 -0.244334 0.321336 0.385438 -1.043663 -0.327229
-0.654421 1.611230 0.137848 0.439364 -0.496808 0.690331 -0.058544 -0.691469
-1.198884 0.142324 1.056199 1.515355 1.660202 -0.095697 1.543719 -0.859502
1.057599 -0.330480 -0.669385 -0.037972 0.440899 -1.176088 0.212938 0.159886
-0.219033 -1.211454 0.315731 0.743342 -0.033275 0.160021 0.016774 -0.313855
-2.410155 -0.943198 -1.359327 -0.154149 1.164318 1.932522 0.082742 0.153243
-0.641484 -0.943758 -1.371627 0.445505 -0.493166 -2.176455 0.001194 -0.034598
-0.415385 -0.851832 0.306972 1.310609 0.306206 -0.500850 0.480472 -0.692766
-2.161738 0.303721 1.268778 0.844819 -1.339275 -0.316252 0.073425 0.059887
0.711189 1.151439 -0.898201 1.485611 -0.057490 0.657315 0.645613 -0.225612
-0.547550 -0.174485 -1.079240 -0.086636 -0.148551 1.092854 -1.598464 0.899793
0.617044 -0.138555 -0.534826 -2.306072 1.033775 1.109911 0.142188 0.367614
-0.039495 -0.472041 0.971138 0.279852 0.283139 0.903326 1.315607 -1.844295
0.584298 -1.062340 -0.963120 0.639732 -0.994914 0.680738 0.167270 -1.796557
-1.214249 0.410098 -1.524382 0.943576 1.728723 2.588377 0.363119 1.068264
0.193087 -0.727203 1.720605 -0.478269 1.016805 1.101757 -0.032295 -0.768655
0.013967 -0.766211 -0.370831 -0.124672 -0.072682 0.443019 0.813862 1.025252
-0.815832 0.120526 -0.896211 0.311934 1.327041 -0.368077 -0.262970 0.033269
2.043603 -0.454340 -0.458308 0.209458 -0.063439 0.168680 -0.387718 0.550262
-0.404653 0.176294 0.242079 0.782453 1.593928 0.160078 -0.061879 -0.666760
0.764539 0.242399 -0.213170 0.307313 0.288399 -0.686197 -0.518746 1.222372
0.573960 0.141203 0.088967 -0.789722 -0.710035 1.590029 0.103225 1.534631
-1.647309 0.371136 0.546273 -0.196891 0.386863 0.645624 -0.309454 -1.537479
2.074282 0.505561 0.030107 0.490290 0.229625 -1.190573 0.898119 0.258438
0.108508 1.477556 0.582682 0.638915 -0.815021 -0.203690 1.309709 1.063175
-0.199957 -0.668962 -1.311575 -0.012145 0.241963 1.118315 0.323060 0.299793
-0.311249 -0.193585 -0.533738 -0.573632 0.512126 0.518766 -0.960906 -0.148697
-0.702432 -0.024063 1.404912 1.352403 -0.023803 -0.224666 -0.411986 -0.260450
-2.409124 1.686459 1.916902 -0.245470 -0.294152 -1.418745 0.391572 -0.246249
0.142992 -0.312725 0.413261 1.317527 0.267418 0.949469 1.450777 0.334341
-1.037297 0.861572 -0.842915 1.602805 0.735723 0.407891 1.058415 -1.127576
0.817114 -0.962840 -1.193336 1.707437 -1.535835 1.752675 -0.344101 -1.897867
-1.439451 -1.442647 0.890386 -0.543247 0.531456 0.507233 0.605511 0.113020
-1.501088 0.917999 -0.847998 1.594849 1.833180 -0.523867 -0.710051 -0.742036
0.324874 0.863412 0.911262 -1.476542 0.261041 -0.220059 -0.607198 0.857798
1.004354 -0.504353 0.410197 0.221045 -0.567338 -0.393970 -0.624407 0.463360
0.262666 0.205459 -0.037571 -0.123518 1.393476 1.155670 -1.055890 0.722113
0.348188 0.201775 0.197600 0.485283 0.029059 -1.108696 -1.167630 0.688810
0.461996 -0.587779 0.901263 0.409930 0.054632 -1.085664 -1.158003 -0.137577
-0.586912 -0.537950 -1.664050 1.727101 -0.016472 -0.170251 0.952874 -0.496700
-0.339925 0.093181 2.442228 -0.806658 -0.136505 -0.152372 1.016151 0.634588
0.565724 0.086490 -0.378882 0.307593 -0.471472 -0.973141 -0.857229 -0.126770
1.527474 1.617363 -1.112931 0.184336 0.297479 -2.877228 -1.992615 -1.646748
0.275129 -1.127697 0.128577 0.836893 -0.358519 -1.203750 0.167053 -1.761270
1.230958 1.469245 -0.081175 0.028397 -0.620971 1.108547 -0.377774 0.293852
-0.304708 -0.681611 -1.120422 -1.515374 -1.693850 2.596925 1.410275 -0.750662
1.729394 1.392029 0.614486 2.238918 -0.611144 -0.305581 -2.318241 -1.001779
0.566801 -0.668671 1.365005 0.636436 -0.991147 -0.716351 -0.453191 -0.399220
-1.555687 0.271481 0.288277 -2.205756 1.026658 0.850582 2.054994 0.300650
0.553446 -0.119884 -1.277827 -0.474231 -1.394567 -1.663760 -0.014494 0.561311
0.968413 0.065514 0.932383 -1.118844 -0.292318 -2.976832 0.983318 0.268694
0.993686 1.169965 0.527953 0.887124 0.972494 -0.051241 0.886185 1.126904
0.905706 0.176558 -0.328111 -0.449462 0.300912 -0.188059 2.391176 1.465785
0.746988 0.142682 -0.020508 0.434360 0.397089 -0.920749 1.392550 -1.137443
-0.136094 1.164937 2.553995 -1.600507 0.172785 1.329785 -1.921611 -1.609447
0.539774 0.797283 -0.686110 -0.106877 1.394057 -0.244174 1.454405 0.326835
-0.666362 -1.052767 -0.237663 0.838085 0.849507 0.713335 0.714110 -1.504957
-0.704878 -0.466368 -0.631265 1.644982 -0.412593 0.376830 -0.092589 -1.218878
0.912347 -0.860919 0.879379 1.098776 -0.415667 1.307524 1.216413 -0.159189
-1.019730 -0.924093 0.175967 0.774336 -0.490990 -0.212933 0.111340 -0.368883
1.243923 0.335355 0.640330 -1.382059 0.284106 1.409471 1.330434 -1.168104
0.749715 -0.249281 0.758347 0.089885 1.627270 -1.271454 1.194522 0.444521
0.406753 -1.525420 0.674423 -0.147024 -0.615954 0.625466 0.662169 -0.822064
0.079532 0.428177 0.411808 1.497719 -0.843881 0.270344 -0.292488 -2.024077
-0.206125 -0.730070 0.408529 -0.321708 2.240281 0.621793 0.600399 -0.437897
0.549492 0.043819 0.139772 -0.480234 0.317128 -0.140699 -0.407166 -0.493707
1.816459 -0.980971 0.517460 1.227237 0.030408 -0.252034 1.237807 2.249225
1.330742 -1.442136 -2.042701 1.045256 -0.567430 0.869012 -0.052834 -1.146348
0.454083 0.961449 0.117589 -0.508626 -0.327682 1.442276 -0.569844 -0.157927
-0.454665 -0.517699 0.625512 0.746479 0.599679 0.681224 0.404947 0.140196
0.433910 0.026169 -1.090182 0.451935 -0.248137 -0.101076 -0.046327 -0.622914
-1.060025 -0.148532 1.099586 1.511433 -0.742033 0.413742 -0.505106 -1.054838
1.577718 -0.620533 1.049114 -0.542315 1.228718 -0.734004 0.525888 0.371900
-0.090707 0.197256 -0.329206 0.948462 -0.363139 -0.632490 -0.070180 0.458410
1.369254 0.125129 -1.486890 -2.229832 -0.113817 -1.288940 0.259786 -0.900941
0.374656 -0.795005 -0.290819 -0.495123 0.282102 1.957663 0.776115 0.542091
0.544144 0.659519 0.775187 -0.185492 -2.103610 -0.282182 -1.457105 0.379706
1.066151 -0.361754 -0.571536 1.104226 -0.860456 0.924861 0.692104 0.155591
2.063837 -0.198347 -1.119416 -0.791158 -0.000055 -0.327199 0.021924 1.700947
-0.129054 1.006012 -0.025400 -1.281314 0.627210 -1.055992 -2.189920 -0.078127
-0.223012 0.371992 -0.668699 1.423359 0.348879 -0.475337 -0.532407 -0.207030
-1.087432 -1.067087 0.637725 -2.582048 -0.224554 0.084164 1.307289 -0.029366
1.415792 -0.219849 0.461661 -1.531330 0.886984 2.290719 -1.362479 -0.135811
1.434984 -1.107335 -0.708827 0.630686 1.302582 2.109484 0.919619 -0.885668
-3.155148 -0.132561 -0.442740 -0.245843 -0.196022 -0.335483 0.331793 -0.431671
-1.896334 -2.374838 -0.078979 0.879088 0.187935 0.712831 0.655936 -0.388928
1.044325 0.090120 0.343678 -1.798649 0.765406 -0.163285 0.208439 -0.630806
0.185146 -0.695102 -0.876880 0.827609 -0.555401 0.727458 -0.146259 -0.650698
-0.499308 -0.165269 1.037704 -0.463373 -0.095853 -0.717204 -0.614461 -0.248336
-0.140335 -0.721494 -1.800886 -0.435451 1.683320 1.649890 0.192217 -0.349134
-0.773463 0.459860 -1.335442 1.278193 -1.362854 -0.175345 1.042622 0.160998
0.099928 -1.129741 -0.378883 -0.295640 0.505401 -0.150239 -0.502647 -0.539816
-0.658663 1.404501 0.588730 0.227330 0.162958 -0.518477 2.148829 -0.496912
0.014687 -0.558101 -0.449814 -0.673046 -0.257859 0.241524 -0.268820 -2.131420
-0.176865 -1.049918 -1.936098 0.663140 1.372357 0.054547 0.570725 0.387054
0.526735 1.271196 0.616484 -0.291631 0.377629 1.492572 0.085076 -1.633456
-0.270849 1.341897 0.213745 -0.594870 0.700190 0.061153 -0.508807 1.586345
0.370806 1.161532 0.367098 0.700572 0.818821 0.255098 0.752230 0.145138
1.277939 -0.008025 0.126341 0.449147 1.252327 -0.242862 0.493050 -0.951883
2.700071 1.846044 -2.089596 0.714159 -0.305468 1.322488 1.368173 1.063456
1.159930 -1.755424 -1.305496 -0.918783 0.331142 0.624986 -0.709313 -0.084291
-0.340551 -0.819790 -0.601826 0.434587 0.707915 0.966041 -0.585327 -0.275994
0.451400 -2.436051 0.640902 1.699215 1.615396 0.164772 0.692597 1.455867
0.307221 -0.269082 -0.506645 -0.054572 1.098547 -0.244203 0.116793 1.190326
1.435086 1.061262 0.233299 -0.395269 0.388567 -1.376821 -1.166706 0.054917
-1.226526 0.759239 -1.448310 0.546045 1.591202 -0.679959 0.626625 1.389881
1.031529 -1.207216 0.303662 0.486235 0.740968 0.177868 0.454273 -0.702144
0.452585 -0.888355 0.156252 -0.661206 -1.174672 0.104437 -0.188687 -1.030398
2.328021 1.448864 -0.423895 0.645253 1.595248 -1.231050 1.108015 0.419006
1.545091 -1.039171 1.037565 0.642509 -1.506028 0.485926 -1.536874 -0.970419
1.667318 0.817935 -1.187621 -0.478642 -0.362519 -0.589496 2.614518 0.289249
-1.914708 1.162144 1.220957 1.709231 -0.516124 -0.643708 0.302284 -0.869703
0.776899 -0.206065 -0.583554 0.573250 1.152154 0.358248 -1.257831 0.587171
0.913736 -0.998970 0.463893 -0.149426 0.317308 -1.116228 1.458866 -0.476410
-0.150183 0.327209 -0.401240 0.400390 0.630215 -0.255053 -0.147511 -1.131278
-1.287709 1.432157 -1.528094 -2.059428 0.602373 -0.167440 0.953284 -0.643278
-0.021709 -0.663505 -0.531883 -0.837657 0.310243 0.022318 0.699544 0.552181
-1.700750 -0.400753 1.038330 0.758931 -0.107924 -0.539436 -0.451003 -0.748976
-0.355525 0.881879 1.074630 1.418954 -1.679108 1.282356 0.102674 -1.088015
1.780320 1.106003 0.269504 1.059456 0.658251 0.276737 0.671766 -0.758728
-0.165590 1.168348 1.619180 -2.283966 1.133530 -0.898149 1.476233 -0.848994
-1.145219 1.107560 0.378722 1.548362 0.800021 -0.549017 0.141417 0.643567
1.924258 -1.150369 0.474373 0.471567 1.024750 -0.657250 -0.073862 -0.158418
-1.185578 -0.073713 1.348805 0.839160 2.472554 -0.173177 -0.202585 0.254849
0.309571 0.055661 -0.074404 0.781094 0.354748 -0.674818 0.060490 -0.681294
1.161911 -0.401939 -0.822440 0.881492 -0.144929 -0.176197 0.192981 -0.343318
-0.691865 -1.453892 1.750511 -0.669783 -0.767013 -0.830360 -0.943316 -0.169733
-0.779858 -0.634633 -0.315279 1.598272 0.578584 0.313871 -0.077194 1.945941
0.570474 2.010657 1.413816 1.176755 -1.688300 -0.598678 0.985550 0.225114
0.723684 1.029318 -0.401249 0.386085 0.445324 -0.337954 -1.239818 1.261363
-1.111644 0.343217 -1.848249 -1.274073 -0.959767 1.744081 -1.334886 0.888294
-2.134967 0.172546 1.256349 -0.591693 0.619014 -0.695367 1.396471 -0.670693
-0.520969 1.180678 1.495297 -1.285561 0.428391 -1.553432 1.248223 0.052411
0.107608 -1.252970 2.215545 -0.111049 1.013790 1.040566 -0.062466 -0.518682
0.940811 0.821044 -0.869620 -0.178277 -0.144278 0.791915 0.203212 -0.274928
-0.207226 0.731314 -1.083419 0.038633 0.219510 -0.796075 -0.847272 -1.098582
0.548217 -1.459149 -0.223601 0.281254 0.082755 1.010100 1.136254 0.243209
0.519192 0.070660 -0.285627 -0.306477 0.142029 -1.665464 -0.471002 -0.807466
0.780642 -1.120887 -0.784751 -1.801520 1.174382 -0.580009 1.222590 1.739275
0.809572 0.833817 -0.446540 -1.251486 -0.958482 2.727354 1.673003 0.279385
-0.672735 0.597050 1.515396 2.982506 -0.016873 0.126064 0.328435 0.165300
0.710747 0.388672 -1.323012 0.097269 0.726805 -1.648360 0.278147 0.484562
0.348352 -1.145916 1.087331 -0.203489 1.112613 1.082179 -1.351327 1.086452
0.290852 -0.039748 1.610285 -0.542051 0.320793 -0.059608 -0.683842 1.230994
-0.324881 1.020761 0.375806 -0.137250 -1.164434 0.786008 -1.159352 0.292758
1.333373 1.430481 -0.361093 0.165385 1.237229 -0.218216 1.248381 0.413491
-0.744498 0.517209 -0.005654 1.148237 0.936405 1.546280 -0.565295 0.151118
1.098838 -2.153957 0.084656 0.053002 0.886551 -0.016160 -0.377294 -0.463899
1.514663 0.913400 -0.606981 -1.329643 0.129027 -0.124080 0.013832 -0.899925
-1.165428 -0.288986 -0.137086 1.569666 -1.185985 -0.629294 0.579511 1.258071
1.530421 -0.466081 0.618527 0.028804 -0.421217 0.809865 0.243938 -0.159025
0.279832 0.369657 -1.512754 0.240446 1.783863 -0.566885 0.456226 0.159115
0.571593 -0.243394 -0.086761 0.910004 -0.666382 -0.985678 -0.593612 -0.405979
0.326651 1.306669 0.305962 1.252156 -0.383861 0.516221 0.201859 -0.918306
1.856092 -0.803169 -1.581334 -1.120118 -1.636578 -0.803896 -0.964605 0.264244
0.117773 1.206317 0.303756 -0.344783 1.353896 -0.302508 -0.639091 0.192964
0.365765 -0.790983 -0.920032 0.320588 1.363318 2.230929 1.614782 0.785308
0.499214 -0.818362 -0.789788 -0.128723 0.736773 -0.822510 -0.084309 -0.181692
-0.266540 0.682860 -1.982572 -1.120970 1.402051 -0.772596 0.432783 -2.194258
0.377448 0.724566 -0.176041 0.081789 -0.176803 -0.370802 0.943813 -0.279304
-0.209278 0.910763 -0.796941 0.438410 -1.164379 -0.770156 -0.651956 1.148980
1.084489 0.162842 0.060162 0.251974 1.353633 -1.130586 1.593192 -0.325083
-0.552865 -1.072022 -0.452935 -0.191828 2.161762 0.033178 0.489492 -0.090633
2.087703 -0.372162 -1.645232 0.748512 -0.250261 0.384622 -0.798079 -1.113706
-0.006681 -1.639708 0.318328 0.220525 0.248707 -0.803017 -1.748597 1.607626
-0.611651 -1.031211 -1.164237 -0.185576 0.652875 -1.002019 0.825085 1.802881
-0.453033 1.418951 0.359389 1.239127 -0.676113 1.211342 -0.498033 0.147246
-1.697467 0.790486 1.201230 -0.564724 -0.096496 -0.917863 -0.012496 -1.254419
-0.482596 -1.174399 -1.646263 0.650841 0.714958 1.268257 0.437147 -1.868948
0.259883 -0.129377 -0.728211 -2.463570 0.234293 1.622575 -1.136452 0.994016
-1.467309 0.725563 1.133843 0.178136 -2.288320 0.639588 -0.733354 -1.196951
1.402962 0.331621 -0.410000 0.271890 0.242100 -0.275163 0.417626 -0.473844
0.349797 -0.196522 -0.515058 0.351427 0.609103 0.056325 -1.032683 0.577258
-1.002849 -1.735675 0.537703 0.014643 0.630357 0.200634 -1.124279 0.049815
0.101854 0.743238 0.741745 1.088526 -1.500073 -0.006475 -0.963262 -0.439984
-0.711584 0.303380 -0.343890 -0.562445 0.427978 -0.679135 1.048930 1.196424
1.590400 -0.957485 1.066750 -2.052394 -1.726633 0.296780 0.834081 0.746913
-1.000878 0.513612 2.189245 0.613439 -0.979178 0.394989 1.017564 0.108943
0.658292 -1.715302 1.120236 1.689632 0.898107 1.046425 0.679747 -1.093098
0.388064 -0.979525 -0.477466 1.129758 1.497055 1.153993 -0.678192 0.586376
-1.434277 -1.408357 -0.433065 1.055734 0.618056 -0.692088 -0.245335 -0.512168
0.024859 0.319834 -0.420834 1.568306 -0.942393 0.713633 -0.087947 -1.281142
-0.167811 0.637933 -0.063477 -2.110254 0.517042 1.256522 2.093453 -0.094242
-1.007245 -0.042411 0.509442 1.165043 -0.528733 1.177914 0.938096 -0.345073
1.486270 1.100314 -0.271358 0.676085 0.607879 0.543412 1.376259 0.252014
1.025145 -0.056391 -0.657937 0.516158 -0.717559 0.009966 0.364792 1.036533
0.678383 0.133161 -0.813815 0.502881 1.710972 -0.428903 -0.380359 -0.668618
1.938305 -1.415393 0.691631 -0.786084 -0.268663 -1.309987 -0.500396 0.199543
-1.051804 1.575873 -0.617997 0.053568 -0.872031 -0.308654 -1.263148 0.532900
1.151250 0.640976 0.601025 0.770562 -1.344955 -0.149522 -0.627427 -1.220745
-0.956272 0.133505 1.447209 0.255692 -0.317724 0.133842 -0.124212 -1.824138
0.491329 -1.032366 0.010951 -0.111410 -1.007184 0.168829 -0.369449 0.426904
1.378672 -0.172038 -1.316643 0.385155 1.748408 0.351316 -0.681729 0.736549
0.413358 -1.101019 0.154844 -0.934931 1.462201 1.962423 0.715493 -0.509561
2.031451 -0.967639 -0.396902 -0.125818 -0.371897 2.768576 -0.073683 -0.234478
1.047660 -1.544291 0.866505 0.892020 0.197853 -1.582863 -0.257844 0.516100
-1.247276 1.984072 0.571106 0.815515 1.763685 0.617575 -0.055215 0.270250
1.299067 0.741208 2.355336 -0.590677 -0.445702 -0.707987 0.091791 1.628720
-2.327637 0.790983 -1.461197 0.609838 1.836566 1.072832 0.135720 -1.006711
0.065758 -0.011590 1.245867 -0.003969 0.447900 -0.205490 1.996537 -0.309407
0.992088 0.486391 -2.340474 0.222839 0.389188 1.409280 1.246228 -0.797015
-0.241783 -1.217960 0.427352 0.151226 0.062061 -0.902212 0.318539 2.011489
-0.503948 0.055664 1.731104 1.891011 0.315043 1.300909 -2.191030 -0.339859
-0.217971 -0.434213 0.696321 -0.791800 0.740040 -0.956227 -0.317593 1.152585
-1.684448 -0.842363 -1.009412 -0.270254 0.614619 -0.153920 -1.132227 0.375377
0.774546 -0.295843 0.359145 0.211063 -0.180756 0.855705 0.285776 -0.072569
0.950462 -1.744596 0.325709 1.532442 -0.482203 1.204164 -1.316102 -1.439119
-1.679919 -0.430420 0.353099 2.046895 -1.378264 -0.699479 -2.289635 -0.001687
-2.053663 0.547971 1.325901 -0.656902 0.033400 0.487235 0.019693 1.804117
-0.838792 -0.049086 -0.645826 0.674226 0.208077 -1.951200 -1.585661 -2.180308
-1.402333 -1.404799 1.183117 0.879820 -1.530842 -0.982304 0.226866 -1.130257
-1.010144 -0.860556 0.886858 -1.611331 0.758838 -0.830918 0.206152 1.772397
1.349720 -0.817657 1.338727 -2.189527 0.843263 -0.283430 0.612434 0.343725
-0.908778 0.182539 0.592670 -0.542620 0.648181 -0.150613 -1.441542 0.236092
0.815449 -1.578407 0.082816 -0.463584 1.663326 1.068321 -0.993969 -0.776002
0.795651 0.273034 -0.974952 0.461014 -0.159789 0.991316 -0.085513 0.402364
-0.495119 1.261555 0.418984 -0.575065 0.986772 0.822851 0.828973 0.540920
-0.933604 -0.118781 0.999510 1.738394 -0.635460 -1.451570 1.630119 0.664840
-1.603132 0.737313 -1.011384 0.297321 0.679008 -0.351103 1.432587 0.709233
-0.726259 -0.224686 0.206642 0.880304 -0.273315 -1.261298 1.920324 -1.011676
-1.463047 0.312174 1.193572 -2.368343 -0.239450 -2.994046 -0.565264 0.392363
0.685716 -0.166080 -0.379247 0.738315 0.380757 1.953118 0.170428 -1.129208
-0.708346 0.228084 -0.117675 0.431028 -0.348907 -0.002306 -0.728070 0.131019
-0.491477 -0.439670 0.449363 0.861369 1.920023 2.190879 -0.365105 -0.142459
0.686695 -0.973983 0.039208 0.383044 0.417426 -0.123684 -1.575672 0.757211
0.554005 -1.086347 -0.899370 1.153943 1.609362 1.231188 -0.718556 0.400301
-0.774261 0.552964 -0.954227 0.133206 0.610903 0.214678 -0.884967 1.334458
-1.216674 -1.163195 1.385592 0.189595 0.484356 0.421549 -0.691168 0.356021
-1.075875 0.686748 0.021486 0.387000 2.288627 -0.079014 -0.542903 -0.897409
0.719036 0.830085 0.304422 -0.135243 0.893993 -1.235483 -0.456721 -0.921562
-0.194809 -1.515325 0.532214 1.421675 -1.081961 2.504771 1.260633 0.355357
-0.145842 -0.294537 -1.522270 0.394605 1.523029 0.671525 -0.931273 -1.667047
1.530224 -0.354867 -0.421099 1.004719 -0.357094 0.309260 -0.549752 1.023639
-1.597620 1.781083 0.285042 0.672129 -2.120046 -1.152854 1.649578 -0.199733
1.645047 -0.127860 0.155413 1.072335 1.053480 -0.283382 -0.029486 0.184077
-1.023590 2.542441 0.622305 -0.088759 -0.192088 -0.577756 -0.030424 0.678854
0.315290 -2.191175 0.599604 -0.463859 1.404645 -0.853483 1.076092 0.550385
-1.277581 0.057703 -1.609895 0.380151 -0.837492 -1.847821 -0.888688 -1.733316
0.877549 1.269094 -0.414303 0.809156 1.005334 -0.599704 -1.860747 0.489020
-0.531384 -0.437057 -1.399284 -0.444416 0.056336 1.125706 0.792898 -0.041994
-1.345018 0.173742 -0.214130 -0.166335 0.491946 -0.645678 2.184206 -1.278723
1.561846 0.265058 -0.980513 -1.350342 -2.272855 1.559015 -0.036334 -1.371065
-1.067992 -0.705012 -2.067027 -0.727124 -0.402192 -0.014391 0.652352 -1.165260
0.950112 -0.605705 -1.014217 -0.367087 1.247653 0.629650 -1.630225 -0.350438
0.519752 -2.309938 1.201332 -0.288063 -0.630885 0.870304 0.523595 0.162847
-0.148137 -0.657371 1.872127 -1.069564 0.206554 0.328774 -1.173986 0.136300
1.768021 0.587900 0.978213 0.165999 -1.243153 0.881604 0.103597 -0.346580
-0.442581 0.255828 0.016842 1.266676 1.167939 1.020992 0.735156 -0.471821
0.019412 1.307921 0.998211 -1.688752 -0.171562 1.999344 -0.110711 -0.409487
-0.346463 1.066339 0.370895 -1.517466 -1.034578 -0.484509 0.526181 0.257589
0.363242 0.012980 1.514677 -0.588464 -0.951360 1.548733 -0.594627 0.886527
0.876611 -1.008213 1.681465 -0.063200 1.468956 0.713667 -0.951904 0.790637
0.821483 2.204825 0.379634 2.666484 -0.115733 -0.130746 -0.365935 -0.091229
0.380696 -2.522205 -0.488593 -0.184019 -0.660821 -0.211290 -0.415309 0.180050
-1.616121 1.617088 -0.777728 -0.703133 -0.321571 -0.129039 0.999647 -1.334641
-0.220581 -0.381149 0.644597 1.578226 -1.153786 -0.936059 -1.727113 -0.038387
0.183558 1.097660 -1.533028 -0.529703 1.248726 -0.447857 0.786515 0.147418
-1.182653 1.471467 0.456789 1.405233 2.323930 -0.643978 -0.885779 0.354346
1.097309 -0.275754 -0.643592 0.357855 0.856043 0.074107 0.299177 -0.350460
-0.050675 1.499452 -0.625520 1.063034 -0.313114 0.521772 -0.039191 0.426965
1.014578 1.241067 -0.018442 -0.191232 -1.041533 0.520106 1.175644 -0.904155
-0.555115 -0.831566 -0.291233 -0.124573 -0.265077 0.065144 -0.156011 -0.413498
-0.185220 -0.522021 0.612311 -1.542974 -0.124722 -0.057874 -0.627186 -0.312860
1.623966 0.799381 0.629663 -1.535587 -0.529243 -0.833758 -0.818942 0.338410
-2.918808 -1.806805 -0.106280 -0.982494 0.869030 0.571905 1.044263 0.060792
0.978038 0.868760 -0.149292 -0.501816 0.771368 0.538790 -0.546284 -0.723799
-1.165220 -0.746690 1.001582 -0.034486 0.362879 1.375302 -1.997556 -1.431897
-0.264280 -0.718119 -0.672562 0.841736 0.790386 0.001361 -0.754447 0.125075
1.689103 -2.119506 -1.166366 0.016259 -0.323900 1.371280 -1.358805 0.566975
-0.774094 -0.861309 0.560349 -1.668346 -0.234491 -0.839410 1.626905 -0.648354
0.926094 0.606456 -1.156156 1.621989 -0.251181 2.358814 -1.139818 0.221177
2.256159 -0.101052 0.200465 -0.969133 1.345229 -0.308380 0.043417 -0.155363
1.231817 0.334305 0.722596 1.420586 -0.448432 0.671159 0.278578 -0.704283
0.169212 -0.871305 0.688432 -0.701672 0.645640 -0.384017 -0.172682 0.003256
-0.642367 -0.246047 -0.594610 -0.487779 0.550498 -0.020739 0.063308 -0.842711
1.231992 -1.596848 -0.173835 0.585675 0.406992 0.910950 0.225563 -0.931118
-0.248818 2.871734 -0.348001 -0.779800 -0.356290 -0.780826 -0.569746 -0.216522
-2.113275 -1.791518 -0.542551 1.361852 1.599737 -0.104855 0.126625 0.863164
-0.136825 2.242748 0.120349 -0.454532 1.191871 -0.514467 1.434726 -1.582758
-0.833302 -1.372850 0.697308 0.570863 -0.181236 1.977813 1.264698 -1.212385
-0.076404 0.048404 1.725285 -0.911381 -1.050647 -1.481584 2.434701 -1.192599
-0.118440 0.677957 -0.463622 -1.016050 0.860952 2.488103 -0.161637 0.955505
1.351456 -0.820248 0.759898 0.936536 -0.202799 0.982472 0.098353 -0.696647
0.236451 -0.992763 0.437270 0.275854 -1.166074 0.539327 -1.905928 1.411250
-1.829256 0.383252 0.700676 -0.629897 0.240958 1.250445 -0.589708 -0.142276
-0.409511 0.503543 -1.855035 -0.076171 -0.480260 -0.227882 -0.194242 0.796375
1.149879 -0.198642 0.225284 1.891997 0.357785 0.534603 0.368384 1.138158
-0.855979 -0.350891 0.593022 -0.432050 -1.189078 -1.932683 -0.572469 0.437553
0.717517 0.383023 0.758341 -0.336822 0.479110 -0.155623 0.437838 0.784571
-0.873729 -0.979186 0.736832 -0.503491 -0.293112 -0.608025 1.189180 0.346557
0.335844 -1.363095 -1.875170 -0.867734 -1.733880 0.365063 -0.030723 0.185862
-0.514373 -0.133868 -0.361478 -1.231165 -2.822418 0.576008 1.178213 -0.409482
-0.692923 0.916831 1.762697 -0.317624 -0.780186 -0.036355 -0.961603 -0.156527
-0.290109 -0.770629 0.061087 0.590479 -0.017592 0.324916 -0.516536 -2.150704
1.519889 -1.040372 0.995944 0.056753 -0.350034 -1.144548 -0.725784 1.028983
-0.727417 0.490147 -0.106426 0.737413 0.275561 1.424160 -2.186355 0.347156
-0.315575 0.540749 -0.381724 -0.859390 0.616414 1.961837 1.514800 -0.306325
-1.787777 0.086936 1.051865 0.321899 1.877920 0.780478 -0.593944 0.258369
-0.577694 0.838009 0.184214 -0.615678 1.843240 -1.528402 0.776404 -1.607823
0.385853 0.564934 -0.347746 -1.679603 -1.089422 -0.544937 -0.196019 1.185520
-1.512709 -1.744733 0.739992 0.111280 0.898961 1.078674 -1.149890 -0.281020
-0.789190 -0.712551 -1.042014 -2.034988 1.007397 2.334269 0.635764 0.293765
-1.321331 -0.622683 -1.284108 1.883448 0.935835 0.654614 1.190815 -1.082770
1.034813 0.361193 1.196350 -0.221008 0.441034 -0.601442 -0.765370 1.051760
-0.007514 -0.181991 -1.587107 0.144236 -1.265911 -2.190090 -0.143389 -0.293239
0.286072 -0.444066 0.044052 1.392899 0.420252 0.088804 -1.112207 -1.177609
-1.248482 1.576275 -0.662194 0.200668 -0.046687 -1.138312 0.449865 -1.551484
1.348747 0.430035 0.369074 0.348183 -2.860362 0.650023 0.968917 0.489017
-0.723704 -0.010232 -1.629617 -1.165884 0.692890 1.094501 -0.873661 -1.314871
0.679940 -0.050496 -0.262141 0.690019 -0.773254 1.332628 -0.586325 -1.283339
-0.791541 -1.352676 -0.931473 0.564421 3.190669 -0.747064 -1.005013 -1.524934
0.733795 -0.360114 -0.727563 -0.824175 -0.178196 0.273516 0.281585 -0.609130
-0.088465 0.627894 -0.062856 1.334327 -0.580360 2.099518 0.291333 0.810082
1.653858 0.510817 -0.114917 -0.773672 0.839865 -2.074224 -0.769551 1.488035
-0.360349 0.849849 -0.626758 -0.583072 -0.560195 -0.373967 -0.661262 0.152799
2.406856 0.429739 -1.155951 0.616904 1.155231 -1.072570 0.371547 -0.345643
-1.382999 -0.062862 -1.614564 -0.172803 -0.792842 -0.176697 -2.007842 -0.042671
-1.410448 -0.091215 -0.188259 -0.527094 0.387322 0.389085 0.175631 1.328524
0.157887 -0.557619 -0.917915 0.555116 -0.498496 0.575852 0.785627 -0.149760
0.293526 1.482492 0.232615 1.480546 -0.167870 -1.302363 -0.336386 -0.766978
1.729088 0.602910 0.117176 1.335195 0.518711 0.031771 0.610359 1.256748
-0.858871 -1.706926 0.372446 1.173636 0.732917 -2.136708 0.804117 0.294227
1.065118 1.373411 0.769833 -1.655880 0.523371 0.237375 0.040987 0.670868
0.929376 0.118513 0.442901 1.123849 0.018311 0.270221 0.741826 -0.723901
-0.837532 0.777032 0.668400 0.751196 -0.697151 -0.002146 -0.570081 -1.219788
-1.779755 -0.468105 -1.658122 0.625025 -0.788511 -0.703351 0.552595 0.818441
-0.542395 -0.744524 0.722778 0.530366 0.799769 -1.857348 0.378902 0.435810
-0.453085 1.027446 -0.376791 -0.030135 1.043766 2.004015 0.994571 -0.133231
0.812785 0.789113 0.802195 1.479193 0.712765 0.282030 0.469614 -0.699780
-0.420663 -1.666129 -0.228375 -1.113991 0.227555 -0.006551 1.327441 1.239556
-0.669353 -1.513094 0.776272 -1.085611 0.628298 -2.754416 -0.179470 -0.136012
0.903745 -1.004155 2.355321 0.681504 0.431282 -0.989824 2.383546 -0.833713
-0.450291 0.224506 -0.343704 0.158474 1.451495 0.945214 -0.023842 0.165947
0.290569 1.669078 -0.625972 0.625426 1.398423 -1.237644 -0.031702 -0.345089
0.516812 0.536318 -2.104567 1.016759 -1.069331 -0.909220 1.457425 1.167883
-1.319444 1.136901 -0.443524 0.809937 0.229830 0.115809 0.104553 -0.185426
0.475129 -0.211082 2.184502 -0.163573 -0.484034 0.261464 -1.385177 0.389041
-1.072819 0.283189 -0.983658 0.507369 -0.775866 -0.402067 1.574104 -0.653297
1.115201 -0.597260 0.931373 1.717054 -1.879252 -0.775123 0.552999 1.943714
0.797442 -1.740257 0.122087 -0.219854 0.486405 -1.204217 1.439054 2.270219
0.162769 -0.650204 1.035257 0.316158 1.167434 0.893905 0.142795 0.406162
-1.758567 -1.338809 -0.134629 0.083947 -0.153535 0.953219 -0.068884 -0.065740
-0.114292 -1.296106 0.971752 0.770126 -0.996767 -1.135512 0.965151 -1.476053
-0.970715 -3.046411 -0.634515 -1.241369 1.625094 1.610338 0.088319 -0.633265
-0.003287 -0.176998 0.440612 -1.764219 -0.169512 -1.186507 1.122374 1.815334
0.590122 -0.218206 -0.915353 -0.098871 -0.743490 -0.626307 -1.840107 -0.179965
1.783849 -0.932019 0.556449 -1.207615 0.471959 0.202992 1.122307 -0.260730
-1.558497 1.125901 -0.071274 0.051412 0.645531 1.079918 -1.535393 0.952251
0.035373 0.129293 -1.760726 -0.442809 0.601776 0.770991 -0.326415 -0.450165
1.381667 -0.055766 0.269417 1.638918 1.431216 -0.150934 1.192132 0.650050
-0.000439 1.984227 0.093706 1.105449 -1.963522 -0.240645 0.319570 0.527223
-1.367300 0.659649 0.580755 -0.593943 -0.510130 0.095954 -0.398962 -0.073620
-1.111870 -0.262697 0.192774 0.476919 0.632246 0.569244 -0.638518 1.356426
-0.235341 0.031003 -0.267563 -0.930799 0.208529 -0.062298 -0.180410 -1.126008
-0.792571 0.464673 0.823079 0.543531 0.707755 0.997357 -0.677605 0.675503
-0.847007 -1.185216 1.160930 -0.427813 -0.899548 -2.575339 1.107265 -0.086810
1.310149 -0.018110 -0.286487 0.354806 -0.725616 -0.609834 -2.343868 1.888788
-1.143486 0.189565 0.740070 1.415135 0.716382 2.466981 0.055020 -0.284541
0.253586 -0.055465 -0.364534 -0.529863 1.110968 -0.016534 0.478562 1.562533
-0.029566 -1.178644 1.093141 -1.404791 0.280447 -1.452217 -0.063206 -1.314106
-1.782398 -0.186824 1.235659 -1.875430 -1.038635 -0.329892 -1.165403 -1.315653
-0.484433 -0.321796 -0.831422 0.027716 -0.810158 0.891581 -0.418685 -0.043997
-0.423854 -0.695414 0.131698 0.341213 0.584622 0.597652 -0.021652 -1.279587
1.119489 -1.108953 0.384552 -1.986593 0.376330 1.479954 -1.663895 1.022611
0.285485 -0.471235 -2.122180 -0.177592 -2.309468 1.529103 0.146718 -0.096406
-0.371083 0.839124 -1.174348 -0.144139 -0.056391 -0.230818 1.776026 -0.595383
-0.085360 -0.547410 -1.116340 0.125523 -0.910115 0.789415 -0.732198 0.878504
-1.101561 0.631397 0.703380 -1.089071 -0.662560 0.927767 -0.002094 -1.642429
1.942944 -0.817933 1.429459 2.061944 0.446931 -0.480815 -0.740465 0.192169
-1.525654 -0.241546 -0.034911 -0.026625 -1.019223 0.738322 0.361988 1.952498
-0.603513 -0.282189 1.057274 -2.336810 0.185089 0.072498 -0.783083 0.819214
-2.176531 -0.548557 -0.421295 -0.852883 -0.415081 -1.107705 -0.399118 0.922222
0.126169 0.143030 -0.868191 1.002313 -0.075495 0.151309 0.537346 0.097374
0.449986 -0.277171 -0.412870 0.708064 -1.638592 0.598531 0.716698 -0.304767
1.629474 -0.178647 1.219003 1.656145 -1.848713 -0.358140 -2.159664 -0.660102
-1.698944 -2.192363 0.531530 -2.003965 -1.078151 -0.914280 0.149157 1.302862
0.432226 0.017087 0.470920 0.798154 0.902360 1.544735 -0.175311 0.301334
1.258363 -0.122638 0.269550 1.400923 -0.848605 1.484289 1.013170 -0.329738
0.432267 1.682290 1.407108 1.327039 -0.922142 1.111527 1.329714 0.605572
0.230911 0.279995 0.397195 1.233094 -0.974928 -1.574683 -0.626406 0.203235
0.235974 0.476188 -0.903219 -0.451843 -1.126179 -1.684299 -0.876458 -0.591175
1.770972 1.160028 1.310646 1.042153 -0.549585 -0.537837 -1.240880 0.698388
-0.120381 -1.336379 -0.316607 -0.714927 0.655107 1.558736 -0.925220 -1.707635
-0.022256 0.019431 0.925206 0.736328 0.198616 -0.915189 -3.045379 0.345477
0.445945 -1.439219 1.322514 0.109661 -0.542978 0.103175 -0.798785 -1.127290
0.864979 0.677342 0.967300 -0.581526 -0.496129 -0.291189 -0.232013 -0.197849
0.490787 -0.926246 -0.515607 -1.609701 -0.931568 1.241579 -0.517020 -0.754297
-2.204772 -0.407706 -0.470798 0.528469 1.298158 0.855421 -0.389978 0.225968
1.233149 -0.319940 0.430942 -0.360032 -1.559861 0.790920 1.977594 -0.845860
1.358826 -0.882904 0.666120 -0.312727 -0.011292 -0.031142 -1.349903 0.532269
1.348631 0.699746 1.997055 -1.103457 -0.059941 0.828759 -1.407369 -0.746260
-2.141186 0.506929 0.502359 -0.922020 0.063336 1.361115 0.883966 2.219737
0.074516 -1.222690 -1.352276 -0.017103 0.691319 0.805350 -1.062054 0.163189
-1.000553 -0.094653 -0.609436 -0.072495 0.155481 1.971383 0.610795 -1.790103
-1.049403 -0.843972 0.823312 1.698563 -0.064425 0.440826 0.918533 -0.073114
-0.890807 1.285777 -0.166937 0.368530 0.479731 0.501926 2.687597 -1.175445
-2.110018 -0.015834 -0.802212 -1.695022 1.563274 -1.435957 -0.049161 -1.762867
-1.738500 -0.794021 0.830036 0.083315 -0.936876 1.706103 -0.007212 -2.097641
-1.075055 1.575274 -0.709661 0.171811 0.184645 0.034473 -0.498165 -0.939907
0.186467 -0.781329 0.090184 -0.042209 1.985250 -1.040217 -0.912309 0.269411
1.874840 0.447255 -2.084587 -0.190702 -0.578558 -1.106280 1.070558 0.288961
1.201190 1.079441 0.773632 -0.650229 -0.202308 -0.670861 -1.111444 0.535432
0.279182 0.710539 -0.119498 1.429403 -0.387628 1.109703 -0.654068 0.284696
-1.724471 -1.081989 -1.187443 -0.225167 0.112572 0.323199 0.336307 -1.690868
0.451949 -1.842792 0.449108 -1.107408 -0.161210 0.561427 0.341833 1.837348
-0.478816 0.569130 -1.221784 1.188592 -0.962986 -0.112323 0.581411 -1.458245
1.075990 0.636868 0.825369 -0.855912 -0.871740 0.589460 -0.385400 0.630080
2.098161 -1.042632 0.488535 -0.898846 1.736954 -0.226132 -1.989967 2.316147
-0.390852 2.672408 -0.300226 -0.550024 -1.016792 -0.166874 -0.282112 0.088971
-0.194318 -1.408185 0.557822 -0.628174 -2.195567 0.015538 -1.215653 0.583728
0.642615 -1.654429 -1.422848 0.711334 -1.744752 -0.515736 1.468120 2.918475
0.225274 0.426740 -0.407774 -1.150506 -0.197892 -0.605833 -0.546849 -0.195052
1.396812 -0.083746 0.107552 0.549546 0.819017 -1.178771 -1.184516 -0.401565
0.583027 -1.048334 1.502068 0.706891 -0.216821 -0.619018 -0.159538 0.374002
0.653501 -1.300577 1.096217 2.518306 0.029821 -1.383740 -0.864225 -0.864466
0.031343 -0.077111 -0.927733 -0.188054 0.837247 0.659258 -1.060060 -1.462506
0.179342 0.700313 -0.756297 -0.323130 -0.108267 -0.500890 1.168237 0.315732
-0.018435 1.167864 -0.800855 1.437534 1.248944 1.098613 -0.131817 -0.620183
-1.813642 -0.289504 -1.478689 2.069162 0.713243 -0.191096 0.176256 0.632243
0.318754 -0.207149 1.296143 -1.152984 1.141660 2.211597 -0.326861 -0.969282
1.115865 -1.694619 -1.769283 -0.441976 -1.422478 0.454402 -0.002389 -0.360717
-0.833863 -2.001262 0.459462 2.176040 0.240926 -0.679058 -1.347241 2.159462
0.733264 0.345684 -0.544724 -0.008641 0.856060 -0.836446 -0.012809 0.283436
0.189261 0.276047 0.869472 -0.843242 0.829056 -0.501584 -2.761327 -0.981054
-0.261193 0.777457 -0.402287 0.912512 0.081500 1.174111 -1.168571 -0.695215
1.056436 1.254632 0.029231 -1.070724 0.911880 -1.614592 2.780168 0.288532
-0.633215 -0.545115 -0.984167 0.334524 1.664058 1.951882 0.331362 -0.766538
0.309858 1.429191 0.179306 -0.025746 0.556111 0.651101 -0.411756 2.209002
-1.799151 -0.540653 -0.077507 1.515611 -0.434755 -0.447932 -0.362301 0.048560
0.274205 -0.163446 0.393529 -1.117567 -0.899752 -0.161365 -2.524878 0.837604
-1.048353 0.074024 1.021933 -1.882489 -0.586593 -0.424129 0.315647 -0.514346
-0.092918 0.455456 -0.416172 -0.496776 -0.514163 -0.846375 0.853876 0.334650
0.444462 0.050371 -0.191899 -0.652633 1.199522 -0.056784 -0.559603 -0.790813
-0.250221 -0.218460 -1.217730 0.527384 2.160393 -1.901449 -0.215175 0.414667
-0.018468 -0.483338 0.955786 -0.898130 -0.155727 0.740216 -0.527289 0.003834
-0.184284 -0.405422 0.373874 -1.060759 -1.690250 -0.880094 0.929687 -1.346907
1.172470 0.241513 -2.037133 -0.891539 0.322201 0.173027 1.254235 0.506046
-0.788518 -1.453990 -0.091499 -0.538729 -1.162945 -2.393106 -1.117284 -0.039315
0.947735 0.283723 0.774239 1.331719 -0.146597 0.210801 1.025012 0.029935
-0.705322 0.013604 1.131734 -0.128698 -1.372600 -1.082304 -0.774447 -0.593702
0.047955 1.346203 0.774819 1.316389 -1.214503 -0.166180 -2.368677 -0.867940
0.191380 -1.464754 -0.606774 -0.336630 -0.735655 1.436485 -0.453915 1.098804
-0.018481 -1.640091 0.724116 0.392790 -1.259433 -0.163358 0.488936 -0.463958
0.144697 -1.856128 1.064198 0.738830 -2.017672 -1.282318 -1.066131 -0.065568
0.777093 0.189821 0.388951 0.606127 0.617360 1.339451 -0.121673 0.080995
0.157122 -1.279319 1.178817 0.482746 0.066241 -0.473210 -0.201952 0.348483
-0.796514 0.775330 -0.019522 -1.874623 0.662359 0.595494 -0.761246 0.510889
0.959273 0.444476 0.893799 2.104064 0.142234 -0.674337 -0.554452 -0.427932
-1.877823 -1.253775 -0.877575 -0.120248 0.503190 -0.084904 -0.778688 0.293779
-1.073479 0.084047 -0.134295 -0.821618 1.653851 0.406923 -0.912171 -1.557363
-1.085525 2.859785 0.020024 0.080013 -0.150438 0.510932 0.143386 1.050900
-1.941505 -1.919919 1.004004 0.104814 2.548445 0.121485 0.324686 1.999251
-2.750596 -0.710256 -0.332832 0.831926 -1.896841 -1.065225 0.869494 -0.556597
1.502635 0.392639 0.605973 -0.101247 0.596299 1.267611 -1.595012 -0.346025
-0.566993 -0.348480 -2.182719 -0.416249 1.057834 -1.102574 -0.383080 0.071078
-0.533635 0.915454 0.610012 0.180980 -0.291355 -0.478217 -1.025340 -0.662173
0.653557 0.584248 0.568781 -0.285673 0.443282 0.982807 -0.229337 -0.528900
0.216665 0.266554 -0.486144 1.557262 -0.000876 -2.341656 1.599055 -0.664104
-0.501244 1.492974 -1.401735 -0.400382 -0.410807 0.399373 0.238894 1.214742
-0.552260 0.254831 1.057037 0.262130 -0.069949 -0.411174 0.847142 -1.243972
0.445069 -2.862329 -0.103702 0.751209 0.066770 -0.054404 0.153549 0.716064
0.064794 -0.718425 -0.167231 -2.287077 0.504371 0.013339 -0.242042 -1.053221
1.222781 -0.573466 -0.588972 -1.096681 -1.587885 -0.422985 0.148372 -0.887652
-0.700182 -0.337677 -0.121791 0.420398 0.047552 0.600450 1.525041 -1.081390
-0.401561 -0.715688 -0.015817 -1.521331 -2.103188 -0.793199 -0.513513 1.965157
-0.321657 1.427447 0.127601 0.041155 -0.402502 -0.624019 -2.040239 0.772874
1.400643 0.401086 -0.540134 0.484674 -0.762085 -1.332436 0.369291 -0.439720
-1.865420 -0.998989 0.756216 -1.700365 -0.649915 -0.323485 -0.399961 0.734258
-0.542282 -0.329899 -0.905103 -0.710408 -0.088102 -0.128693 1.749960 0.047605
1.130890 -0.267915 -0.122703 -0.625646 1.603980 0.001140 1.734276 0.496583
-2.094558 0.444139 -0.574476 -0.701610 -0.705703 0.858992 -0.828968 1.400694
0.374598 2.252860 -1.029571 1.782794 0.441014 -1.999452 -0.977867 -0.900201
-0.351282 0.945021 1.124159 0.128792 -0.583731 -0.482225 0.134472 -1.985211
0.193235 -0.934450 -0.008680 0.033233 0.602358 0.191146 -0.941899 -1.562927
0.850966 0.376198 0.673612 -1.015644 0.732457 0.650779 -1.674208 -0.744492
0.623381 -0.690239 0.344258 0.967060 0.879514 -0.592355 -0.599254 -0.393359
-1.298244 0.821702 -3.005825 0.678241 -2.131041 1.003118 2.497005 0.555330
-1.324165 0.953414 -0.475805 1.274940 0.243641 -0.944298 0.808460 -0.810505
1.472987 -0.449080 -0.916183 -2.092253 -1.937322 0.924567 0.393553 1.184385
-0.925359 -1.505755 -0.649823 0.437907 -1.576943 0.147854 -1.361411 0.528617
0.181440 0.415330 1.389491 2.373465 1.027670 -2.566036 -0.278760 -0.142357
0.453221 -1.008795 1.835311 -0.087128 -1.700574 -2.159578 0.225642 0.454732
-0.167540 0.550325 -0.375153 1.368478 0.756580 0.544497 -0.133998 0.239938
-0.678247 -1.217771 0.342335 -0.206364 1.389650 -1.181641 0.807451 1.475541
-0.714223 0.877101 -0.405803 1.280697 1.059450 -0.448693 -1.420571 -0.189174
0.851644 0.500458 -1.058714 -0.025486 0.080912 -0.784264 0.127246 0.122180
-0.502179 1.430765 0.212763 -0.787210 -0.865287 -0.367404 0.818744 1.556224
0.017054 -0.114648 -0.137278 -0.629217 -0.874185 -0.994830 0.804286 -1.358193
-0.221704 -0.132856 -0.437037 0.407769 1.010617 1.887779 0.175413 1.989510
0.570935 -0.163070 -0.202713 -1.694067 1.045622 2.119962 1.505404 -0.487664
0.469496 0.308392 -0.465531 -1.537368 0.710520 -0.192099 -0.994292 -1.418462
0.071392 1.429426 1.333986 -0.911365 -0.897885 -1.334588 -0.214094 0.591330
0.726998 -0.988061 1.250448 -1.309371 0.122605 0.304320 -0.413226 0.477411
0.447255 -0.876225 0.128788 -1.191874 0.761729 1.323976 0.569475 -1.358257
-1.708589 1.791569 0.050253 0.892699 -1.049741 0.191530 -0.656096 0.167593
0.191144 0.473517 -1.445516 0.186666 -0.443514 -0.121514 -0.463722 0.089536
-0.786540 -1.297541 -1.056252 -0.194466 0.096192 -0.077854 -1.772113 0.113130
-1.423803 0.204218 -0.270253 -1.270692 -0.198368 -1.806408 -0.235200 1.401465
1.554461 0.893199 0.301641 0.468115 -1.047793 -1.363959 1.157419 1.383373
0.121642 2.804317 -1.331962 -1.093918 0.897691 0.639419 -1.280483 -0.338265
0.024693 1.348732 0.256274 0.354509 1.821180 -1.296449 0.407244 -0.569315
0.996785 0.779110 -0.223235 0.020502 -0.133380 0.856449 -1.436666 1.318127
-0.199623 -0.245070 0.665230 -1.006134 0.864086 -0.138483 2.052406 1.516700
0.766968 -1.120997 0.058467 1.180178 0.482293 0.139170 1.185876 -1.066816
-0.067808 0.189835 -0.241079 0.060046 1.040435 -0.185172 -1.777576 -0.411304
0.407505 0.215551 -1.323558 -0.339969 2.258165 0.658576 0.471807 1.519731
0.233270 -1.010941 -0.084634 -0.008238 0.757711 0.515185 0.441967 -0.206237
-2.032434 -0.070561 0.807073 -1.289743 -0.776935 -0.421712 0.370472 1.078620
1.652134 -0.938485 -0.973449 0.467419 -0.044962 0.373779 0.164154 -0.981426
-0.027605 0.251792 2.816114 0.352496 -0.239549 1.754036 0.440077 -1.426672
0.446233 0.865908 0.970194 -0.707756 1.345723 -0.626315 -0.165610 -0.212447
-2.135852 0.699178 -1.216015 -0.785901 -0.492196 0.353536 0.042836 1.355127
0.364276 -0.694610 -1.099789 0.866644 0.363663 -0.495728 0.447276 -0.262821
-0.686651 0.768287 1.757815 -0.304419 1.450172 0.723500 0.271473 0.768073
1.123610 1.052731 -1.814359 -0.200418 -1.121220 -1.989026 2.087070 -1.400533
0.894914 -0.100838 -1.036618 -0.624354 0.563938 0.110615 -0.039393 -0.764439
-0.666839 0.290461 0.693406 0.322250 -0.520773 -0.888939 0.253725 -0.091768
-0.499022 0.838388 0.303494 0.313657 0.473985 0.380456 -0.940317 0.170680
0.419981 0.708046 0.639285 0.655615 -0.893485 0.429996 0.170210 -1.477832
-0.258440 -0.751514 1.057682 2.128433 -0.913031 0.538804 -1.950884 0.879720
0.076571 -1.086861 1.058053 -1.166263 -1.138501 -0.711866 -2.505667 0.534796
1.340677 1.195125 1.674860 0.764214 0.882898 1.143630 0.279588 0.775875
-0.780249 -0.074640 1.255237 1.299269 0.747928 0.987884 -1.914717 -1.235214
-0.859095 -0.710356 -0.071170 0.164791 -1.383578 -1.391983 0.660429 0.763357
-0.991882 -0.755181 0.333965 -0.279814 0.021450 -0.126171 1.424994 -0.738023
0.018544 0.363809 -0.560084 -0.021182 0.074018 0.051759 -0.511688 0.473666
2.436050 1.402052 -0.434013 -0.850442 -0.011034 0.937370 -1.661032 -0.645826
1.861618 -0.344373 -0.503037 0.624595 -0.922669 -2.039209 -0.879147 0.447305
-0.156988 -0.935682 -0.976808 -0.253576 1.138403 0.358820 -0.708204 -0.376584
1.520283 0.775200 0.760480 1.107478 0.432147 -1.020780 1.483095 -0.181675
-0.528706 0.561061 1.845685 0.562317 -0.555911 -0.506432 2.614630 0.207339
1.962315 1.764783 0.806598 -1.094901 -0.428000 1.277068 0.704013 0.128512
-0.595678 -2.059400 -0.831554 -0.748765 0.481874 -1.252917 1.212707 0.248069
-0.962426 -0.184717 -0.204370 -0.196280 -1.147357 0.917991 0.115685 -0.017301
0.736654 -1.436976 1.381051 1.272147 0.748378 -0.579203 -0.645681 0.358027
0.707910 -0.326920 0.221081 -0.001927 -1.396279 -1.241497 0.893311 -1.186157
-0.955956 0.032321 -1.451143 -0.851285 -0.559992 0.165779 0.856511 0.001450
-0.283418 0.115087 -0.799056 0.894845 0.529953 -0.714182 0.850419 -0.446391
0.246376 1.073511 -0.187048 -2.126525 -0.002627 0.125098 1.348576 -0.098810
1.094968 1.202536 1.456725 -0.627702 -2.427162 0.189718 0.516963 -0.785741
1.078533 -0.669078 -1.272010 -0.368182 -0.021150 0.479924 1.452119 0.021434
-0.751923 -1.756112 1.020210 0.878361 1.483661 0.643411 -1.022140 0.889848
0.615784 -1.890924 0.782494 -0.424002 -0.959320 -0.454857 -1.181867 -1.604796
-1.717371 -1.140299 -1.207335 0.342475 0.275136 1.196388 0.634376 1.742225
0.950234 -0.208594 0.267094 0.089756 -1.398065 0.117675 0.015876 0.774180
1.178222 -0.738632 -0.436408 1.136964 0.526915 -0.592356 -0.363629 0.199826
-0.600594 0.717269 0.167322 -0.709415 0.555102 -0.700123 1.888263 1.034602
0.507169 -0.566470 0.255696 2.621592 0.046829 1.898239 0.210284 -0.197146
-0.038226 -2.218270 -0.408862 0.700155 -0.359387 -1.067975 0.116498 0.043069
0.855450 0.236120 0.998145 0.580411 -0.742956 -1.001411 0.014576 0.087332
1.559174 -1.109179 0.915774 -1.436416 -0.633555 -0.620427 -1.612220 1.907024
1.117330 0.300483 -0.507056 0.849838 -0.122772 -1.113109 -1.113937 -0.698184
0.224474 0.881085 -1.001518 1.857239 0.956734 -1.219132 -1.243814 -0.547251
-0.009838 -1.700601 -0.174917 -0.351074 -1.119845 -0.772730 0.911559 -0.689187
-0.562288 0.187022 1.253762 -0.434821 -0.805170 0.453427 -0.315183 1.052749
0.108106 -0.280760 0.971194 2.150966 -0.253159 -0.127422 0.123895 -1.049900
0.170529 -0.783679 0.810118 1.623970 0.217161 -0.794340 0.654584 1.399507
-0.380055 -0.818135 1.025927 1.931897 0.584241 0.165060 -1.641460 -0.718144
0.796601 0.047911 0.102024 -0.310374 0.776461 0.127738 1.604026 -0.171002
-1.987014 -1.607643 -1.183607 -1.947986 -0.433946 0.522937 0.198295 0.266372
1.481649 0.429826 1.487928 -0.176440 0.700403 0.775573 1.285010 -0.321400
0.013064 -0.851684 -2.103846 1.164374 1.393954 1.582965 0.663437 1.069074
0.086892 0.401878 0.896093 0.051450 0.137548 0.392052 -1.128241 1.740392
-0.156090 0.056931 -0.315338 -1.969016 1.418447 -0.664666 0.376115 -0.356750
1.364496 -0.766599 0.399049 1.223774 0.500394 -0.197067 -1.324800 -0.967636
1.088647 -1.431574 0.603579 1.156222 0.311699 0.806330 1.137200 -1.479287
-0.837513 0.678884 1.784511 -0.200584 0.038533 -0.028842 0.522073 1.064274
0.801298 -1.390150 0.022425 0.030961 0.369175 1.094541 -0.632992 1.366117
-1.465636 -0.346620 -2.280411 1.226745 0.087974 1.332003 0.837209 1.895218
0.084672 -0.743117 -1.004465 -1.401807 0.910819 0.646708 0.302688 0.158080
-0.146852 -1.495872 0.093852 1.334834 0.431574 -0.100008 -0.157144 0.221537
-0.836715 0.314269 0.408987 0.223873 0.547013 0.128424 0.171008 0.266700
-0.912733 0.294090 -0.216176 -0.892188 0.034362 0.296739 -0.560835 -0.272951
0.838335 -1.066532 -0.227463 -0.157156 -0.679353 -0.056103 0.327789 0.235811
-0.889423 -0.236787 1.616554 -1.385669 0.516271 -0.134948 0.522454 -1.649328
-0.148640 -0.384056 0.775676 2.755494 -1.057768 -0.556341 0.408780 0.452683
0.760463 -1.419335 0.893200 -1.108989 -2.105129 0.188587 -1.578212 0.108373
0.151575 0.497900 0.684344 -0.988858 0.430032 1.990362 0.572904 1.257535
-1.203275 1.410698 0.466339 0.368746 -1.366193 1.187374 0.571085 -1.396261
0.621449 0.028997 -0.591549 -1.888621 -0.611865 1.687146 -1.116227 -0.674954
0.390616 -0.586934 -0.918473 -2.210554 1.620360 0.057530 -0.508987 0.381449
0.977797 0.534268 -0.544628 0.619816 0.049575 -0.003480 0.413584 -1.464616
0.019272 1.169492 -0.558493 0.078670 0.930980 -1.551358 0.549710 -2.143297
0.721230 -0.785073 0.321857 0.999716 0.207783 1.066322 0.518254 0.560046
-0.183866 -0.013836 -1.196519 0.833625 -2.336594 -0.644885 -1.271682 -0.439429
0.132800 0.200265 -0.814052 -0.377957 0.270055 0.906264 -1.209362 -0.053564
-0.796196 -0.435790 -1.190058 1.503955 0.611625 -0.378177 -0.402209 1.103943
0.178764 -0.105563 -2.301840 -0.151666 -0.020636 -0.318835 0.816152 -1.091365
0.555583 -0.684590 1.203770 0.698841 0.278359 0.451965 -0.141041 -0.255404
-0.117644 0.002365 1.685719 0.733382 -0.260875 -0.148046 0.666531 -0.398675
1.431159 -0.148000 -0.848293 1.072862 -1.076108 1.191650 -0.552710 -0.182159
-0.307161 0.331937 0.018074 -0.674202 1.382050 -1.375746 -0.341034 0.587455
-0.157767 0.228664 -1.391660 1.617820 0.461637 -0.476990 -0.978031 0.514393
-0.336755 -0.764760 -0.797364 -1.848533 0.719479 -0.956212 -0.135139 0.527466
-0.572000 0.703051 -0.356300 -1.162242 -1.067676 0.064366 -0.481341 0.118744
0.369162 0.061428 0.461615 0.235137 -0.332228 -0.680389 -0.213437 -0.053843
-1.727170 -0.454668 -0.749175 0.143317 1.655227 -0.282130 -0.099133 0.559928
2.723910 -0.571173 -1.135545 -1.461336 0.084216 0.451910 0.612360 -1.929404
0.947109 -0.164983 1.505849 1.260151 0.274657 0.318409 0.319763 0.588886
-0.991048 -1.299903 1.313285 0.237407 -0.344079 -1.092335 -0.175361 1.962119
0.448256 0.216071 0.237901 -0.803615 -1.627593 -1.254853 -0.481491 0.831923
0.691353 -1.050912 0.712709 -1.441556 -0.003668 -0.657140 -0.123716 0.745608
-3.206735 1.549792 0.418891 0.051759 0.973645 0.215339 -1.232742 -1.637551
-1.198595 1.366899 -0.750412 -0.758917 1.753233 0.356170 -0.882369 -0.046426
-0.294822 -0.843899 -1.151116 0.150080 0.306074 0.435827 0.694822 0.822659
-1.278211 -0.075081 1.785320 -0.837666 -0.370795 -1.923568 1.307168 -0.940014
-0.126759 -0.110867 1.813798 0.230692 -1.662590 0.134608 1.635475 -0.555668
-0.998560 1.788740 -0.030861 1.025742 -1.038804 -0.900376 -1.491249 0.983442
0.112754 0.141519 0.388967 0.551592 -0.276499 0.824546 -1.843752 -0.712992
-1.099586 0.303667 0.266205 -0.362757 0.478494 -0.143431 -0.226957 -0.553963
0.633493 0.481214 -0.623412 -0.770033 -0.533744 -1.386410 0.183186 0.250480
-1.453353 -0.344465 -0.730896 -0.115847 0.454391 0.822437 -0.956294 -1.273773
-0.191254 -0.138156 1.214179 0.010550 -1.533731 -0.385018 1.141948 -1.020099
-0.482600 -0.294705 -0.995342 -0.643751 -0.362432 -0.948072 -0.447596 2.154458
1.488191 -1.488693 -0.918838 -1.039771 -0.102182 0.517615 0.422094 -0.368355
0.242876 1.347014 0.293379 -1.444273 1.375619 -0.580659 -0.913810 -0.116640
-1.297586 1.596111 -1.460687 -2.538958 0.039796 0.853734 0.800408 0.460243
1.363357 -0.750284 0.138994 -0.278233 -1.577770 -0.417754 -0.644708 -1.870235
0.361967 0.131776 2.374873 0.962118 0.276307 -0.783085 0.284519 -0.955273
-1.847935 -1.063894 1.695475 -0.408010 0.947721 -0.084107 0.345990 -0.212105
-1.399791 0.769567 0.497249 0.869104 -0.235791 0.468119 0.449802 -1.017831
-0.541505 1.050702 -0.232445 0.386197 0.716979 1.697749 0.115562 0.591714
-0.607374 -0.477452 0.154619 0.242211 -0.904997 0.792093 0.563999 0.567571
-0.863133 1.160857 -1.915264 1.185101 -0.415005 2.029378 1.821791 0.539168
-1.325678 1.241502 1.719180 -0.239866 -0.341219 0.150286 -0.220753 -1.217562
1.663282 1.296077 1.257454 1.133550 -0.604407 -0.001243 0.212549 0.042341
0.847249 1.148373 1.059234 2.312479 -1.376316 -0.221568 0.695443 1.379072
0.630484 -0.728839 0.093120 1.099066 0.326090 0.039772 0.888949 -0.021390
0.958809 -0.752255 -0.814059 -0.296860 2.597416 0.157803 0.763315 0.731118
-0.195437 -0.709905 -0.168447 1.716615 0.956783 0.610041 0.362501 2.058951
-1.081265 1.510909 0.862226 -0.213970 -0.628227 -0.677047 1.237033 0.095887
-0.512042 -1.502851 1.821170 -0.153950 0.010435 0.163457 -1.259610 -0.471692
0.495188 -0.240003 1.951593 0.877713 0.191315 -0.372570 0.686520 1.734761
-1.088463 -0.082650 0.707201 1.070576 0.021936 -0.391598 -0.248965 -0.083563
0.399404 1.435970 -0.311934 0.140437 1.560443 1.004423 -1.364864 0.426041
0.475317 1.037148 0.245160 2.218383 1.166891 -0.045123 0.071869 -0.525322
0.428100 -0.340633 -0.872689 1.833916 1.326732 -2.105371 0.411113 -0.812239
0.453900 -0.517274 0.302742 -0.236445 -0.900174 -0.079840 0.632737 -0.259770
0.072980 -0.381503 0.743624 0.302735 -1.330217 0.434767 -0.510895 0.005087
-2.041665 1.502707 0.255387 -0.899678 -0.842827 -1.428016 0.379099 -0.738695
-1.521843 -0.938346 1.796259 0.624561 -0.319541 0.555203 1.624885 -1.253817
1.045384 -0.681631 -0.912734 -0.733712 -0.813082 -1.248923 -0.078588 0.591298
-0.927590 -0.067670 0.368415 1.025849 0.576634 0.575193 0.204064 0.798459
-0.003471 -3.046242 0.544160 -0.149198 0.138375 -0.608070 -0.307304 0.994731
-1.077589 0.665307 -1.942321 -1.158518 1.616504 -1.047650 -0.736273 -0.946170
-0.218238 -0.164732 -0.718988 0.829380 -0.134960 -0.707206 0.181216 0.288638
-0.480219 -0.281530 -0.349778 -1.025687 0.322968 -0.384154 -0.394284 -0.261443
1.255661 0.279764 0.596395 0.662169 0.310529 -0.169973 -0.799370 0.295278
0.508542 -0.018784 -1.090694 1.720127 1.243006 0.273034 0.182827 -0.857558
-0.140020 -0.106999 -1.078968 0.663664 -0.634354 0.210877 -0.421765 1.111746
-0.036347 0.581092 0.309332 1.244255 -0.370734 0.817633 -0.378626 -0.156146
0.274030 0.049260 0.520865 -0.461554 0.610538 0.288421 -1.228370 -0.187573
-1.553112 -1.528738 -0.189132 0.977191 0.180229 -0.725288 1.119909 0.682582
0.543649 -1.574529 -0.160432 -0.646408 -0.510595 0.870881 -1.535491 -1.489004
-0.508232 -1.926059 -0.412050 -0.938988 1.180401 0.594555 -0.306089 -0.563452
0.088829 0.942922 1.094349 0.897816 -1.040743 1.900999 2.891888 -0.741061
1.818624 0.746088 0.059992 0.518243 1.890063 -1.526553 0.753522 0.904033
-1.265902 0.909894 0.304438 0.969975 -0.314592 0.605932 -0.743176 1.632169
-0.639803 -1.297752 -1.037671 0.303612 1.050784 0.319371 -1.313147 0.419714
-0.656952 -0.385314 0.172772 -0.713572 0.003528 0.222668 1.479906 -0.416153
-1.351653 -0.002197 1.698071 -0.011243 -0.389819 0.733452 -0.507078 -0.559712
-0.748209 1.028657 2.016225 0.417722 -0.275213 1.634095 -0.574897 -1.602184
1.547380 0.127680 -0.274421 -0.279997 -0.735232 0.832105 -0.492239 1.497313
2.145015 -1.370653 -0.848494 -0.172247 -0.946833 -1.357447 -0.127011 -0.010490
1.696889 0.300139 0.633577 0.074388 0.150641 1.635804 0.497503 -1.315163
-0.514202 0.018376 1.665283 -2.935294 0.164240 -0.968418 -0.963130 0.509025
1.309732 -0.720551 -0.335284 1.173188 1.816507 -1.171642 0.355909 -1.985146
-0.386723 1.353754 -1.342166 -0.084975 -0.256751 -0.163789 0.905338 -1.159447
0.783810 -1.208041 1.312017 -1.600258 -1.192245 0.921545 -1.699124 0.175229
-0.840406 -0.669221 -0.682245 -1.378433 -0.106537 2.231051 0.390170 -1.504033
-1.333692 -0.110134 -1.274539 -1.589110 0.902941 1.475353 0.448466 0.034713
-0.589465 -0.319723 -0.878470 -0.199267 -0.079056 -0.619026 -0.323006 -1.151024
1.047535 1.062533 -0.357984 -0.124575 -0.172698 0.017625 -0.385498 -1.035558
0.668385 -1.391463 1.521376 0.303757 1.456184 -1.061390 0.322357 -0.630644
-2.316234 -0.236375 -0.237977 -1.285473 -0.753367 0.376309 -0.630873 -0.174159
-1.253571 -1.239184 -0.226600 2.420389 0.973388 -0.965131 -0.434629 0.586145
0.313841 -0.730262 -0.716406 -0.243982 -1.261646 0.033784 0.353034 -0.330675
-0.594244 0.774759 0.525105 -1.107582 -1.227859 0.790594 -0.481244 -0.211445
-0.954197 1.037267 0.981704 -1.896450 -1.052693 1.417190 -1.393536 -1.052988
1.794905 -0.179193 0.544035 -0.859554 -0.718785 -1.180628 0.552297 -1.480759
0.002014 0.746073 -0.445010 -0.748668 -0.837141 0.321050 -0.173149 1.367617
1.458137 -0.112256 -1.150970 0.788646 -0.368482 -0.554728 -0.140179 0.031717
-0.153064 1.089433 0.374713 0.327988 0.552680 1.764854 -0.395141 -0.698747
-2.575068 0.400430 0.616107 1.521057 0.368839 -0.368349 -1.060673 -0.997151
-0.025310 0.940190 -2.451691 0.048063 -0.436283 -0.077487 -0.064600 2.238501
0.572719 -0.968031 1.875792 -0.867393 1.090309 1.004900 -0.979518 -0.770828
-1.225746 0.805678 0.073365 2.040750 1.290748 0.645893 -0.596826 -0.179315
0.575471 0.568647 -0.431979 1.286783 -0.399435 -1.765438 0.030739 1.743103
0.101804 0.276677 -1.470179 -0.477086 -1.964547 0.213738 0.683087 -0.067262
-0.506880 -2.361933 -0.005700 0.341174 0.882929 0.551929 -0.299654 -0.299764
0.185245 0.501520 0.616208 0.059658 1.018087 -1.170953 -0.386360 0.818805
1.682636 -0.166445 0.480350 0.458458 -0.497241 0.884827 0.233953 0.010495
0.130886 -0.275905 -0.173105 -1.797479 -0.668880 -1.540821 0.043621 -1.284802
1.348263 1.136817 -0.835161 -1.800587 0.882358 -0.053698 -0.031075 -1.382462
0.832089 0.994203 1.031282 -0.828131 -1.917704 -0.920510 -1.344440 1.076666
0.600684 -0.244174 0.948301 -0.719652 0.066291 1.291901 1.381231 -1.202446
0.650144 0.247817 0.619676 0.390275 -0.736182 -1.114952 1.150524 1.016196
0.391045 1.165415 -2.024734 0.109259 -0.616098 1.126897 0.207345 -0.198812
0.782453 -1.391581 -1.418904 0.589104 0.534867 -0.024638 -0.115452 -0.369190
0.826299 -0.153197 -1.012491 -0.161064 1.897243 -0.638333 -1.126291 -0.503778
0.657517 -0.182948 2.063920 -0.732181 -0.364720 0.977005 -0.502526 -0.942811
0.755442 -1.369965 -0.343053 1.622856 0.718014 -0.056207 0.099833 0.579087
-0.611308 -1.077175 0.470904 -0.253633 -0.127175 1.122921 0.765006 0.922504
0.501485 -2.425869 1.327314 1.470671 0.078008 1.477875 1.708812 0.386215
1.351102 0.837087 0.642122 -0.205979 0.412200 -0.324806 -0.009047 -0.827468
0.865134 -0.354171 1.413318 0.179905 -0.668311 -0.251323 0.337248 -1.854744
-0.302320 0.423716 -0.150875 -2.589088 -0.388231 1.274161 -0.474624 -0.233135
0.583699 -0.172731 -0.210836 -1.157728 0.733782 -0.266207 0.340033 -0.670769
0.442253 0.075567 0.130756 -3.484319 -0.246895 0.310462 -1.873296 0.756797
-0.789883 1.366103 0.610112 -0.837782 -0.144248 -0.121821 -0.869794 -2.232291
0.190615 -0.420001 -0.675490 1.046829 1.375156 -0.176254 0.357247 0.791799
1.056144 -0.210080 0.681835 -0.914021 -0.414511 -0.339463 0.293509 -0.533502
0.010184 -0.569782 1.777088 0.012882 0.144706 0.298833 -0.472018 1.244434
1.518207 -1.407662 1.373803 -1.124965 1.049276 0.907421 -0.354318 -0.544835
0.515256 1.173636 -0.623584 0.979185 0.647365 0.113294 0.346491 -2.458821
1.063244 -0.141768 0.200494 0.113230 0.220281 -0.550146 0.147611 1.518446
1.290617 -1.012953 -0.060025 -0.921551 -0.367306 -0.256337 -0.427831 -0.331359
-0.952243 1.248446 1.751668 1.148025 1.654288 -0.920076 -0.003161 -0.246074
-0.842975 0.836695 0.495160 -0.133042 -1.479228 1.083725 -0.768284 -0.591150
0.141439 0.905185 -0.960048 0.204825 1.484095 -0.228393 0.285935 0.531535
2.337328 -1.128837 1.013350 -0.323288 -0.116943 0.024724 -0.292159 1.437390
-1.529733 -0.280981 0.269397 -1.640928 1.062867 1.222301 0.224536 0.816282
-0.034067 1.485697 2.060970 -1.830241 -0.399181 0.467603 -0.626159 -1.258467
0.041960 -1.641866 -0.572297 -1.309784 -2.247982 1.138274 -0.426793 0.066859
-0.389963 -0.061881 -1.268122 -1.798514 -1.035400 -1.283112 0.675702 -0.285898
-0.194177 0.023813 0.343966 -1.212289 0.053781 -0.772288 0.067211 1.565516
1.610611 0.797716 -1.554953 0.161987 0.058890 -1.534226 0.341774 0.437315
1.611023 -0.273692 -0.684260 0.737875 -1.698196 0.268669 0.204488 1.677247
-1.286712 -0.543722 0.149133 0.283603 1.036324 -0.864683 0.242534 -0.126077
-1.064680 -1.314021 0.789316 -0.791886 -0.513445 0.602262 2.558248 2.245336
-0.688654 -0.042468 -0.328158 -0.468166 0.066293 0.830879 -0.592943 0.421967
0.487390 -0.240520 1.140453 0.114435 -0.079447 1.173325 -0.088960 0.287627
0.960197 1.244301 0.195365 -0.766042 0.223364 0.619753 -1.031268 -0.503283
-0.381833 0.720450 0.753309 1.487364 1.345317 -0.933458 -0.913663 -0.921673
-1.208853 -0.388975 -0.053229 0.128523 2.228120 -0.625117 -0.247648 -0.686790
-0.685993 1.043829 0.340852 2.325614 -1.381111 0.472346 -1.889097 -0.969265
1.095033 -0.119987 1.422483 -0.357829 0.574245 -1.353975 -0.441581 -0.406305
-0.867315 0.810310 -0.379050 0.946166 -0.313037 0.601102 2.262840 -1.332135
1.622639 -0.281802 -0.077475 -0.731538 -0.053630 -0.098206 -1.900104 0.178353
-0.120045 0.309035 0.134290 0.390933 0.918843 2.200020 -0.216454 -1.288230
-0.206802 -2.342190 0.105933 1.092483 -0.122526 -1.287852 -0.289049 0.004478
-0.340593 -0.156705 0.558260 1.322089 -1.223561 -0.006076 1.547488 -0.016471
-1.967741 -0.816528 -0.736511 0.453482 -0.867629 -0.814329 -1.969935 -0.900363
1.890795 -0.458084 -0.309981 -0.161448 -0.701447 -0.768692 0.132121 -0.705006
0.442415 -0.638771 2.097207 -0.673946 -0.648163 1.014951 0.261191 -2.039750
-0.268610 0.064024 0.885893 0.210535 0.352269 0.856923 0.111455 1.478320
-1.555215 -0.115894 -0.513936 -0.836484 1.087370 -0.078835 0.204049 -0.494887
0.399574 -0.599646 0.022616 -0.813433 -0.209469 2.309693 0.880473 -0.048385
-0.947438 -0.311176 0.383859 -1.630346 0.581208 0.607873 -0.655459 0.401157
-0.175659 0.707576 0.509146 -1.080287 -0.324217 0.334482 0.719846 1.955573
