0.220487 1.222572 1.510742 1.127145 0.475929 -0.574313 -0.084836 1.204662
-2.341445 -0.338751 0.006782 -0.101627 -0.763905 -0.686386 0.417469 -1.633159
1.497722 2.098239 -0.498531 1.012636 -0.891400 -0.224934 -2.486392 1.778764
1.034166 1.114487 -0.300273 -0.763686 -1.093056 -0.176184 0.739615 -0.028965
-0.016557 1.476311 -0.311944 -0.684733 -2.075153 0.637912 0.259464 -1.198107
-1.783935 -0.779723 0.553461 -0.708172 -2.006670 -0.474497 -0.573380 -1.181776
-0.808989 0.085299 0.179085 1.171790 0.080226 -0.530211 -0.427034 -1.645188
-0.219785 1.087216 -0.876010 0.681527 2.072549 0.481067 0.279130 -1.065268
1.229314 0.112711 -0.821022 -0.787988 -0.540731 1.094559 1.893281 1.745602
1.072618 -0.840193 0.878313 0.028390 0.103648 -0.594616 -0.929361 1.266317
-0.348355 -1.189658 -0.453703 0.885024 0.491482 0.408011 0.102414 -1.147914
1.145147 -1.014800 1.175071 -0.714902 0.715105 -0.364381 0.294827 -0.663261
-0.209797 -1.227630 0.241629 2.387876 -0.570597 -0.813326 -0.231180 -0.434363
-0.730290 -0.666010 -2.027272 -1.097509 0.024267 1.574114 2.007306 -0.283207
-0.612620 -0.145673 -0.197213 -0.143906 -0.225660 -1.652108 0.175826 1.849467
-0.532917 0.637984 -1.259084 -1.749058 1.031835 0.831887 -0.691968 0.603471
0.659707 -0.037444 0.561452 0.908328 -0.398715 1.836907 -0.186254 -0.686348
1.295264 -1.211226 -0.167555 -0.462578 -1.244309 -0.397892 2.033267 -0.026253
0.544815 -0.199419 0.237937 0.172338 0.707642 -0.942685 1.372380 -1.373857
0.292486 0.602366 -0.301334 -0.081127 -0.991304 -1.282135 1.032959 -1.166880
1.148368 -0.716591 0.741372 -0.735762 -2.004876 0.163243 0.342622 -0.339228
0.054007 -0.902017 -0.463560 -1.434211 -0.048421 -2.033866 -0.964716 -0.002883
-1.099645 -1.112494 0.142719 1.069494 0.649476 2.337353 -1.610848 2.135425
-0.477207 -0.022955 1.742570 -1.274801 0.917775 0.892476 -2.047857 0.248868
1.446083 0.608299 -1.013530 0.693269 2.083228 -0.153310 1.107823 -0.827715
0.282858 -0.425323 -0.763756 0.387757 0.142046 -0.648055 -0.589634 0.709111
-0.529651 0.399712 -1.869822 -0.788823 -0.748374 0.547911 -1.936561 0.081605
-0.677558 -0.037469 -0.294285 -0.510375 0.257113 1.305979 -1.134208 1.546438
-0.275019 0.055459 0.289887 0.099002 -1.536568 0.340404 0.859496 -0.803528
1.716238 -0.484889 -0.228591 -1.012200 1.206119 0.270076 0.568963 0.717481
0.250064 0.531153 -0.353316 -0.809393 -0.785241 -0.823753 0.692356 -0.707477
-0.746188 0.303063 1.230205 -0.682145 1.151279 -0.091567 -0.781410 -0.483058
1.200023 0.561474 -0.636963 -0.082442 -1.219286 0.989946 -0.071442 -0.777102
-0.072643 -1.205580 0.459379 0.739218 -0.839301 0.513134 2.027642 -1.003748
-0.660878 -1.302428 0.411371 -2.122878 -0.128665 0.345286 1.408261 -1.038893
-0.837192 0.945930 0.499995 0.206080 -0.659577 -0.795872 -1.173879 -0.008354
-1.767181 0.247463 -0.739171 0.224875 0.407205 1.203498 -0.992658 -1.499949
0.901899 1.391584 -1.048608 1.093335 -0.955759 -0.874731 -0.409073 1.003254
0.833969 0.557305 0.267085 0.753001 0.624161 -0.229802 -0.068569 -0.553538
-0.653630 -1.449941 0.293558 0.512555 -0.162355 -0.274314 -0.489897 -0.392151
0.224506 0.274362 0.226759 -0.010062 0.306011 -1.470235 0.936101 -1.163685
-0.824815 0.878976 1.531630 -0.056436 0.302529 0.170089 -0.251860 0.128654
-1.089897 0.000439 1.262902 -0.122134 -1.087738 -0.096461 0.820075 2.510766
-1.182429 -0.691710 -0.142911 -0.507470 0.282027 -1.430584 0.030051 0.218114
-0.863455 1.458658 -0.939744 -0.459497 -0.099976 -0.502580 -0.218281 -0.977613
0.492246 0.987764 -0.573358 -0.437813 0.538414 -0.705322 1.648227 -1.487456
-0.256656 1.553838 0.126197 -0.782611 0.273297 0.250131 -1.970217 -0.580568
-1.755225 -0.550340 -1.195932 -2.553480 -0.989768 0.110338 0.240062 2.332535
1.159577 -0.144269 -1.293129 -1.032544 0.752795 -0.741420 -0.055660 -1.318656
0.693576 0.454125 -0.541694 -1.156655 0.320384 -0.683962 0.777024 0.353460
0.258923 0.053377 1.142656 0.735869 -2.017380 -1.962397 -1.075000 1.079481
-0.261408 -0.176964 0.132309 -1.083215 -0.593390 1.581256 1.803349 -1.023929
-1.123283 0.886256 -0.720906 -0.407757 1.461828 0.288576 0.327373 0.210323
-1.464907 -0.688206 -0.568378 -0.663402 1.019442 0.468998 0.646213 0.585366
0.851018 0.014024 -0.861655 0.423387 0.319859 0.671637 0.874196 1.349581
0.247961 0.624079 0.096457 0.133064 -1.439886 0.845743 -1.039060 -0.051355
-1.289719 -0.692657 1.895997 -0.604837 0.977895 -1.820352 -1.816507 0.433727
0.321059 0.207366 0.187167 -0.325669 0.735125 -0.510699 1.787822 -1.129042
-0.731978 -0.426722 -0.808887 0.743042 0.084232 -2.079818 1.375074 0.096506
-0.132455 -1.841919 0.556749 -0.546554 -0.270827 0.894133 0.050509 -0.260478
1.008500 -0.437520 -0.001949 0.036454 -1.699609 0.022335 0.702620 -0.236160
0.057215 0.901744 1.512759 -0.826635 -0.353410 0.218159 -0.490479 1.669264
0.181149 0.687962 -0.334712 -0.424311 -0.861324 -1.149755 1.060899 -0.754830
1.132470 1.088955 -0.784472 -0.746606 -0.016702 -0.435506 0.147269 1.525020
0.230706 -0.092846 0.000189 1.536633 0.339802 -0.665302 0.493528 0.484682
-0.172582 0.062262 1.245473 0.152101 -1.087043 -0.076736 0.099573 0.323854
0.540724 -0.369509 0.934536 -0.465597 0.874076 -1.713119 -1.653915 0.576193
0.097391 1.403315 -1.761126 -1.850803 3.172346 0.416590 0.534817 -0.458995
0.357967 -0.635483 0.237943 1.270367 -0.581661 0.658458 -2.071468 1.011877
-1.990540 -1.138440 -0.691583 0.582212 -2.059003 0.221430 0.527899 -0.875880
-0.045548 -0.384747 -0.456317 -1.091268 0.534812 0.154381 -0.960955 -0.315023
0.446492 0.079888 -0.785455 -0.647014 0.885733 -0.464473 -0.649289 0.871177
-2.037157 0.010623 -0.014595 0.146152 1.036686 -2.315465 -0.308227 1.279306
-0.847074 -1.339238 -1.703292 1.929446 -0.407567 -0.225139 -1.062259 1.575219
0.563162 -0.685451 0.582843 0.335594 -1.206866 -0.043463 1.272581 -1.345659
-0.726999 1.639628 0.009895 1.147663 -1.835347 0.144959 0.550956 0.090203
-0.856511 0.399384 0.501438 -1.315493 0.404729 -0.183345 -0.411489 1.948220
1.193339 0.660128 0.554444 1.074417 -0.442044 -0.498064 0.921990 0.778942
-0.066476 -0.855038 -1.383964 -1.638210 -0.479672 -1.265795 0.675299 1.118936
-0.600976 1.088914 -1.833870 -0.449744 -0.811525 0.975233 -0.992405 0.332644
-1.152090 0.594915 0.229720 0.354346 -0.749658 0.682750 0.248987 -0.578453
-1.067572 0.166344 0.250874 0.094228 -0.472082 -1.007371 0.127436 -1.734581
0.690684 0.755192 -0.617748 -0.076505 -0.322422 -0.657899 0.320048 -2.279359
-0.935891 1.341334 -0.907435 -0.182183 -0.006217 0.158312 1.316895 0.474602
-1.756205 -0.820095 0.653508 0.431751 -0.806722 -0.234749 1.319310 -0.174561
-0.494356 0.375513 0.494785 -1.623930 0.079124 0.555694 0.760241 1.761363
0.267405 1.079653 0.860175 0.842900 -1.620849 -0.605960 -0.548303 0.181004
0.551352 -1.114939 -1.678478 -0.266695 0.536777 -0.726044 0.151638 0.137311
0.435137 0.618604 -0.202272 -1.251215 0.478363 0.214115 -0.814395 3.010149
-0.117736 -0.698364 -0.017979 0.033565 0.142498 -0.529287 -0.968332 -1.590044
0.108349 0.041553 0.383867 -0.488035 -0.228445 1.027175 1.223419 -0.998220
0.141611 -0.883832 -0.066775 -0.163293 0.630028 0.837904 -1.400074 1.002761
-0.351300 1.446679 0.206531 0.811889 -0.140299 -0.693860 0.810471 -1.069912
0.409915 -0.853427 -1.465201 -0.521491 -0.090026 -1.065391 0.049831 0.017656
-0.109721 1.148872 -0.316804 1.726589 0.520904 -0.559857 1.601455 -0.321352
-1.719285 0.901226 0.038597 0.374476 -0.847099 -0.398081 -1.009775 -0.389190
0.803865 0.413454 1.361821 -0.091630 0.458411 -1.069632 0.049604 -0.814390
-0.070151 -1.218692 0.992936 0.393859 -0.306418 0.182665 0.714957 -0.648819
1.032451 -1.480207 0.910564 1.468916 1.618678 -1.039844 0.915787 -0.766160
0.233662 0.640839 0.703654 0.823750 0.591757 0.866778 1.217076 -0.681344
-1.306716 1.555777 0.085527 1.734871 1.331597 -1.893566 -0.365031 1.100634
0.741544 -0.808061 0.226949 -1.359442 -0.416569 -0.951101 1.541196 0.660056
-0.841357 1.205542 -0.191073 -0.832833 0.762113 0.961943 0.737042 -1.202900
-0.481870 1.887711 -1.332622 -0.284586 0.008783 -0.694715 -1.487052 -0.083916
-0.798740 1.085591 -0.819967 0.713858 0.829548 -1.227806 1.106272 -0.811014
0.237901 -2.215086 3.271624 1.032705 -2.369457 1.057699 -1.305614 0.549161
0.155611 -0.031245 -1.002258 0.973903 0.431447 -0.268336 -1.264836 1.956898
0.708988 1.279035 -0.448416 -1.008251 -0.300158 0.189426 0.355549 1.416054
-2.877764 0.053808 0.634155 -0.043051 -1.572330 0.141909 0.182385 1.432101
0.295376 1.596826 -1.194736 -0.377689 -0.339029 0.558096 1.406709 0.328781
-0.643983 -0.223782 0.826541 0.708746 -1.388196 -0.201416 -0.713385 0.193338
0.582566 -0.186454 -0.943847 -0.066083 1.111121 -0.399715 0.015269 -0.653071
-0.974607 -0.957974 -1.915826 2.049117 0.312378 -1.934581 -0.454748 0.503699
1.253644 1.436127 -0.343161 0.411490 1.194367 0.565415 -0.415309 -0.794994
-0.484767 -0.567440 1.571971 -0.484621 1.271115 -0.589894 0.053623 -0.041340
0.285603 1.227746 -0.677614 -0.518258 0.026672 -0.188348 -1.238754 0.787771
0.316371 -1.159790 -0.051055 0.469088 1.260947 0.168720 -0.170417 -0.482891
0.463646 0.070878 -0.254331 -0.828171 0.058063 -0.598687 0.311764 0.204700
0.699003 1.344412 0.403842 1.253169 -0.011002 1.979027 -0.348712 -0.442476
0.308983 -1.173809 1.348321 1.047114 -0.494863 -0.746122 0.161303 -1.644663
1.629928 0.269540 1.479618 -0.302287 -0.778087 1.466021 0.965417 0.813650
1.856081 -0.017437 -0.870855 -1.216146 0.350042 -1.274041 2.175359 1.853808
0.903262 1.521507 -0.836920 2.137760 0.060528 0.135649 0.204954 -3.183557
-1.391657 -1.028618 -0.321904 -1.601876 -1.690155 1.620175 -2.111186 -0.689502
0.201516 -0.024316 -1.229768 -1.968037 0.771192 -0.147107 1.674400 0.218460
-0.917192 2.039151 0.704996 -0.526373 -1.204902 -1.344689 -0.290779 1.010289
1.069725 -0.591608 1.586349 0.193185 -1.342675 0.384014 0.151740 1.304925
0.333966 1.164428 1.450875 -2.696350 0.771330 0.116997 -0.316602 0.268492
0.979547 -2.697301 -0.205109 0.371272 0.998705 0.103783 0.955111 -1.572170
-0.365341 0.954254 -1.534192 -0.102415 -0.677028 -1.118804 1.406960 1.903904
-0.626321 -0.258865 -1.545187 -0.484049 0.900808 0.847871 0.883829 -0.737590
0.594166 0.676186 -0.350640 0.757876 1.164754 0.035457 -1.796680 -0.450066
0.601152 1.358235 0.863167 -0.893205 0.269068 -0.938961 -0.345572 -0.310110
0.405651 0.964643 0.792096 -0.017396 -1.105316 -0.931417 -1.920128 -0.106005
-1.110154 -0.284930 0.318874 -1.964751 -0.099056 1.162269 -0.621101 -2.287039
0.058674 0.185927 2.336241 -2.064695 -1.123253 0.597341 -1.143914 -2.282119
1.085266 0.334975 -0.947752 0.559354 -0.483674 1.100806 -0.284190 0.296079
1.055677 1.513655 -0.279997 -0.991946 0.366877 -1.401708 0.414404 -0.088749
-1.126597 -0.210744 -1.183982 0.395020 2.887432 0.083852 0.164941 0.536803
1.414610 -1.649825 -0.950305 0.085367 -0.179988 -0.188757 -0.395586 -0.117638
-0.455446 -0.714720 0.300840 -0.247850 -1.642119 -0.969276 0.552598 -1.940279
-1.407411 -0.957268 -1.137023 -0.450096 1.279470 0.309101 -0.014147 0.054468
0.004041 0.633414 -0.217691 0.393565 0.949024 1.575852 -0.787805 0.841725
0.359008 0.084664 -0.665990 0.999857 1.576330 0.416049 1.276302 -1.178057
-0.487421 -0.050270 0.254994 -0.481786 -1.334565 -1.908345 -1.383292 0.713669
0.961409 -0.646218 -1.250600 0.238669 0.100921 0.586397 0.676192 0.180479
-0.340738 0.752063 0.620830 -2.037634 -1.470043 0.413578 -0.508377 -1.221314
0.205110 2.113776 -0.129866 0.306689 0.917578 0.758763 -0.209620 -0.671412
-0.411907 0.454587 1.380029 0.675665 1.596188 -0.548340 1.011947 0.934110
3.076499 -0.840049 0.747306 0.923234 -0.219785 1.088882 0.666097 1.112278
-0.600020 0.520464 -0.584517 -0.444057 -0.099937 0.094541 0.744175 1.653598
-2.698805 -0.970455 -0.176118 0.961167 0.758030 0.464457 0.667439 0.833542
-0.464829 -1.027086 2.062368 0.830534 -0.274967 -1.084825 0.632801 -0.395420
1.135320 1.356711 -0.046923 0.610225 0.919051 -0.479552 1.431829 -0.896950
0.713874 -2.761109 0.219923 -0.315678 0.350554 -0.766306 0.011245 -0.153602
0.247479 0.323655 -0.307794 -1.531376 -0.575272 -0.727055 0.428073 0.134783
0.310220 0.364418 -0.629621 -0.437586 0.590903 -1.345798 1.170944 1.575003
0.864305 0.179842 1.513608 -0.793997 -0.110154 0.137019 0.652349 0.102480
-2.679387 -0.234302 0.142943 1.728583 -0.355769 -0.410087 1.236650 1.224323
-1.426358 0.004445 -0.889910 0.760765 -0.295569 2.571508 -0.172672 -0.769950
0.803716 -0.856803 -0.214693 -1.161116 -0.832127 0.554356 -0.340150 1.433423
-0.123730 -1.381858 0.900395 -1.213876 -0.154053 -0.305767 -1.436647 -0.803680
-0.164840 0.523905 -0.557607 2.304535 1.000916 -1.501015 -0.146434 -0.774373
-1.197059 0.312427 -0.498452 -0.278863 2.127732 -0.342964 -0.434621 1.811784
0.928599 1.751444 -2.668609 -0.012537 0.511566 -1.877226 -0.385436 -0.071684
-1.492982 -1.474128 0.378691 -0.421080 -1.127395 0.823187 2.393092 0.781802
0.258610 0.594520 0.450390 -1.408753 -0.069007 0.979575 0.519202 -0.942976
0.403793 -0.297371 -1.352191 -0.563134 -0.911746 0.460503 -1.761904 -0.930609
0.721819 1.077244 -2.064922 -0.596772 0.247244 -0.016653 0.260619 0.143830
-0.864184 0.023211 0.284941 1.281382 0.709615 1.568104 -1.307664 -0.816432
-0.480818 -1.643335 0.286043 -0.894782 -0.252815 -0.324325 0.463675 -1.808459
0.251469 0.484691 1.128823 0.403159 0.863316 -0.287169 0.283861 -0.845813
-0.104677 -0.497629 1.046265 -0.502751 0.399860 0.375992 -0.516574 1.235739
-0.120777 0.069996 0.221325 1.072174 -0.758812 -1.877353 -0.939742 -0.352247
0.117630 0.854031 0.851171 -1.006595 0.479404 -0.138593 -0.912574 -2.279512
0.685545 -0.360164 0.271960 -0.701312 2.100472 -0.194845 -0.649439 -1.921910
0.353702 -0.079130 -0.265734 -0.941630 -1.840766 0.084750 1.226843 0.823497
-0.767659 -0.652705 -0.381464 -0.316718 1.726803 0.054353 0.181042 0.776434
-1.315003 2.372644 2.432817 -1.558280 1.152681 -1.820018 1.310215 -0.072972
1.033056 0.580143 -1.273651 -1.257350 -0.260628 0.617027 -0.791289 -0.604926
-0.052949 0.496598 1.421834 -0.101794 2.023188 0.267183 -0.638580 0.769456
1.066215 -0.998131 -1.488318 0.996359 0.651954 -1.565551 0.761184 0.119901
-0.683635 0.480427 1.388041 0.087303 0.379335 0.747138 0.693652 1.201926
-0.951162 -0.906141 1.321648 1.234888 0.600642 0.413026 0.253784 0.810345
-1.680206 0.063209 0.232155 1.101279 0.462926 0.082159 0.020887 -0.797133
0.553954 1.005442 -1.018473 0.648317 1.259943 -1.665658 -0.405527 2.190760
-0.802687 -0.127458 0.941550 1.321674 1.312676 1.813457 0.208558 -0.454571
0.744071 1.105989 1.129763 -0.418817 -0.657732 -1.339097 0.676740 0.128390
0.124868 0.744806 -0.678954 0.705277 0.972729 -0.391545 1.818860 1.038340
0.619060 -0.440610 -2.375514 0.798757 0.893354 -0.175695 0.405190 1.386101
-0.781153 0.086949 0.140717 -0.588715 0.272339 -2.323009 -1.711362 0.059939
1.329833 -0.772013 -1.250876 0.559222 -1.851619 0.083236 -0.525873 -0.382810
0.123823 -0.455990 0.521497 -0.839874 1.705294 0.913128 1.742295 0.460232
1.920686 0.177757 0.298150 -1.243212 0.449950 -0.220887 1.647271 -0.961563
-0.280873 -0.851441 -0.641681 -1.405553 1.423586 -0.451477 0.173994 -0.713439
0.162096 0.150499 -0.756347 0.864449 -0.781035 -0.185093 0.589684 -1.144285
-0.107205 0.835774 -0.369803 -0.165441 0.230983 -0.488247 0.772973 -0.548356
-0.432729 0.032301 1.411379 0.827198 -0.028921 1.615049 1.239946 1.285250
1.131949 -1.381447 -1.620201 1.884371 -0.037271 1.736233 -0.591150 1.626912
0.665181 -0.224329 0.984609 0.224790 1.275211 -1.822463 -1.362633 -0.462844
1.079093 -1.005735 2.374433 -1.137192 -0.999655 0.371227 -1.349155 -1.506843
-1.569386 0.673115 0.498487 -0.830926 -0.311888 0.687556 -1.212442 0.544530
-0.320987 -1.212981 0.602950 -0.425359 1.130863 0.213765 -1.635098 2.701474
-2.336960 -0.244294 -0.297373 2.138438 -0.438969 1.070779 -0.186072 -0.760682
-1.409870 -0.289573 -0.748738 0.204684 -0.296247 1.064047 -0.410715 1.005220
0.765303 1.118167 1.580573 -1.699568 0.181692 -0.129756 -0.082234 -0.115551
0.398802 -0.287379 -1.383044 -0.822118 0.377069 -0.594851 0.244352 1.476390
-0.486796 -1.785965 -1.678275 -0.504088 0.437780 1.544544 -0.240849 -0.794892
-0.046142 -1.433256 0.283502 1.997769 -0.766605 0.529427 1.893529 -0.868147
1.208511 -0.496413 -0.215937 -0.580504 -0.153305 -0.662150 -2.432065 0.359293
0.285464 1.145257 -0.786114 0.609032 -0.150829 -0.302749 -0.111889 0.320554
-0.178080 0.012263 -0.059177 1.317185 0.489830 0.378989 -0.403765 -0.450834
-0.100139 1.109752 -0.058103 -1.154910 -0.063348 0.731919 -0.978164 0.198409
-1.007009 -0.801721 1.204244 -2.301164 -1.607025 0.520528 -1.538763 -0.296024
1.062662 0.892801 -0.687454 -0.104219 -0.903513 -0.155102 0.356671 -0.166375
0.211726 -0.094378 0.615172 0.503536 -0.955432 -0.273474 -0.172147 0.771911
-0.597624 0.306534 -0.205616 -0.084119 0.118145 -0.043788 1.095198 -0.813164
-0.622842 -0.476926 -0.359333 -0.811747 1.272951 -0.757296 0.303435 -1.248658
0.707241 1.361920 -0.070019 -0.729679 -1.374314 -0.387938 -0.827302 0.918704
-0.101675 -0.262939 0.259199 0.671779 1.071259 0.684493 -1.540119 0.271887
-0.476563 0.507281 0.151281 0.038884 -1.369706 -0.274514 -0.001172 -0.465453
0.199927 -0.953401 -0.007276 -0.020989 -0.165312 0.357772 -1.823108 -0.620478
0.155474 1.230838 0.707702 0.116952 0.294714 -0.695174 2.111152 0.927357
-1.227864 0.938935 2.108697 1.222547 -1.781754 -0.008978 0.686599 -0.157278
-1.179872 1.267340 0.470735 0.807116 -1.196940 -0.667008 2.127651 0.501666
-0.415387 2.214258 1.234914 -0.724021 1.467913 0.438439 -1.833649 0.042987
-0.097898 -1.058422 -1.444840 1.593977 -0.258697 -0.425822 -0.350193 -0.343301
-0.198781 0.085538 0.356250 2.184529 0.822993 0.694260 -0.483086 -1.428518
1.181153 -0.327041 0.897467 -0.076535 -0.677755 0.000622 -0.447915 -0.411791
1.122412 0.480056 0.424721 -1.085148 3.593994 1.965237 -0.063861 0.578502
-2.105538 -1.225214 0.090014 -0.475313 -1.154347 1.417285 0.139693 0.233290
0.259293 -1.957071 -0.540999 -1.718674 -0.324078 0.761633 1.085705 0.875613
0.054207 -2.074887 -0.830621 0.524676 0.500691 1.522992 -0.184304 -0.126463
0.137182 -1.646463 -0.005297 0.017436 0.712384 0.587867 -0.426440 -0.519432
-1.088841 0.743010 0.748168 -1.004720 -0.958471 0.604626 0.533060 1.216796
-0.958326 -0.510859 -0.220025 1.138004 -0.476296 0.918482 0.649064 -0.709009
1.152539 0.576259 1.104980 1.379748 1.021393 1.707562 0.432170 0.491973
0.437954 -0.026295 -1.416657 0.992545 -0.946591 0.266628 -0.993799 -0.436258
-0.587418 1.038490 -0.368074 0.399984 -1.465166 1.379954 1.826539 0.752639
-1.615962 1.092347 0.262693 -0.817952 -0.311385 -1.042767 1.477078 1.032643
0.660930 0.812880 0.352426 0.347014 1.193412 -0.672628 -1.149363 0.629228
1.276710 0.741629 -0.355455 1.525181 -0.330650 1.090526 -0.765189 -0.022286
0.386650 0.288817 0.489738 0.492108 -1.233587 -1.627957 -1.512229 -0.028319
0.761003 0.343562 0.971991 -0.315763 1.111382 -0.025334 1.442507 0.947268
-1.113568 -0.596118 -0.753779 -0.247248 -0.880867 1.683497 -1.941218 0.167215
-2.013035 0.573050 0.002550 -2.573148 1.668619 0.037136 -0.148876 -0.438972
1.154532 0.096151 0.262619 -0.047886 1.255644 -0.303219 0.156563 0.972260
0.479686 0.189226 0.599752 -0.416941 -0.330329 -0.534232 0.456611 -0.945464
0.419812 1.001289 -0.488735 -1.465722 0.491577 0.081578 -0.399285 -1.548664
-2.538021 0.123390 1.923964 -0.135821 -0.310004 0.811501 0.101426 0.097078
0.379807 0.588931 -0.816638 -0.823261 0.920181 0.782186 -0.983533 -0.652927
-0.783167 -0.727976 0.503841 0.572752 0.024732 0.994344 0.080005 0.492128
-1.269953 -0.790028 -0.242689 -0.357640 -2.420086 2.137120 -0.307397 1.146083
0.646323 0.120978 -1.103443 1.114390 1.780613 -0.008122 0.665093 0.003013
1.083181 -0.433349 0.532263 0.561007 1.086439 0.306792 0.290547 -0.594320
-1.074180 0.240992 0.571332 -0.230857 1.760956 0.929744 -2.342908 0.264015
-0.885126 2.556778 -0.568536 -0.335294 0.965131 0.682033 0.016894 0.450527
0.544638 -1.958813 0.257340 -0.836150 -1.086711 -0.662476 -1.187885 -0.745664
1.085767 1.157947 -0.188089 -0.374158 2.007551 -0.104447 0.439605 0.395056
0.644985 1.192893 0.616973 -0.228132 0.884089 -0.089736 1.004341 0.388990
-0.678570 -0.993218 -0.771519 2.317609 0.463533 -0.393570 1.529297 1.610445
-1.168392 0.320950 -1.169263 0.115741 0.680367 0.838869 0.430549 1.642377
0.234562 -0.169129 -0.741589 0.545468 -0.878227 -0.231512 1.807876 -0.416631
-0.338911 -1.322689 1.259414 -0.991103 0.053245 1.113395 -0.461767 -0.450979
1.586080 -0.848989 0.226754 -1.399949 1.115329 -0.718855 0.055001 1.583149
1.226581 0.037566 -0.410804 1.452658 -0.441877 -1.629161 -0.805919 -0.257592
-0.705930 -0.880316 0.601240 -0.527557 0.228822 0.838421 0.083174 -0.737769
-0.637651 -0.346145 1.683385 0.450476 -0.358544 1.560533 -0.246456 0.204469
-0.461490 0.416407 0.817600 1.955096 0.276627 0.141213 1.280772 -1.533472
0.656108 0.139153 -0.275725 -0.678226 0.605933 0.217986 0.362414 0.983117
0.506895 -1.459844 0.992564 -1.432574 -0.192511 -0.220458 -0.122714 -0.607415
-0.250341 0.464056 -0.609530 1.544478 0.101968 0.319600 1.102104 1.290852
0.407469 -0.517220 -0.649605 0.190149 -0.328896 -0.000887 0.062858 -0.229624
0.053001 1.001129 -0.669026 0.273940 0.048452 -0.049559 -0.766166 -0.636478
-0.099985 -0.124513 -0.033603 -0.400005 -0.537391 2.369934 0.896974 -1.045735
-0.019823 -1.528529 1.197887 -0.568830 -0.441346 -1.890009 0.112665 2.075377
0.447478 0.535820 1.154248 -0.955350 -1.639488 -0.631772 1.588440 0.446559
-1.034217 0.410934 0.349216 -1.715821 0.655672 -0.688600 -0.164031 -0.239630
-1.235594 0.139754 -0.462303 -1.122750 -0.007509 0.121392 -1.332292 -0.845913
0.889421 0.492973 -0.921809 -0.854948 0.348069 -2.178725 1.190806 -0.476653
-1.725744 0.071156 -0.000424 0.750889 0.211060 -1.096454 0.860678 1.412069
0.393525 0.876530 0.061850 -1.371408 0.584578 -1.280978 -0.463753 0.973493
-0.091659 -1.080073 -0.403187 -0.256323 -1.790244 -0.362642 0.821594 -0.508577
-0.075274 -0.118892 -0.889181 -0.513291 0.162778 0.022465 -0.045327 -0.231407
1.311059 -0.123761 -0.176732 -0.900545 0.413358 -0.374689 -0.673931 0.134758
-0.139756 0.449597 -0.237934 -0.261557 -0.445737 -1.477170 0.377808 -1.085062
-0.761535 -0.780980 -0.228054 -0.104242 0.704309 0.387079 0.127030 -0.162052
-0.672588 0.291242 -0.844799 -0.428126 -2.149628 0.308137 -0.208283 -0.803139
0.314683 -0.083861 0.030985 0.534286 -1.506647 -0.733009 1.480468 0.941908
-0.818558 -1.297132 1.434127 -0.994481 0.265291 -2.035015 2.363842 -0.654163
0.129165 0.888658 -0.330864 0.448706 -0.046017 -2.330806 0.218072 -0.705441
1.302772 1.090909 -0.463055 0.802939 -0.728238 -1.068175 0.428840 0.253075
1.041507 0.785237 -0.159885 -0.374786 0.676964 -0.430415 1.346562 -0.179678
-0.278896 -0.257320 0.515167 0.584544 -0.884126 0.057480 1.492558 1.788080
0.144136 0.755648 -1.286743 0.082896 1.029302 0.297196 1.116402 0.890814
-1.807592 -0.246851 0.465696 0.191077 1.451048 -1.487819 1.878307 0.347694
0.040698 0.758365 0.998239 -0.324375 -0.402448 2.720398 1.072552 -0.367380
-0.305491 0.529128 0.718227 -0.111940 -0.608007 0.063200 -0.303483 0.783258
0.525518 0.072933 1.159254 -1.174473 0.236729 0.081193 -1.021024 -1.157154
-1.134800 -1.838197 0.824916 -0.880977 0.257785 0.174797 -1.031785 0.090354
-0.166474 -0.832028 -0.477487 -0.100797 -0.683986 1.544959 1.013477 0.115045
0.589358 -1.097673 1.798019 0.043179 2.542118 -0.815059 -0.381008 0.014679
-0.269068 0.137137 -1.118906 0.329702 -0.484626 -2.099099 -0.215231 -0.256343
0.799084 -2.471819 0.505379 -0.613526 -1.131127 -0.058564 -0.998086 0.098405
-0.172342 -0.099000 -0.436961 -0.854526 0.066685 1.106831 1.452404 -1.846551
0.046390 -0.083644 -0.603826 0.706985 0.418023 0.114947 0.248381 -0.459644
-0.090564 0.333923 0.833429 1.458110 0.702905 -0.512314 -1.559777 1.169121
-0.725456 1.546852 0.960058 -1.507349 -0.741405 0.948798 -0.791978 0.361832
1.195503 0.169648 -1.453895 -0.073043 -0.563365 1.264066 1.003400 -0.239151
-0.336107 0.394354 -1.095129 -0.128875 -0.657596 2.105239 -0.163312 -0.709075
-0.415154 -0.025467 0.031839 -1.261130 -1.318692 1.032919 1.304128 1.441930
-0.406312 -0.545075 -1.061004 -0.981795 -0.199768 -0.521554 -1.428975 -3.124755
-0.774423 0.577362 0.311770 -0.394691 0.274986 -1.615530 1.112106 -0.612675
0.479226 0.614541 0.548829 -0.156319 1.005553 -0.769932 -0.582708 -0.607928
-0.986990 0.193143 -0.773878 -0.133184 -1.089049 -0.182965 1.146025 -0.327381
-1.786887 0.644136 -0.976693 0.007730 0.465525 0.433317 -2.350383 0.169094
-0.905504 0.942591 -0.699815 -0.841668 -1.349825 -2.297621 0.970932 1.089906
-0.391677 -0.167783 -0.406838 -0.274233 1.749641 -1.520702 0.189243 -0.097618
1.092642 -0.222433 0.088363 -0.443402 1.515292 -0.387936 -0.609317 -0.796193
-0.058068 -0.148063 -0.609256 0.812357 0.576310 1.517572 -0.046924 0.576313
0.219988 0.395430 -0.055717 1.177200 0.575377 0.927428 0.082433 -1.154735
0.677004 2.639815 0.119301 -0.048001 -1.338647 -0.365596 1.661728 -0.271892
-1.405692 0.894562 -0.732974 -0.713781 -0.580184 1.272894 -2.002367 -1.759448
0.365059 -1.098750 -0.028237 0.000818 2.794662 -1.178509 1.614916 -0.872393
0.369456 1.113860 -0.478437 -0.390656 0.867443 -0.546584 1.330921 -0.871119
0.507795 1.157076 -0.711224 0.739814 0.523193 1.227891 0.298690 -0.724719
-1.096800 -0.763563 0.109707 -0.221616 -0.334847 0.287844 1.766748 1.110314
0.197738 2.219263 -0.713579 0.505153 -1.112536 -0.929266 1.487352 0.366612
0.496777 0.247423 -0.733875 0.889402 -0.068785 -0.565185 0.620881 -0.469728
-0.562986 -1.643231 -0.415973 0.760634 -1.301952 1.298148 -0.586606 -1.150840
-0.142119 1.552863 -0.792514 1.229331 -0.841139 -1.252519 -0.612272 0.185633
0.936005 0.014075 0.429241 -0.364573 -0.555483 -0.376372 1.433069 2.802413
0.212530 0.038873 -0.410514 1.794167 0.017373 -0.894718 0.364566 -1.920384
0.042153 0.791233 -1.144398 1.028652 1.633679 0.984536 0.175903 0.307602
-1.186903 -0.371935 1.181130 1.414983 0.273650 0.459204 1.396393 -0.232193
0.272594 -1.199210 2.165847 -0.807433 0.282664 0.632984 1.347965 0.044919
1.053889 -0.802308 0.752168 0.171560 0.655660 1.563578 -1.241881 0.832984
-1.031762 -1.141155 0.316972 -2.347278 -0.131921 1.467799 0.960993 0.467525
-0.432915 -1.370018 -2.022482 -0.929065 0.820952 -1.082642 0.141955 1.061895
1.812343 -0.482846 -0.310786 -1.164952 0.629833 0.452030 -0.409673 1.255647
-0.584905 0.048674 -0.407801 0.911468 -2.248981 1.391580 0.144449 0.417311
-0.410408 -0.661105 -0.315062 2.742504 -0.238788 0.950903 -0.291936 -1.088608
0.213981 0.049694 -0.036958 1.382727 0.054604 1.062126 1.501153 0.250724
-0.719840 -0.208973 1.034635 -0.868490 0.481053 -1.174808 1.417058 -0.311035
0.771424 0.204569 -0.069520 0.209969 1.470604 -1.387392 -1.343506 -1.025416
0.483954 0.280930 1.578930 1.094218 0.290321 -0.816918 0.442849 0.920605
-0.203809 1.268424 -0.908724 -1.160703 -0.125329 1.489711 -0.027750 1.121530
1.079740 -1.168779 -0.334441 -0.575643 -1.131165 0.109790 -1.179199 -0.822762
-1.562910 1.829986 -0.505528 1.887130 1.278746 0.120943 -1.577158 -2.065759
0.879467 -0.092583 -0.097237 -1.362795 0.526996 -0.022213 -1.855681 0.028921
0.255017 0.525902 1.006836 1.117817 0.178383 0.751872 -0.810729 -0.099516
0.310535 -0.339655 1.284871 -1.529141 0.565128 -0.074865 -0.675173 1.046654
-1.637616 0.615089 0.430705 0.425708 -0.627461 0.840932 -1.048886 -2.216914
-1.145077 -0.769978 -1.027794 -2.017541 -0.076389 0.077991 1.448150 -0.327036
-0.648129 0.143500 1.643507 1.816599 -0.976588 1.339641 0.998583 -1.346414
0.817357 -0.940089 -1.030861 -0.899962 -0.870969 -1.374184 1.707011 -1.010497
0.029620 1.557945 -1.210273 0.325120 0.351317 -0.186537 -1.033142 -1.291821
0.342680 0.676876 -0.353990 0.942870 1.795263 -1.061726 -1.045988 1.088355
-0.178453 -0.524262 0.043028 0.763902 -0.035297 0.392891 -0.285647 0.085934
0.819910 -0.522919 0.931127 -1.007948 -0.742162 0.285385 -0.258259 0.356923
-1.823956 0.480153 -0.063670 0.280439 0.026933 0.177974 0.768681 0.836509
1.209396 2.019275 1.559181 0.623488 -1.259243 0.565051 -0.968039 -3.083691
-0.422189 0.405888 -0.827736 0.350677 -1.057157 1.579906 -1.366348 -0.784794
1.813289 -1.168427 0.652380 -1.366480 0.085924 0.151414 0.257239 1.339953
0.617678 -0.856676 -0.925284 1.052828 0.167260 -0.718701 -0.250920 -0.480359
0.496530 0.542716 0.232249 0.250845 -0.931845 -0.166321 -1.471317 0.013502
-0.942864 -0.294123 -1.097109 -0.422184 -1.423372 -1.387201 -1.714642 -0.186792
0.397162 0.792796 -0.367224 -0.245345 0.654991 0.271898 1.182092 -0.122083
-0.572802 0.247504 1.301007 -0.178590 -0.293609 -0.411240 1.182914 0.254533
-0.272932 1.096312 0.931495 -1.759269 1.163932 -1.044845 0.699120 -1.452981
1.329752 -0.864931 0.496206 1.034548 0.790508 1.231389 -0.577462 -0.982445
-0.796520 -0.483967 -0.054211 -0.364697 1.544882 1.618191 1.028344 0.484957
-1.658149 -0.543656 0.645588 1.027296 1.142957 0.080657 0.069117 0.143261
-1.953934 -0.339414 -1.477698 -1.902248 0.453589 -0.410039 -0.480337 1.308847
0.655089 -0.023394 -0.280311 -1.489485 -0.311933 -0.794391 0.074911 -0.265683
-0.174680 -0.295826 -0.044941 0.445918 -1.387333 -0.228579 -0.337450 -0.177100
-0.735948 0.609987 0.041410 0.414320 1.884993 0.570166 -0.381969 -0.262587
-0.365799 0.293332 1.523842 1.484356 -0.767640 -0.085802 1.480059 0.145068
-0.308815 -0.259582 0.692439 1.036844 0.243981 0.006078 -0.655062 0.996391
0.162187 -0.092940 -0.216034 0.318950 0.455894 -1.192031 -0.803291 -0.742955
0.308878 -0.249502 0.208534 -0.130392 0.777435 -0.674826 -0.226057 -0.400421
-2.009063 -0.196990 0.781519 -0.069880 1.311270 -1.772321 -0.103737 -0.632768
-0.925986 0.981111 0.277188 -2.379793 -0.817503 -0.879591 -1.400199 0.077143
-0.863925 -0.565753 -0.442777 -1.076526 -0.926678 -0.606541 -0.069473 -0.211147
0.775318 -1.061372 -0.253222 0.396719 1.188284 1.216681 0.391931 -0.913314
1.306286 -0.945002 -0.678697 0.966615 -1.276827 -1.521894 -0.397304 -1.130311
1.216076 -0.724222 0.202386 -0.824491 -0.768777 0.557170 0.538219 -0.215059
0.967351 0.870619 -0.694032 -1.204474 0.205646 -1.283931 -0.584756 0.803832
0.064150 1.666288 0.123387 0.230386 0.491600 0.449196 -0.266789 0.525534
0.499368 -1.335407 0.088054 0.301762 0.130657 0.197180 -0.360516 0.950871
0.969696 0.759918 -0.983338 -0.741839 0.129914 -0.921257 -0.569765 0.456471
-0.261666 -0.365399 0.406549 -0.451387 1.849282 0.212691 -0.236649 1.653847
0.065198 1.617603 -1.427275 -0.975650 0.359045 0.108948 0.239117 -0.057565
0.989539 0.573707 -0.368175 2.204108 0.853629 -0.931817 0.479752 -1.582111
-2.211908 1.738179 -0.541403 1.340100 -0.429697 1.365918 0.716731 0.699797
-0.423224 -0.399449 0.592572 -1.604537 -0.333005 1.566212 0.880691 -0.438898
-0.973061 -1.477807 0.835455 -0.486009 0.753573 -0.841074 0.442048 0.625126
-2.049774 -0.609442 -2.600662 0.322969 -0.225022 -0.651011 -0.426456 -0.767774
-0.453606 -0.704278 1.679639 0.630427 -0.568427 -0.460941 -1.337211 -0.662120
1.010405 2.578803 0.114877 -0.299840 1.156072 0.508752 0.191064 -0.132430
0.459992 1.296807 0.302013 -0.317656 0.014516 -0.456503 0.768788 1.204007
0.058575 1.010714 0.355085 -0.471379 0.836946 0.187056 2.123604 0.488056
0.183555 0.328141 -0.342703 -0.944228 -0.779471 -2.247124 0.822063 -0.463652
-0.519141 -0.437301 1.547007 0.542063 -1.477967 0.618172 1.958020 0.085297
-0.074258 0.453939 -1.721929 -1.233094 -0.253897 -0.080326 -1.719892 0.919723
-0.760110 1.836984 0.229985 -1.429372 1.163391 0.152881 -2.078829 -0.802268
2.024662 -1.444359 0.850685 -0.602545 0.898408 1.774764 -1.165801 -0.049959
-0.550472 -0.100405 0.796193 1.408128 0.014972 0.943190 -1.050326 -0.058052
0.361669 1.356006 1.292595 -0.122992 -0.235275 -1.476988 1.463188 -0.965575
-0.148200 -0.228758 0.802475 -2.995872 -0.200837 -0.734133 -1.244256 -0.341453
-0.576412 0.210035 0.999444 -1.512366 0.973122 0.044478 1.204082 0.030287
0.534814 2.108788 -1.318475 0.591239 0.227875 0.192381 0.265721 -0.863870
0.921079 0.456946 -0.377105 1.492882 0.148611 -0.083179 0.111106 1.506164
0.620031 0.775576 -0.565594 -0.102297 -0.172320 -0.512665 -0.866967 -0.782038
-1.629708 -0.566124 -1.877125 1.474468 1.289721 -0.916272 -0.380920 -0.707469
-1.389555 0.074920 -0.375365 -0.479953 0.849831 -0.634073 -0.317558 0.101754
-1.707909 0.728446 -0.577866 -1.239225 -0.267229 0.614495 0.228315 -1.396967
0.492178 1.543022 0.193575 0.151420 -0.485019 -0.436589 0.535576 0.185736
-1.379932 -1.345136 0.939352 -0.647959 1.313438 -1.008561 0.620541 0.611461
2.448499 1.376250 -1.398067 -0.801990 0.305283 0.551219 -0.802639 -1.636657
1.065386 -0.365107 -0.437065 -1.569298 -0.079806 1.433758 -1.287653 -0.903012
1.549785 -0.433644 0.127850 0.008278 -2.031426 1.514312 -0.398159 1.544572
-0.870760 -0.191513 -0.507021 -0.533272 -1.743365 1.146584 1.738120 1.593918
-1.402595 -0.196392 -0.535358 -0.215945 -0.784023 1.300251 -1.512944 2.730043
0.612260 -0.224616 -1.371096 -1.524025 -0.914551 0.744766 -0.708878 -0.046833
1.770655 -1.483712 -0.477356 -0.026421 -0.970544 -0.331509 0.319623 0.710469
0.154206 0.297795 -0.368077 -0.845014 0.282205 -1.195533 0.750054 -0.404917
-0.409104 2.192519 -0.434860 1.297986 -2.300449 1.052797 1.113435 0.955156
-1.657365 -0.892278 -0.622663 -0.133570 0.547165 1.005153 0.966785 -0.411355
-0.238582 1.012077 -0.082319 -0.641190 0.646592 -0.054140 0.691318 -1.749358
1.073377 0.260914 -1.689592 -0.153922 0.210285 1.505752 -0.929997 0.956977
-0.540698 -0.128990 -1.285744 1.587597 -0.080348 -0.926265 0.613465 0.642123
1.479399 -0.641895 0.459505 -0.338037 1.360677 -1.194940 0.087110 -0.052768
-1.936707 -0.025557 -0.352862 -0.035581 -0.422764 1.014189 0.933909 -0.278288
1.115659 0.539437 -1.374023 -0.004525 -0.412390 -1.187504 -0.103763 -0.029765
-0.494961 2.484875 -0.524875 -0.614691 -0.237517 -0.328120 -0.771009 0.553126
0.076018 -1.105059 0.021370 0.193320 0.476526 0.845853 0.429177 -1.888036
0.115906 -0.480680 0.226236 -0.050573 0.312974 -1.815677 0.729612 0.641397
0.615548 0.088841 -0.736771 -0.072079 -2.006532 0.351525 -0.267664 -0.501715
-1.170360 1.082037 1.247715 -0.463196 0.752961 -0.258297 -0.546739 0.015630
0.117558 0.098332 -1.369617 1.092462 -1.924365 0.208380 1.083230 0.675146
-0.605700 0.020444 0.234815 -0.008791 1.421087 -0.141649 1.176447 1.103988
-0.467825 -0.087971 -1.004503 -0.974874 0.634530 -0.169920 1.600288 0.861045
2.336730 1.208008 0.035248 0.615318 -1.250624 -1.420884 -1.251440 -0.824504
2.168985 -0.099509 -1.152129 0.246101 1.909255 0.797283 1.518157 0.539106
0.146993 0.091977 -0.077410 0.907299 -0.069023 0.569159 0.929684 0.796684
0.078368 0.898555 0.469942 -1.923575 0.320322 -1.140805 -2.214687 -0.233056
0.291509 -0.477937 -0.548728 -1.045828 -1.679162 -1.178387 0.542619 0.370693
-0.768167 0.556234 -3.185305 -0.352579 -0.407905 -2.277788 0.617946 -0.496948
0.955022 0.293942 0.358319 -0.007830 0.362613 -0.106270 0.704510 0.328067
0.810052 -0.115851 0.167806 2.059867 -0.275005 0.474702 -0.775928 0.604918
-0.747817 0.036077 0.401654 0.647205 0.147253 -1.063545 -0.112719 3.234558
0.482274 1.989768 -0.277372 -1.605982 0.066594 -0.808439 1.912176 0.159148
0.071580 0.607357 1.284276 0.533867 -0.314515 1.101114 -1.501238 -0.188138
-0.613947 -0.158095 -1.616037 -0.506284 1.324418 -0.335758 -0.057030 -0.418515
1.773667 -0.233244 0.124337 -1.674619 1.396273 0.228549 -0.878748 0.651006
-0.233865 0.597821 -0.767330 -1.126715 0.633774 -0.955589 1.372650 -1.649052
1.286355 -0.303574 2.238307 0.226919 1.331381 -0.773365 -0.060243 -2.044132
0.251098 0.953243 -2.759026 -0.975229 -0.136942 0.750698 0.206404 -1.222908
0.714527 -2.058944 0.937813 -1.516283 -0.098206 -1.558083 -0.375465 0.032652
-0.047502 1.472647 0.124540 0.946191 -1.204922 1.621779 -1.383636 0.929006
0.625884 -0.274575 -1.002741 0.362691 0.071174 1.637742 1.585880 0.474888
-0.252454 0.485542 -1.031576 -0.869881 0.397955 0.227137 -0.984895 -1.334504
0.022746 0.367963 0.180318 -1.278833 0.108827 0.778615 -0.724973 -0.009001
-0.081081 0.557063 -0.968688 -0.181971 -0.873653 -1.014599 -0.838810 0.080075
-1.988505 1.374558 1.417897 0.434425 -0.432730 -0.539632 0.457890 -1.015091
0.057086 -0.283342 -0.987934 -1.916403 -0.191321 2.018282 -1.471816 1.863005
-0.351884 1.775591 0.777349 -0.238908 -0.081736 0.123118 1.145419 0.288889
-0.531994 0.815610 -0.653437 -1.195221 1.549077 -0.304204 -0.643418 -0.700329
-0.412370 -0.080939 -0.458425 -0.407575 1.290813 -0.784679 -0.905852 -1.363114
-0.613999 -0.110032 -0.287474 -1.200417 -0.849415 0.068087 0.492190 0.249736
-1.086018 -1.162165 -1.240585 0.445213 0.011428 -0.161010 1.494421 0.650186
1.749576 -1.569228 1.320522 1.018546 -0.322681 -1.809880 0.839832 -1.370708
-0.534128 2.244492 1.503570 1.436846 0.633711 -0.414689 -0.195131 -0.870605
-0.740916 0.628812 0.364860 1.358267 -0.027289 -0.652055 -0.880021 -0.618629
0.212758 1.025809 -0.964078 0.029360 -1.402912 -0.482230 1.298604 1.388755
1.170857 -0.390565 1.138840 -1.001111 0.599185 -0.373365 1.737777 -0.196569
-0.697338 0.526628 0.127276 1.830979 -0.982227 -0.439662 -1.219986 -1.764393
0.014125 -0.013247 -0.000294 0.024310 0.577472 -1.176239 1.018734 1.818867
0.087567 -0.102157 1.078372 0.591310 -0.228167 -0.472045 -0.006004 1.064722
0.759009 -0.407595 1.112984 0.042731 -0.935858 1.182652 -0.419964 0.629972
-0.384343 0.106103 -2.057619 -1.577707 -1.070254 2.638128 0.323150 -0.018473
1.498212 -0.823556 -1.336972 0.991980 -1.091568 -1.253536 0.706675 2.653854
-0.280203 0.769122 -0.663064 -0.079207 0.224290 -0.440459 1.759442 -0.709759
-0.877498 0.188870 -0.360265 -0.970021 -0.422666 -1.704939 -0.207154 0.407198
-0.046687 0.298755 -0.698887 -0.088710 0.198261 -0.639302 1.527665 -0.393382
0.104612 0.279869 -2.179536 -0.488203 0.134151 1.297242 0.571604 0.627775
-0.294351 1.261916 -0.297135 -1.309873 -0.433729 3.012427 0.089360 -0.702847
0.828938 -1.123449 -0.024215 0.085850 -2.226743 1.558092 -1.353057 -0.697702
0.061989 -0.233797 0.858002 -0.730287 -0.551966 1.241805 -0.094360 -2.344241
0.211719 -0.531415 0.379390 -2.282359 -0.055577 0.398995 0.563294 -0.869207
0.935001 -0.955645 -0.150036 -0.315553 -0.138720 -0.440808 -0.057275 -0.118203
-1.604381 0.948081 0.388311 0.469471 -0.593706 1.064682 0.635896 0.223012
-0.065797 0.996761 0.681783 0.723014 -0.416500 3.018898 0.549203 0.958563
-0.689578 0.986021 -0.712621 0.441656 0.119815 -0.113012 -1.016123 0.010300
-0.393128 0.034177 0.282066 -1.334274 1.096125 0.550517 -1.101616 1.357431
-1.231724 -0.254015 0.006289 -3.617835 -0.113472 1.582941 1.331505 0.970716
1.142024 -0.002771 0.974112 0.380389 -1.155485 -0.615744 -2.124460 -0.054596
-0.658769 -0.579067 -0.035861 1.542157 0.341903 0.978301 2.187337 -0.368475
0.457592 0.201571 -0.287952 -0.974951 1.380500 -0.181624 -0.144499 -0.496734
-0.233704 1.150566 -1.381403 -0.817384 2.525867 0.124325 0.516888 -0.439648
0.506266 -1.131819 0.240014 -0.286519 0.945724 0.431239 -0.854578 0.769563
-0.534260 0.004427 0.546546 0.641104 1.960480 0.702525 0.336708 -0.232839
1.391068 -0.497786 0.399847 1.506550 0.018675 1.005008 -0.242899 0.598445
-0.202993 -1.188858 0.750736 0.035435 -0.042400 -0.521685 -1.445820 -0.424016
-0.959477 -0.428602 -0.716876 -0.901253 1.153268 0.500719 -1.226379 1.041838
0.519304 2.097151 1.659269 -0.291060 0.609189 -1.824697 -0.257970 -0.729806
0.302082 0.591754 -1.142417 -0.676169 1.231931 0.460282 0.658522 0.563412
-1.076451 -0.760150 1.364578 -0.403494 1.135976 1.274818 -0.000410 -0.332041
0.091589 -1.258922 0.237105 0.346803 1.284993 0.217645 -0.596438 0.571634
0.205223 -0.766278 0.404469 -1.190598 1.077782 0.488120 -0.120478 0.819276
-0.309088 -0.403698 0.553921 1.391794 -0.391829 0.415303 0.621081 -0.267280
-0.658764 -1.089683 0.541479 1.967742 -0.198301 0.704419 -0.187221 -0.931344
-0.431203 1.793101 0.184851 0.610644 -1.771638 -0.895676 0.469217 -0.157484
-0.084429 -0.146551 -0.424293 -0.899691 -0.605969 -0.169586 0.584619 -0.443430
0.875144 1.950274 0.364844 0.011577 0.126771 -1.098794 1.569968 -0.136400
0.299280 1.023465 -0.089053 -1.120434 -0.264975 1.266332 -1.623291 1.028476
-2.393671 -0.679964 -0.614648 1.507050 -0.188352 -0.971268 -1.404873 0.695281
-1.526174 -0.558368 -1.803647 1.642079 -0.134402 0.178826 0.914959 1.522749
-1.604357 -2.713166 -0.013478 0.132116 -1.636073 0.514766 0.566068 -0.123494
-0.904362 1.810300 0.616767 -1.168223 0.919264 -1.683902 1.267283 1.301012
1.105906 -0.200484 -0.190479 -0.622209 0.881823 -0.166074 -0.597566 1.887218
0.846237 -0.663667 1.293350 1.749797 -1.287399 -1.107736 -1.222210 0.025711
0.300255 1.445547 0.177405 -1.787089 -0.093867 -0.625685 0.461506 0.822892
0.716337 1.078157 0.945767 -0.688132 0.505047 -1.897508 -0.676778 -0.335298
-0.020709 -0.052657 0.839851 -0.287862 0.481488 -0.375597 -0.253023 1.581242
-0.199904 0.512348 0.852898 0.509251 -1.648119 1.591705 0.220246 0.557160
1.407827 0.940749 -1.529822 -1.081980 -0.714928 -1.052715 -1.135561 -1.108772
0.872264 1.101069 0.138631 0.145395 1.475039 -0.160579 -1.662109 0.445611
0.540569 0.862414 -0.548107 0.093077 0.540636 -0.812285 1.361820 -0.078322
1.148471 -0.587530 -1.017073 0.048969 0.462481 0.485789 0.478447 -0.005513
-1.597804 1.903300 -1.871022 1.810522 -0.086321 -0.713890 -0.661225 -0.169147
-2.145146 0.773950 -0.304350 -0.889117 -0.613788 -0.142442 -1.745862 0.916340
0.519573 1.311631 1.174445 -0.614315 1.967988 -0.213776 -0.762212 0.463870
-0.999471 -0.670549 0.832930 -0.827658 -0.142498 -0.050030 -0.532772 -1.548212
1.309247 0.627462 0.075680 -0.419517 -1.399006 -0.032702 0.058886 -0.262058
-0.758591 1.793661 0.852508 -0.545645 0.969671 -0.784791 0.930155 1.226506
-0.483312 -1.063594 -0.967231 1.091924 0.772052 -0.889819 1.440226 -0.009854
-0.529195 0.399661 0.349320 0.177732 0.118318 1.451965 1.244119 -0.244908
-1.810723 0.336744 3.135112 0.080060 0.397812 0.788869 -0.585384 0.834684
0.553378 0.886755 -0.753694 1.342115 0.049495 0.544629 1.382983 -0.441258
-1.011025 -0.213962 -0.993314 -1.163786 1.149042 1.233148 1.081533 0.055738
-0.430428 0.152340 0.791256 -0.115422 2.008170 1.081165 -0.864545 -0.301648
-0.996384 -0.668771 0.224607 0.872107 1.947406 -0.125749 -1.971164 1.191938
-0.440131 0.579842 0.010413 -0.737380 -0.433922 -0.688126 -0.346014 0.234030
0.285941 -1.569169 -1.519560 -0.248585 -0.103522 -0.618680 -1.197961 -0.296120
-0.744743 1.622225 -0.855265 -0.140546 -0.566034 0.741777 0.142108 -0.524667
-1.134212 0.494570 1.774249 -0.498604 0.093716 1.449573 -1.304693 -0.170143
0.780657 0.171382 -0.697200 1.147581 -0.144654 -1.314778 0.652439 1.550031
-0.447656 -0.069661 0.093172 -0.022629 0.564816 0.137737 0.318024 -1.201314
-0.227808 -1.875060 0.150078 0.563368 1.299787 -1.095289 0.845031 0.264315
-1.301942 0.370878 -0.131619 -0.011303 0.435988 -0.777372 -0.093490 -1.903789
-0.033839 0.741984 -1.425390 0.483732 -0.273585 -0.895013 1.242722 0.529972
0.694369 1.840787 0.450017 0.873152 -1.670042 -1.184813 0.263924 0.576153
-1.820334 0.667017 -1.290784 0.114060 -0.651104 -1.425880 -1.032010 1.289489
0.256624 0.574999 0.060338 -0.721771 -0.552414 -1.197119 -0.831177 -1.011756
1.403057 1.049558 -0.679580 0.598154 0.722938 -0.755481 -0.136645 0.057284
0.712649 0.611595 -0.526143 1.905468 -0.197091 0.029922 1.383058 0.447385
1.028095 -0.067522 -0.373203 -0.158493 1.155001 1.293771 0.479008 -0.607516
-0.281470 2.246645 -0.744692 0.175516 0.585227 0.072605 -0.146091 -0.561528
-0.927325 1.168385 -0.350844 -1.542668 -0.355986 -1.581944 1.442585 -1.080739
-0.895278 0.839621 -1.514010 -1.317090 -2.030492 1.457256 -0.746037 -0.491604
-0.506990 0.462326 -0.078039 0.945714 -2.097528 -1.063604 0.077972 0.639432
-0.532064 1.216074 0.709985 -0.257377 -0.007310 -1.272036 1.187927 0.817399
1.281636 -1.145165 -0.422283 -0.205806 0.750078 -1.868125 -0.035809 -1.004738
-0.387300 1.153703 -0.109096 0.019539 -0.049830 -0.661048 -0.190987 1.882743
0.374164 0.680272 0.638190 -0.816548 0.237269 -0.178729 0.410396 0.462354
-0.948576 -0.335226 -0.991312 -0.945713 -1.143744 -1.482765 -0.191469 1.607822
-0.817374 -0.808760 1.168809 0.914898 -0.286376 0.634872 0.456254 0.679006
-1.160324 -0.528370 -1.141021 0.970822 -0.333658 -0.633394 0.612625 0.480364
1.290715 0.176167 -1.345375 0.649641 -0.901350 -0.363880 1.478928 -0.160601
0.393139 0.936242 -0.275732 -0.162670 -0.671563 0.112766 1.731531 -0.679326
0.795868 -0.792905 0.644643 0.626678 1.318540 -0.190881 -0.705519 0.534558
1.089601 0.098607 -0.526489 -1.049084 1.023758 0.630098 -0.446259 -1.517081
0.883106 -0.214485 0.258752 -1.628430 0.028410 -0.294981 0.799274 -2.002319
0.560791 -0.047509 -1.011747 -0.380438 0.652823 0.195793 1.035169 -0.447849
-0.176154 -0.860503 -0.574399 0.053873 2.681519 0.997269 -0.523080 1.729996
-0.670738 0.930143 0.683413 0.470403 0.935792 0.826279 1.611120 -0.390488
-0.132156 -0.392655 0.237484 0.467057 -1.974760 0.333144 -0.239925 0.252568
-0.098365 0.606606 0.368756 -0.337175 -0.947735 0.292957 0.591946 -0.717011
-0.307415 -0.259642 0.428630 -0.546963 -0.516405 0.111280 2.214458 -1.209653
-1.379587 -0.513295 -0.495238 0.735935 1.430478 0.412869 -1.419142 0.311042
0.661416 -0.712891 -0.799479 -0.762451 0.681224 1.018888 -0.415641 -0.100747
-1.025230 -2.235488 0.637963 -0.593624 0.240670 1.388106 1.171907 -0.726941
0.011811 0.419734 -0.213942 -1.415924 -0.051094 -0.455795 1.081886 -0.038992
0.987515 -2.006567 0.286283 -1.190285 0.143208 -0.812444 2.292035 0.900535
-0.645813 -0.755708 2.240557 1.822971 -0.498453 -1.361605 2.023545 -2.146715
-0.215577 -0.848184 -2.526090 -0.208642 -0.024953 0.936922 -1.465805 2.459033
-0.065807 0.823200 0.416548 0.244510 0.218917 -0.559829 1.462946 1.025471
-2.147515 -2.191199 1.277049 0.293494 -2.113921 1.596937 0.464452 -0.654660
0.046169 0.694469 0.610310 2.223908 0.155492 -0.562209 -0.520038 2.529549
-0.481325 -0.542432 0.195600 0.696113 -1.037668 0.458470 -2.164845 -0.584753
-0.411885 0.012291 -2.642207 0.618090 -0.508633 1.610727 -0.985240 -0.717932
-0.952108 0.600759 -0.219447 0.529168 0.523424 -1.302796 -0.533024 0.372729
-1.424999 1.312290 1.810084 1.455974 -0.927642 0.325643 -0.793758 0.053787
-1.504288 -0.875880 -0.515375 -1.011119 -0.316309 -0.391838 -0.012119 -0.704104
0.330058 -0.696634 -1.138135 0.364521 0.123968 0.058996 0.528072 -0.545237
0.569839 2.672315 -1.086076 0.984273 -0.748704 1.142525 -0.900554 -0.098283
-0.273421 -1.150095 -0.105493 -1.356647 -1.099973 -0.088547 -0.134051 -0.705202
-1.243178 -0.483409 -1.110188 0.921352 0.052283 0.936190 1.101111 -0.011909
-1.458863 0.392531 -1.892392 -0.200090 0.553368 0.491756 -0.590568 -1.541223
0.517704 -0.695641 -0.866563 0.775196 0.991405 -2.054966 -0.630359 0.690102
0.157137 -0.585302 -0.012032 -0.054687 0.304387 -0.396187 1.110104 1.254889
-0.931236 -0.391125 0.523289 -1.403371 -0.218185 -1.172928 -1.577827 0.875973
-0.502596 0.843521 -1.292449 0.002832 0.949826 -0.667419 0.659045 -1.156387
0.074077 0.383317 0.242215 -1.823723 0.083030 -0.403838 -1.461785 -0.674623
-0.201407 1.042762 -0.686947 -0.353579 -0.029732 1.729482 -0.237992 -0.623493
0.632904 -0.349866 0.340442 -0.996975 -0.665269 -0.974732 0.495918 -0.362761
-0.331586 -0.380129 0.416373 -0.063526 0.998755 0.465501 -0.373388 -1.490937
-0.755185 -1.088680 0.161191 0.486216 1.045031 0.124387 -1.672411 -1.375353
2.463906 -0.870579 0.334447 0.070542 0.487668 -0.473894 -1.329297 1.894470
-1.299721 0.292940 0.652422 0.516042 -1.218933 -0.382324 -0.395751 0.262720
-1.457744 1.865977 0.501540 -0.834531 0.792484 -0.294927 -0.254452 0.610211
0.250566 -0.260374 -1.152192 -0.665019 0.245269 1.196735 -1.163325 1.282768
1.276191 -0.857166 -0.418682 -0.728956 0.729088 0.019368 -1.143999 0.906966
-0.440363 1.229139 -0.431956 0.905276 -0.529855 -2.095419 0.128371 -2.100264
-0.475608 -0.653882 -0.386318 -0.047183 1.371897 1.223217 -1.509673 0.204978
-0.123569 0.622548 1.379488 0.306704 -1.995545 -0.296164 -1.964248 -0.812890
-0.524133 1.145993 0.508364 1.360209 -0.891937 1.391736 -0.539200 -1.098466
1.477645 0.374767 -0.158594 -0.412555 -0.053814 0.461890 -0.071567 0.127623
-0.664706 0.253647 -0.296741 -0.536642 -0.007994 0.731889 0.011215 -0.441506
2.065226 -2.675970 -0.861931 -0.469517 -0.721998 -0.409370 -0.721414 -2.405810
-0.321605 1.136668 -0.523348 0.451724 -0.496147 -1.160327 -1.543419 0.422781
-0.167362 -0.143032 -1.066663 -2.073642 -1.507498 1.691921 -1.394468 0.650379
0.191699 0.558569 1.934314 0.565475 -0.230402 0.336891 -0.831071 0.840153
-2.573756 1.107145 -0.794024 0.076604 -0.203945 1.267023 -0.706134 -0.003590
0.828897 1.329867 0.581288 -0.027521 -0.201633 -1.809800 0.028641 -0.239557
0.757094 0.859632 0.020218 0.498242 0.283448 0.618322 -0.890844 1.280320
-2.931839 0.827289 0.223975 0.898652 0.211915 0.327283 -0.765352 -0.996753
0.011725 0.041238 -0.109621 1.806458 -0.543135 1.171234 0.824431 0.079620
-0.781572 0.804910 -0.163859 -0.333948 -0.484774 -0.047225 -1.043941 0.766744
0.317201 -0.086193 0.588850 -0.336081 -1.167821 -0.802345 -0.417319 -1.078210
-0.450049 0.336881 -0.209030 0.978328 -1.513837 -0.594573 0.459375 0.609667
-0.420037 0.111659 0.911873 0.738161 -1.335921 -0.199236 0.194270 1.001251
-1.179883 -0.804623 0.409259 -0.378898 -0.054399 -0.401105 -1.024415 0.838049
-0.174300 0.647969 -0.329481 0.663234 -0.146801 -1.031811 0.577157 0.754617
-0.137519 -0.786428 1.333942 0.429151 -0.761378 -0.266366 1.904111 -0.244883
0.381596 1.248163 0.556123 -1.784933 -0.258594 -2.190092 -3.927196 0.969526
-0.062414 -0.203273 -0.186150 -1.389746 1.601923 -0.130668 -0.250827 1.550430
-1.090549 2.183119 -0.534447 -1.957437 -0.029438 -0.996911 -0.061008 -0.044247
1.999107 -1.222755 0.332697 -0.693631 -0.231090 -0.079515 0.909329 -1.290721
0.844397 -1.913908 0.857673 -0.846974 -1.087545 1.094386 -1.422596 -0.137834
0.319629 0.824151 -0.821965 -1.470545 -0.177069 -0.603222 0.306675 -0.959353
-0.730239 2.161911 -1.744972 -1.182739 0.566077 -0.054156 0.334519 1.481015
1.029646 0.554760 -0.576054 -1.157009 -0.059994 -0.632345 0.238579 -0.463080
1.148234 1.310884 -0.487641 -0.369997 1.082537 -0.345995 -0.127101 1.062386
-0.783653 0.940464 1.351752 0.671733 1.740901 0.953804 -1.344494 0.645596
0.343601 -0.968959 0.136809 1.314844 0.791648 -0.564483 0.514399 -0.180461
-0.468524 0.969636 -1.546465 -0.237010 0.198515 -0.493971 -1.029065 -0.339974
-0.397738 -0.443312 1.104423 0.033333 0.058862 0.370341 -0.306226 -0.171371
-0.784136 0.619613 0.315785 -1.515386 -0.448804 0.056657 0.067144 -0.765699
0.192584 -0.241870 -0.591670 1.060302 0.438678 1.040837 1.177697 0.395193
-0.533709 1.371190 -0.126573 -1.027615 0.356701 2.018722 -1.110633 0.836700
-1.649588 0.523089 0.103265 -0.440074 -0.169534 -1.472344 0.386993 -0.178868
0.809931 -0.489342 -1.422829 -0.748407 -0.407828 0.901243 0.316213 0.587865
1.106110 -0.266919 -1.979185 0.613993 -0.696397 0.267791 2.525645 -1.421160
-1.947924 -1.377324 0.553786 -1.499186 0.669464 0.191628 0.128788 -0.999812
-1.449805 -0.166519 -0.211405 0.203634 -0.105911 0.176098 0.764998 -0.483114
1.143596 0.325013 -2.199910 0.248715 1.806772 1.247381 1.363734 -0.734573
1.388126 -1.252593 -2.079214 -0.625683 -1.862096 0.524067 -0.114855 0.670493
0.520225 -1.325245 0.454274 -1.033325 -0.716006 -0.870058 1.663213 1.327732
-0.216088 1.681537 0.600173 -0.798961 0.808520 -0.142936 1.087096 -0.357765
0.352517 0.843334 0.815844 0.597803 1.727481 -0.552414 1.213948 0.529535
-0.471001 0.783882 -0.880933 0.115871 0.162481 -0.218858 0.295897 -0.301688
-1.880908 -0.279445 1.841761 -0.949191 1.109080 0.335858 -0.005710 -0.995735
-1.648296 -0.603308 0.349947 -0.308727 -0.807120 -0.412474 -0.986771 -0.141150
-1.314015 1.038304 0.405937 0.970434 0.021997 -1.251539 1.345886 -0.537241
-1.255609 -1.345907 0.207333 0.336821 0.236461 -0.572392 0.215477 0.333533
-0.818146 -0.357432 0.877426 -0.030461 -0.685160 0.827418 1.634400 -0.477813
-1.907193 0.234512 -0.378062 1.000912 1.664764 -0.263336 1.249846 -0.587760
1.659751 -0.072026 1.586821 -0.002584 -0.572627 -0.785704 1.300580 0.996728
0.203221 1.293638 1.541783 0.099003 -0.694087 -0.155349 1.268684 2.621794
-0.264903 -1.001769 -0.276320 -0.052905 0.150236 -2.132048 1.527216 0.615177
-0.287274 0.674687 0.329928 -0.503406 0.456323 -0.102024 -1.308200 0.244103
-1.985731 -1.527814 1.590022 1.066738 0.532883 -0.693007 -0.263622 0.152964
0.917964 -0.904109 -0.033718 -0.176809 0.631373 -0.349737 0.673113 -0.146300
-0.138471 1.306524 -0.366225 -1.516815 0.592407 0.628782 -0.206008 -0.054472
0.776157 0.795011 -1.519070 -0.615213 0.189725 -0.104831 -1.029977 0.060403
0.911466 1.700287 -0.544604 -0.767811 -1.349622 -0.678341 -0.224883 0.521068
0.693587 -0.663000 -0.602381 0.995238 0.168873 -0.172353 -0.455337 -0.880518
0.388357 -0.067935 0.951536 -0.572927 -1.086866 0.932301 1.583047 0.622228
0.049997 -0.620662 0.927068 0.343557 0.143170 -0.174605 1.022255 -0.211586
0.924452 -0.286030 -0.210755 0.912195 1.660798 0.339578 1.336040 -0.638113
1.742007 0.476638 -1.155870 0.888617 0.237754 -2.380230 -1.264633 -2.069135
-0.938839 -0.187490 -0.928891 0.692398 1.176536 -0.836136 -1.989389 1.184577
1.511351 -1.581692 0.950137 -0.564289 0.385510 -0.400744 0.558505 -1.862112
0.052677 -0.273646 -0.131021 0.695068 1.590615 1.026063 -0.259732 0.109353
-1.092122 1.326020 -0.119490 -0.179077 -2.046311 0.285123 1.719174 -0.377749
-0.146896 -1.222700 -0.936047 0.856602 -0.529362 -0.964738 2.239974 -1.920363
1.096172 1.573866 -1.443112 0.434439 -0.292012 -1.114488 0.051563 0.623605
-0.361615 2.485572 0.534581 0.747269 1.373234 0.789757 0.105966 -1.063269
-2.769623 1.708887 0.345219 0.790089 1.190605 -0.519818 0.850057 0.439790
-0.565489 -0.528118 -0.770503 0.064785 -1.008148 0.330733 1.705485 -0.078864
0.624808 0.117358 -2.032448 0.726308 1.302285 0.444800 2.455210 -1.465769
0.033382 -0.545813 -1.229563 0.455097 2.069920 -0.109379 -1.251385 0.872489
1.147995 -0.252136 -0.655104 -1.443863 -1.292931 -0.840827 -0.623428 0.648490
-0.279614 -1.380633 0.494351 0.264833 1.853926 -1.867947 1.314304 -0.452786
-0.061037 -0.350595 -0.372312 1.001652 -0.745783 -0.340402 -0.052494 1.205903
0.553800 0.763205 -0.504376 0.459563 1.038499 1.440468 -0.236691 0.574925
1.722936 -0.353777 0.240102 1.888493 1.107317 2.647521 1.499319 0.481014
-1.544889 -0.456243 0.962869 0.764049 -0.204010 0.828232 0.146861 -0.594576
2.323796 1.257729 1.035471 -0.078689 -1.123127 1.678016 1.001522 2.022297
0.126943 -0.147463 -0.514680 2.635399 0.595935 -0.103006 0.745145 -0.295455
0.536617 -0.281081 0.183162 1.088046 -0.897108 -1.007369 -0.585057 -2.090832
-0.222679 0.752295 -0.491826 -1.730979 0.575919 -1.821082 0.770735 0.421633
-1.327569 -1.325973 0.425123 -2.110220 0.158489 0.711577 -0.285928 -0.121754
0.179579 -0.013115 1.173036 1.506374 -1.329724 0.241247 -0.988248 0.034178
0.944485 -1.347276 2.133872 -0.289482 0.228528 -0.424537 1.219020 1.281653
1.945933 -0.804524 -2.588084 0.845007 0.667578 -0.542109 -0.090740 1.158358
-0.196940 1.542310 1.638387 -1.167571 -0.206067 -0.582136 0.071165 -0.225975
-1.628587 0.226835 0.300325 0.583123 0.104968 0.216146 0.530180 0.677944
1.566323 -0.430086 -0.636078 -0.917221 -1.473748 0.542396 0.683877 0.999511
0.991732 -0.857637 -0.555033 2.288332 1.251483 0.035282 -1.050907 0.571087
0.167924 -1.928776 0.921699 0.939838 1.656855 -0.116281 1.082152 -0.479460
0.923222 2.659060 -0.750107 0.206863 1.369174 -0.379751 1.770457 -0.198385
0.390628 1.120179 -0.170559 -2.692975 -0.531338 0.291029 0.350820 -1.607759
-0.679423 1.146867 1.761964 -1.245605 -2.193000 1.790882 1.260928 1.639997
-0.957839 0.296911 -0.668156 -0.213582 0.874728 -1.172358 -0.451962 1.132511
-0.655029 0.616332 -0.640831 -0.899425 0.733892 -0.263441 -1.690660 1.012651
-1.279341 0.083143 -0.811983 -1.021505 -0.204441 0.594579 0.163443 0.111711
-0.605340 -0.614646 -1.494026 1.047830 -0.260745 -0.981503 -1.082858 -0.696180
0.456927 -0.703637 1.883800 -1.288145 -0.899242 0.163005 0.827898 -0.312760
1.543702 -0.489688 0.370861 -0.891803 0.345421 -0.410672 -0.125404 -0.716036
-0.766095 1.300199 -0.818558 1.270070 -1.156351 0.404442 0.349549 -1.023870
0.251801 0.681825 -0.373469 -0.801546 0.935293 2.764344 0.030923 -0.809014
-1.556122 0.249291 0.906978 -1.216821 0.969351 -0.721635 0.465823 -2.111995
0.293001 0.904079 0.020161 -0.068953 0.118301 0.665804 -0.892905 -0.778309
-1.068223 0.521986 0.096961 -1.425013 0.471232 -0.775549 1.093926 0.291198
-2.591243 0.542427 0.000527 -0.893891 -0.102991 -1.602366 2.136558 0.907400
-1.107964 -0.792801 0.329796 -0.178375 1.405236 -0.876645 -0.115342 -0.359797
0.669449 0.992609 0.477285 -0.273923 1.096433 0.213634 1.641089 -0.131299
-0.138261 -1.233975 2.462220 0.874664 0.971099 0.036923 0.589502 -1.083492
-0.590999 0.009318 1.723261 -0.913035 -1.105701 -1.756986 -1.942593 0.127973
-1.674625 0.576862 0.705342 0.038598 0.920865 -1.485030 -0.585607 -0.375795
-1.399944 0.091148 -0.389788 -0.658067 0.797037 -1.421932 0.920372 -1.118144
-0.267112 -0.267808 -0.379745 -0.339122 -1.443943 2.190775 -0.078767 0.085867
-0.092416 -1.522912 0.172102 -0.755247 -0.334109 -1.410702 0.872391 0.116812
0.087774 -0.002975 1.846147 1.648271 1.201273 0.657427 1.427448 -0.873920
-1.120205 0.475043 0.353170 -1.417225 0.171044 -1.028334 -0.604451 0.751073
-0.167278 2.103343 -0.618731 0.050436 -0.815973 1.249473 0.734704 0.031349
-1.347770 1.370232 1.718350 -0.535807 1.026178 0.045627 0.112438 2.348407
-0.413262 0.631549 0.664552 -1.189314 -0.441559 1.121463 -1.614250 -1.358609
2.025885 1.902188 0.280027 1.051715 0.304047 0.068254 0.273562 0.192218
-1.319661 -0.145463 -0.288523 1.669084 -1.288335 -0.502401 -0.178427 0.942606
-0.808084 -0.067056 1.367698 -0.309994 -0.119874 -0.569697 -0.375438 -1.003465
1.925993 -0.929102 -0.462530 -0.386257 1.031986 0.298108 0.927368 -0.343331
0.893204 -1.165154 0.404322 -0.408828 -0.674090 -0.907899 0.402263 -0.238206
-0.565283 -1.092484 0.994239 -0.051800 -0.324387 -0.143855 -1.345797 -2.431005
0.870583 0.710801 0.869322 -0.929837 0.179269 0.257503 -0.246049 1.148304
0.044441 0.524229 0.899359 0.393476 1.193180 -0.151093 -0.031645 2.076467
-1.419605 0.075390 1.109096 -0.841160 -0.752775 -0.499355 -0.403382 -1.530415
0.644220 0.617156 -0.533864 -0.493281 0.611106 -0.713788 0.231752 -1.278808
-0.747993 1.014095 -1.281081 1.388314 -0.089869 0.082473 0.720072 -3.292686
2.085943 -1.186145 1.543931 -0.836296 -0.819930 -1.093921 0.796055 0.317147
2.238328 0.444524 0.819571 -0.133778 -0.114330 -1.231914 0.769926 0.685562
1.162165 0.322015 -0.299588 -0.068332 0.211087 1.491567 -0.074721 -0.988945
1.619572 -2.262061 -0.506353 1.075143 -0.133304 -0.854856 -0.089082 0.536414
-0.954484 -0.651408 1.064085 -0.542718 1.275772 0.059670 0.401356 2.284343
0.507275 -0.220929 -0.874146 -0.374085 0.891883 0.510357 1.578251 -1.880210
-0.004521 -2.995665 2.245300 1.631497 -0.139876 0.744861 0.845463 0.687000
-0.595782 0.709274 0.330338 0.832313 0.074938 -1.758603 -0.838628 0.198566
0.767568 -1.625780 -0.256464 0.333702 0.593746 -0.912441 -1.069667 0.775262
0.874235 1.128490 0.303737 -0.087544 0.997322 1.226571 1.518356 0.035685
-1.165921 -0.263510 0.590076 0.325607 0.644257 -1.042339 0.388860 1.405368
0.124662 -0.797800 0.775200 -0.895661 -0.304401 -1.124870 0.733092 -0.827829
0.363672 -0.633436 -0.682139 -1.671199 -0.289986 1.149285 0.345257 -0.984592
1.385480 1.453394 0.353833 0.135817 1.341322 0.977887 -1.481410 0.575896
-1.286600 0.800926 2.150979 -0.665751 -1.008473 -1.723781 1.504111 0.504306
-1.408612 -0.508424 1.641049 -0.578844 -0.484539 1.323512 -0.061957 0.656316
1.263978 0.763716 0.914659 -1.108511 -1.284871 -0.177507 1.270522 0.315548
-0.086985 0.676706 1.084279 -0.201874 0.834725 2.296492 -0.350892 -1.139680
1.185018 -0.206921 1.629089 0.417542 0.420010 -0.466967 -0.967770 1.725380
-1.067854 0.561409 -0.112641 0.389382 -0.219446 0.671652 0.728563 -0.357010
0.238094 -1.085454 -0.518712 0.000166 -1.503173 1.796425 -1.042269 2.842414
0.595167 -0.085135 -2.816137 -1.311774 0.699593 0.521718 0.195978 -0.352449
0.335587 -0.100024 1.190222 -0.536969 -1.292408 0.059458 -0.239087 1.249752
0.514938 -0.757722 0.894651 1.230728 1.563815 0.380905 -1.265464 -1.138397
-0.731316 0.163832 -0.289251 -0.937746 0.620071 -0.357614 -0.136623 0.238148
0.503440 -0.218061 0.698354 0.061690 1.370281 0.711244 0.568994 0.370179
0.727282 0.796294 -1.051115 -1.001298 0.074860 -0.779685 1.045390 -1.608967
0.575963 1.585241 0.107684 -0.019320 -0.342659 0.512152 0.530231 -1.403505
-1.122042 -1.263107 0.915237 1.634050 -0.808915 1.357172 0.764165 -0.656105
0.393963 -0.415195 0.390370 -0.086600 -0.513645 -2.215999 0.337946 1.824267
-2.475250 -0.009735 -1.084499 -0.614068 -0.794739 -1.160105 0.606093 0.171773
-0.373376 -0.015726 0.147267 -0.853389 -0.447662 -0.903059 1.912909 -0.119114
-1.633171 0.893010 -0.250452 -0.292645 0.011112 -2.000384 1.022794 0.328188
1.904038 -1.836099 -0.078863 -1.250116 -0.230113 -0.060644 0.467888 0.026438
-0.824804 1.112181 0.924458 -1.693562 0.368309 -0.609194 -0.808938 0.061165
-0.490793 -0.398029 -0.390446 -0.445868 1.180497 -1.320795 0.332475 -0.651983
1.328161 -0.731122 1.440605 0.164141 0.277019 0.452030 -0.115939 -1.363513
0.134209 0.146494 1.926935 -0.654743 0.443098 -0.659193 1.805993 1.020952
0.539286 -0.208838 -0.102388 -0.712166 0.360563 0.477177 0.223130 -0.636563
0.670431 0.921473 -0.196722 -0.019025 0.661636 -0.417036 -0.268290 1.404982
0.196572 -0.507490 -0.908642 -0.904145 -0.045311 -0.372330 0.575258 0.331160
0.295569 0.800953 -0.181827 -0.442269 1.084491 -0.102638 1.493764 0.289021
-0.473249 0.313925 -0.389052 0.668541 -0.410311 1.002381 -0.080865 0.289084
-0.449109 0.334767 0.038934 -0.926238 0.216414 -0.773307 -0.277592 0.101192
-0.258671 1.172754 -0.558946 0.854719 0.557749 0.731807 -0.846127 0.759775
-0.184519 -0.849526 0.434453 -0.780007 0.053578 0.001823 0.423910 0.828464
0.224287 0.517591 -0.479847 -2.768886 0.741554 -1.444389 0.803075 -0.705604
-0.156127 0.007860 1.266949 -1.336322 1.239063 0.181289 -0.152174 0.720431
-0.180625 0.086517 -2.795660 1.000327 0.001767 0.169006 1.950840 -0.114655
0.535479 -0.636551 0.058837 -1.349716 -0.752449 0.181392 2.032545 -0.040215
0.113278 -0.030314 1.329303 -0.802895 0.242748 0.061341 -0.732858 0.305424
-0.887353 0.677038 0.519772 -0.627036 1.825109 -0.083548 -2.281147 0.164520
0.561522 0.433844 -1.381354 -0.150471 1.338843 -1.180656 -0.975740 1.055188
0.003225 1.079394 -0.177912 1.252229 -0.585594 0.363347 -1.661141 -1.348270
-0.666584 0.181616 -1.621619 -0.592851 0.063896 -0.318113 -1.383823 -0.164986
0.324136 0.557072 -1.138234 -0.991526 -1.185372 -1.034330 -0.577433 1.374753
1.335850 -0.594391 -0.527921 -0.026844 0.376986 -0.951425 0.084218 -0.770830
2.042791 -3.289525 -1.442255 0.713648 0.682131 -0.975646 -0.636795 0.029561
0.683730 -0.337029 1.218068 0.912365 0.588446 0.245866 -1.626634 -1.102253
-0.252271 0.484584 0.145787 -0.837816 -0.850855 1.004351 -0.340788 0.781904
0.454006 -0.065764 0.510966 -0.799853 0.552867 -1.141101 -0.155137 -2.364990
-1.572167 0.880505 -1.017399 -0.641981 -0.518184 0.042131 0.825769 -0.578589
1.117822 0.547142 -1.038592 -1.067370 -0.358357 -0.374032 0.661052 1.376025
1.126990 0.413466 1.126391 -0.016581 -0.237682 0.873194 0.304323 1.863393
-0.064534 -0.336224 0.831303 0.860479 -2.477182 -0.268699 -0.432504 0.833608
0.777707 -0.875391 -0.548208 -0.576948 0.151272 0.669551 0.859032 0.174286
-0.012748 0.491176 1.399997 0.170887 1.455486 0.407312 -1.153111 0.882457
-0.728825 0.464400 -0.767477 -1.097027 0.157405 0.597746 0.119634 2.072672
0.347632 -0.461084 0.835988 1.253125 0.969157 0.963039 -0.776657 0.322239
0.347043 0.030419 0.151116 -1.527561 -1.320024 1.068932 -2.502365 0.348409
-1.139213 2.187983 -0.624810 -0.506887 -0.202264 0.435454 -0.787486 0.288352
0.413579 0.312578 0.770406 0.822421 -0.853764 2.001996 -0.664719 0.563081
-0.044533 1.713393 -0.904179 -0.479260 -0.567303 0.623357 0.930200 0.313944
0.389415 -0.352561 -0.784833 -0.385348 0.649890 -0.171724 0.364475 -0.063251
0.244481 0.122282 -0.396470 0.173394 0.020329 -0.671506 -0.223971 -0.573423
0.670290 1.187455 0.835251 0.371715 0.277572 0.482226 0.063072 0.202972
0.502480 -0.706595 0.991061 -0.211394 -2.283773 -0.236273 1.157133 -0.025346
-2.226848 -0.859555 0.668297 -0.754795 0.640167 0.255284 -1.626092 0.210261
-0.193816 0.141186 -1.016851 2.321123 -0.439200 -1.029901 -0.543664 2.270023
-1.382301 -0.953029 0.063615 -0.732340 -0.810407 0.086315 1.294377 -0.652918
-1.781811 0.123322 0.665430 0.578700 0.958158 -0.115568 0.623371 -0.747870
-1.773272 -0.992384 -0.054133 1.296442 -0.658809 -1.677187 1.224619 -0.382550
-1.713048 0.823507 -0.611559 -0.385649 1.477908 0.003661 -0.796474 0.292142
-0.980174 0.600975 -1.185700 0.613335 -0.083486 0.228078 0.790869 0.826448
-0.658953 -0.565400 -0.923183 -0.320985 -0.250720 0.026588 -1.328629 0.288730
-1.214052 -0.223043 -0.046685 -0.539092 1.041388 -0.735853 -0.504384 -0.095183
-0.863677 -0.918780 0.172060 0.777729 2.092235 -0.653513 -0.269463 1.613204
0.763773 1.172625 -0.174295 0.806810 0.841125 0.183970 -0.159953 -2.127409
-0.175073 1.227407 1.133511 0.978642 -0.266901 -0.246453 1.865438 -1.401815
0.737767 1.341410 -0.783990 -0.402878 -0.266526 -0.160437 1.018019 -0.578463
-1.779081 -1.333946 0.330041 -0.819090 0.011771 -0.412157 0.433204 0.462134
-0.694109 0.156040 -0.442564 1.345884 1.607861 0.272357 -0.093245 -0.718508
0.585282 2.032552 -1.614727 -0.745361 0.020457 -0.662350 -0.315146 -0.042002
-0.405320 1.243262 -0.871984 1.028853 -0.886875 0.639081 0.322582 -0.560419
-0.154442 -0.358843 -1.608236 -0.397299 0.120769 -0.898089 0.575354 -0.819370
-2.578540 -0.696365 -0.061406 -1.573380 0.033964 1.317682 -0.113494 0.113585
-0.733008 -1.160469 0.684232 0.423815 0.262263 -0.739205 -0.635919 1.943021
0.279540 0.930780 0.369081 1.205625 0.694486 0.911839 1.816226 -1.055221
-0.852673 1.435573 -0.414256 0.239911 0.113682 0.049046 0.793752 0.286682
-0.167598 -0.941994 -0.812556 -1.020001 -1.085313 -1.570158 -0.927909 -0.347640
0.018501 -0.669469 -0.171727 0.597513 0.452255 -0.504805 0.054203 0.183353
1.876192 -0.316417 -1.793480 -0.294120 -0.901684 -0.386058 -0.522954 1.239862
-0.385925 0.198824 0.827859 -0.662718 -1.596697 0.355982 -0.039381 -0.034450
1.149130 0.094403 0.204451 -1.013414 -0.598376 -0.046787 0.135642 0.720807
-0.097903 0.148379 -0.183827 -1.391383 -0.390925 -0.179798 -1.287205 -0.777003
0.042702 2.166962 1.378632 -1.432405 -0.536154 2.570779 -0.147871 0.857866
-0.461340 1.584743 -0.495245 -0.044609 -0.253400 0.627850 -0.573819 0.755514
-0.903177 1.300866 0.621028 1.389420 -0.340590 -0.828562 1.334628 0.450411
0.222742 0.252594 -0.022460 -1.879070 0.165681 1.119371 1.009020 -0.151017
-0.256086 -0.853657 0.220207 -1.467371 0.806268 -1.938485 -1.199577 0.791105
0.845003 2.001285 -0.127759 -0.081013 0.168809 -0.005157 0.288666 -0.427582
0.369379 -0.565838 -1.135120 1.216909 1.211219 -0.200325 0.127789 -0.299517
0.284525 -1.000665 -1.745568 0.516121 -0.017214 -0.195936 -0.350988 0.765952
-0.723085 -0.137828 0.076684 0.654814 -0.150705 -1.081445 -0.264876 0.658940
-2.065026 -2.266817 -0.205073 -0.246680 -0.496694 0.749263 -0.401505 -0.094078
1.540037 -0.141576 1.326522 1.009814 0.554759 0.289744 1.521614 1.239450
-2.243271 0.079477 -2.129984 0.183884 -0.663260 -0.265975 0.561173 0.881953
-1.223163 -1.034553 2.825274 -1.209005 0.439152 1.390805 -0.319358 -0.698002
-0.673833 -1.312770 1.131574 1.178313 0.308809 0.555511 -0.041077 0.161884
1.338968 1.710780 0.038851 -0.507964 -0.823655 0.440463 -2.188441 2.142983
0.044480 0.666174 0.245163 0.592084 -0.226661 0.096654 0.920524 1.558853
1.767697 -0.089228 1.202486 0.147752 0.213055 -0.147579 0.504658 -0.873181
1.913441 0.719141 0.455627 3.292982 0.438010 -1.263022 -2.334294 0.783337
1.945509 0.719156 -1.444639 0.060614 -1.112404 -0.036472 1.298762 -1.080287
0.692563 -0.016625 -0.782155 0.040779 -1.178904 -0.139106 1.376567 -0.217847
-1.136580 -0.480269 -1.763680 -1.222744 -0.013041 -0.024821 -0.133013 2.246226
0.323098 0.397281 -0.634013 0.441758 -0.804008 1.741207 -1.876826 -0.409435
-0.992650 1.516125 0.173893 -1.500711 0.163870 1.204758 0.098099 3.116452
1.429059 -1.203566 -0.416090 0.206061 -0.464520 0.118298 0.873772 1.019736
0.390902 -1.589380 0.675620 1.440370 0.248580 1.220450 -0.057819 -2.004641
1.250160 0.803239 0.965341 -2.175532 1.024115 0.527813 0.631925 -0.125002
0.152857 -1.304960 -0.928335 -1.921974 -1.683996 1.097550 -0.103400 1.772074
-0.518124 0.242888 -0.051737 0.917889 0.108599 1.125968 -0.716725 -0.457983
-1.139592 0.585615 -1.569598 -1.190211 1.112275 1.762632 -1.665743 -1.239518
1.190377 1.632556 1.721360 -1.616660 0.993350 0.395293 1.110501 -0.700759
-1.935547 1.064983 0.504879 1.185489 -0.585039 1.301530 -0.361411 0.396894
-0.206825 -1.743919 -0.062251 0.294038 -0.148969 -0.222494 0.477328 -0.179576
2.651632 -0.805506 1.104349 -1.829044 -0.451947 0.260421 1.341880 0.598310
0.085410 0.473964 0.851963 -0.092866 0.076602 1.406322 -0.476906 0.919648
1.833782 1.154397 -1.591676 -1.099063 -1.542553 0.117156 -1.382893 -1.354449
0.139630 1.498065 -2.085713 0.915342 0.975504 0.819273 0.057344 2.035128
-2.218562 1.672658 -1.424557 0.488585 -0.849852 0.985816 -1.688411 0.313781
1.559758 0.758341 -0.016675 -1.504132 -0.117005 0.032590 -0.633972 2.199676
1.291193 -0.328367 -1.745332 0.130790 1.269034 0.066546 1.196407 0.727892
1.000177 2.017653 -0.412570 -0.597199 0.519517 -1.170326 -0.035421 0.276155
-0.492044 -0.240684 0.640163 1.099366 0.216012 -0.533422 2.172931 0.088858
0.007123 -0.953723 -0.494445 0.430655 -0.067634 -1.148381 1.390039 -1.750474
-0.370030 -0.175035 -0.899800 1.135822 -1.181131 0.444463 0.080387 2.064268
-0.975612 0.119741 -0.165652 -0.514840 -0.030717 1.047292 2.162470 0.038372
0.298154 -0.708924 -0.122988 -0.874007 -0.156448 1.578014 -0.777024 2.009754
-0.398289 2.879285 0.482992 0.420741 0.239678 0.650621 -0.149693 3.144120
0.660253 -1.298218 0.981448 -0.279315 1.371478 2.196172 1.075755 -0.346246
0.210080 0.620814 -1.260410 -0.142381 0.300385 -0.294931 1.135682 -0.393495
0.346865 0.466514 -0.762426 0.665746 -0.224720 -1.908188 0.558668 -0.663345
0.586272 1.213382 0.292724 0.483470 0.860009 0.608296 0.759416 -0.577096
-0.677849 -0.824688 -2.407706 0.237049 0.603317 0.437524 0.491920 -0.968263
-0.972057 -0.897725 0.781633 -0.502930 -0.863893 -0.507792 -0.413317 -0.054706
0.457743 -0.958052 0.893534 2.152811 -0.236466 -0.395051 -0.405908 -1.463119
-0.838938 -1.637356 -0.992706 -0.568802 1.077596 -0.555385 -0.144189 0.483379
0.394463 0.122842 -1.450193 -0.181618 0.210930 -0.450340 -0.410874 0.947486
0.372822 -0.434300 0.403813 -0.849452 0.877597 -0.672826 -0.480992 -1.113533
-1.068589 1.062020 1.965451 -0.156578 0.923674 -0.713771 -1.516285 -0.455027
1.429505 -0.575992 0.790338 -0.714860 0.085765 1.268943 0.779426 -0.563988
-0.521779 -0.821285 -0.245209 0.814542 -0.278464 1.747850 -0.583014 -0.008954
1.534010 0.563815 -0.370018 -0.729512 -1.175947 -0.546577 -1.034462 -1.933936
0.846221 1.065658 0.140683 -0.527577 -0.388724 0.188535 -0.725135 0.933318
-1.004602 2.006946 2.063103 1.619692 0.002337 1.009732 -0.442768 0.400836
0.185836 -1.763793 1.918193 0.766781 0.767809 1.031773 0.259881 -0.844908
-0.558979 -0.080619 -0.396328 0.430422 0.871300 0.421115 0.589245 -0.528692
-0.717774 0.447387 -0.599018 0.274483 -1.765089 -0.979967 -0.321924 -2.437024
-1.724434 -0.081759 -0.048757 0.772772 -0.055069 -1.454805 -0.989822 0.024024
0.262184 0.704414 -0.604789 -0.056030 0.523459 -0.360946 -1.601280 -1.487635
-1.169707 1.168642 0.686385 1.392005 0.387794 0.945706 0.323645 0.348489
0.854699 0.493500 0.026425 -0.121957 1.688445 1.622741 0.508794 -0.664859
-0.544874 -0.420219 -1.201788 1.315299 -0.875449 0.070296 0.346773 -0.230541
-1.071910 0.194252 -0.746037 1.039645 -0.413242 0.170987 0.880402 0.579094
-1.108638 -0.222388 1.171199 -0.194677 -0.987940 0.404882 0.010813 -1.043425
0.242754 0.700198 -0.760720 0.151971 -0.788269 -0.536591 -1.085686 0.544281
-1.066888 1.035884 0.401793 1.458488 0.004163 0.032311 -1.370532 0.343113
-0.348030 -1.978245 -0.497295 1.072259 0.083618 -0.199198 1.123872 0.484904
0.140980 -0.645652 -0.236765 -1.001697 0.371656 -1.486681 -0.124858 0.453349
-0.134236 -0.526119 -0.987277 -0.384704 -0.065828 -0.871496 -0.282101 1.082194
0.424221 -1.310408 0.034645 1.092301 -0.162784 1.655796 -1.009511 0.157202
0.711185 -0.509212 0.244432 -0.275558 1.771618 0.150760 -1.086034 0.204290
0.486395 0.392347 1.471000 0.391777 -1.073916 -1.460165 1.557480 -0.553577
0.580367 0.655248 1.099983 0.751081 -0.727862 0.418439 -1.271082 2.804298
0.058218 -0.233479 1.012545 -1.313880 -0.431910 0.216355 -0.137011 0.246640
-0.221152 0.704934 -0.697327 -1.043835 1.361754 1.395198 0.684368 1.400119
-1.090742 0.669668 0.208242 0.730132 0.927761 0.374987 0.672214 -0.532056
0.565597 0.896569 0.272844 0.868711 -0.358267 0.023785 -0.001232 -1.123067
-0.525225 1.158275 -0.148320 -0.165173 -1.182283 0.825963 1.367032 0.215556
1.557747 -0.462134 -1.220286 -0.051929 -1.503982 -0.507406 1.957599 -1.979049
0.531396 0.994035 0.452939 0.908752 -0.277190 0.623407 -1.035205 0.508492
0.187858 -0.444459 -0.406611 0.122189 1.222474 -1.056725 -0.570923 -1.125322
-0.533484 -0.167752 -0.231813 0.441086 -0.167358 0.985811 -0.065324 0.380689
-0.463189 -0.383311 1.345147 0.050999 -1.448630 0.415546 0.390204 -0.788024
1.519461 0.282355 -0.446211 0.462983 1.321030 -0.878970 -1.108803 -0.842840
-0.296390 -0.673590 -0.080094 0.808261 -0.901498 0.762560 -0.815912 0.787773
-0.105166 -0.683917 -0.182530 -0.037890 -0.562021 -0.625826 -1.245069 -0.871492
0.446052 -0.271508 -0.171796 0.054214 -0.110619 -1.307227 -0.323754 1.093208
-0.411405 -0.721390 0.086171 -0.420433 -0.358372 -1.085954 0.616413 -0.706340
0.202405 -0.266628 0.111120 -0.419480 -0.653613 -0.530281 0.507072 1.973590
-1.648761 0.914774 1.596549 0.565009 0.773189 0.188630 -0.117711 -0.284446
-1.540596 0.781040 0.274611 -1.324871 0.667783 -2.372398 -0.079857 -1.693440
-0.112666 -0.322118 -0.656993 -0.231882 -0.117579 -0.543919 -0.738480 1.974536
-0.194403 -0.607283 0.384373 1.909364 1.595078 1.252154 -2.142113 0.241390
-0.229687 0.010926 0.030699 0.124615 -0.129729 -0.756837 -1.293692 0.445462
-0.779866 -1.840706 -0.803703 0.776556 0.306705 -1.931101 -0.317100 0.506816
0.836763 0.313917 -0.847988 -0.850964 -0.595398 -1.017499 -0.334910 -0.407089
0.942268 0.555878 -1.486505 1.521589 1.010119 -0.882420 1.971817 0.592431
-0.142887 0.523978 -1.506241 -1.585051 0.083085 0.885360 -0.972107 -0.789756
-0.523184 -1.862628 1.315090 1.163270 -0.823314 -0.631274 0.979225 -1.024621
-0.489923 -1.014518 1.905659 -0.861643 -0.431700 -0.332200 0.406838 1.230999
0.948508 1.054979 1.754221 -0.237731 -0.223725 -0.097781 -0.810818 0.467511
-0.281955 1.653126 -0.989945 -0.526033 0.473775 0.715515 -0.327304 0.045510
-0.116237 -0.929697 -0.051481 -0.763659 -0.166712 0.098189 0.854182 0.108156
0.797445 -0.644029 -0.011045 -2.424796 -0.587670 -1.139814 0.327131 0.770155
1.162979 0.749078 -1.232069 -0.280656 1.111702 1.700093 1.195326 -1.408013
1.395377 -1.834803 -1.060824 0.147468 -0.681680 0.365421 -0.273233 -1.049205
-1.048434 -0.251835 1.120043 -1.667284 -1.242685 -0.409259 0.813372 0.552574
0.877422 -0.842797 -0.546429 0.871787 0.070366 -1.270794 1.561316 0.350748
-1.137109 -1.216728 0.204781 -2.832973 1.183484 -0.049888 -0.122844 0.532088
-0.282029 -0.265599 0.388460 0.608858 -0.882653 0.575603 -1.959495 -1.371588
1.935791 -0.173290 0.717875 -1.070633 0.436654 1.405761 1.297627 0.437965
2.419764 -0.159124 0.908139 -1.175076 -0.660849 0.655289 -0.803189 -2.241553
0.911084 0.014051 1.181327 -0.104930 -0.600347 -0.167339 -0.174956 0.312012
-0.540677 -2.476272 -0.438764 -0.570802 -0.068238 -1.974211 0.519621 -0.856951
0.579928 0.029212 0.987195 0.502485 -0.801858 0.668603 -0.568391 1.857186
-0.324989 0.852431 -0.398857 -0.580116 0.726081 -0.947742 1.093358 -0.313996
0.447762 1.925256 -1.039650 0.484912 -1.357127 -0.500773 -0.251702 0.384512
-1.165373 -0.423321 -1.865442 1.906720 0.070753 1.388760 -0.126179 1.196686
0.211137 1.136259 -1.841334 -0.790953 -0.369456 0.692156 2.662731 -0.354537
-0.897532 0.311666 -0.133055 0.345422 -0.122326 -0.963635 -0.299326 -1.436910
1.526073 0.901210 1.040516 -0.344476 0.593551 0.322914 -0.094276 0.657594
1.095317 -0.450293 0.064063 -0.224171 0.207629 -0.331953 1.861828 1.401564
0.628970 0.410156 0.453603 -2.442360 0.953425 1.163480 -0.504505 0.474469
1.465027 1.088436 -1.766670 -0.519984 1.705791 -0.467200 1.060965 -0.141313
-2.181618 -0.144768 -0.583180 0.212884 -0.508488 -0.472122 0.854416 0.320944
-1.127953 -1.166682 -0.324130 -1.456885 1.098336 0.594303 0.076803 0.293479
0.073534 -2.702282 -0.899892 0.707925 -0.066826 0.482460 1.245619 -1.081847
0.266824 -0.568157 1.650495 0.506849 -1.404168 0.651057 0.151525 -0.796395
-0.895685 0.496172 -0.376487 -1.193000 0.525831 -0.814008 -1.784141 1.512679
1.768801 -1.305345 0.369410 1.255469 -0.726636 0.588679 0.186792 -0.351373
-0.138588 0.048712 1.728328 -0.981226 0.369885 2.516906 -0.560811 -1.336967
2.774865 -1.245107 -1.259392 -0.481266 -0.631362 0.590547 -1.423232 1.275637
1.866922 0.989607 -0.476293 -0.646345 0.694675 -1.853488 -0.149963 -0.769315
1.376409 1.045989 -3.078372 0.671454 -1.017668 -0.564116 -0.443854 -0.337570
0.001568 -0.601478 0.196001 -0.828900 -2.078443 -0.150222 0.281980 -0.926654
0.323419 -0.623905 -0.783284 -0.367558 -0.088387 -0.561080 -0.428183 -0.140188
0.063806 0.046703 3.651122 0.945572 0.932788 0.498806 -0.684154 -0.549459
0.680849 0.541750 -0.063847 -1.245165 2.186833 0.520684 -1.041869 0.294077
1.130599 -0.107442 0.015401 0.576816 -0.050321 0.134451 0.138745 -0.998789
0.464069 1.289393 -0.488460 1.005829 1.029425 0.333210 0.109765 -1.217234
-1.222232 -1.105284 -0.150403 0.800987 1.092873 -0.575598 -0.317764 1.026094
0.502833 -0.943382 -1.625762 -0.752122 -0.140116 -0.069338 -0.585932 0.517394
-1.671120 -0.878997 -0.168243 -0.098937 0.018754 0.318658 0.417319 0.470218
0.735624 0.647406 -0.609754 0.275511 -0.257375 0.537419 -1.358149 -0.095301
-0.366628 -0.209923 -1.219755 1.797053 -1.558211 0.172161 -1.562764 0.593542
0.459025 1.334661 0.445501 0.230528 -0.290385 -0.393035 1.330953 -0.491332
-0.543469 1.348345 -1.229707 0.044714 -1.014233 0.435512 1.078204 0.780044
0.280825 -0.739619 0.357869 -0.777979 -2.554035 -1.308671 0.988128 0.261103
-0.398616 -0.775160 1.834970 -2.955659 0.815172 -0.560582 -1.129748 1.334321
-0.616231 -0.336107 -1.919687 -1.003570 -0.423958 -0.661600 0.505509 -0.646562
-0.919339 -0.334211 0.820359 -0.820908 -0.386605 -1.942121 0.045470 -0.167819
0.704109 -1.381948 0.281184 1.772013 0.671199 1.005905 1.470079 1.340545
1.446192 -0.239671 0.000666 1.080509 -0.467059 -0.845046 -1.211289 -0.124779
-0.641178 -1.038880 0.622711 0.217451 -1.401617 0.488483 -1.856954 -0.529896
-0.076592 0.142573 0.903891 0.384867 -0.348669 0.438021 0.361325 2.740280
-0.623961 -1.292726 0.456211 0.148159 -1.325657 -1.283707 0.173242 -0.304162
0.976396 -0.062578 -0.151568 -0.361933 1.073688 -0.460130 -1.785672 3.998363
0.634725 2.404832 0.127762 -0.432180 0.733230 0.361143 -0.615922 0.160056
0.242768 -1.428699 -0.874965 1.285850 1.050678 -0.132808 -1.537385 0.600570
