1.926915 1.487284 0.900717 -2.105521 0.678418 -1.234545 -0.043067 -1.604667
-0.809211 1.564058 -0.189219 -1.270133 -0.641029 -0.572628 -0.664369 0.656887
1.615908 -0.089188 -0.420948 0.439874 -0.730362 1.121193 0.809315 1.608840
1.320287 1.370515 0.712340 1.165027 -0.031031 0.220331 -0.249293 0.660367
-1.220149 -0.604432 -0.057139 1.576294 0.418820 -0.267769 0.172550 -0.909660
-1.431404 1.072180 -0.772673 -0.545835 -1.111924 2.218922 -1.140425 -0.558921
-0.946787 -0.563331 0.142450 0.523039 -0.380352 1.156630 -0.738529 -0.759991
-1.289090 -0.132970 -0.043409 0.631591 -0.059662 1.673935 -1.115553 1.287940
1.341225 0.774851 2.118037 0.606835 0.377492 -0.118169 -0.929284 1.102509
-0.213570 0.361692 0.120708 0.595681 0.393765 -0.648686 -2.050858 -0.631156
-0.038760 -0.163662 -1.234047 -0.545313 0.661290 0.639823 1.098281 0.014874
0.699741 -0.392396 -0.977643 0.598004 -1.666934 -0.776008 1.297606 0.373986
-2.509544 0.488001 0.784587 0.028647 0.640755 0.583247 1.066927 -0.450153
-0.264910 0.639590 0.336914 0.174932 0.171710 1.179350 -0.059130 -0.355786
-1.463307 -0.019456 -0.443319 0.440360 0.781608 0.164118 -0.398342 0.341938
-0.154532 0.111813 0.298987 0.617090 1.046111 0.292439 0.613000 0.405354
1.788888 1.154835 -1.235560 -1.059599 -0.006504 1.780894 0.482223 0.423510
1.153100 0.114250 -1.688322 0.927648 -0.348522 1.081141 -0.668145 0.566701
-0.815728 1.066813 1.611073 1.357807 0.480230 0.000610 -0.564160 -0.064425
0.348752 0.967594 -0.465688 1.604797 -2.480120 -0.417544 -1.195454 0.812337
-1.864245 0.219622 0.012516 -0.332956 0.303495 -0.701659 0.161400 -1.082576
-1.472335 1.328484 1.374187 -0.037640 -1.460289 0.750027 0.679549 1.874526
0.003079 0.184652 -0.663255 -0.120153 -0.919740 -1.529721 -1.115343 -0.517925
-0.575900 -1.420541 -1.819665 0.097110 0.958656 -0.575384 0.618113 0.592144
1.585802 -0.793413 1.099966 -0.389394 -1.007475 0.377594 0.460653 1.209328
0.495199 2.061810 -0.487931 -0.902347 0.156240 0.994701 1.262864 0.445384
-0.870596 -0.875303 -0.308800 -0.520102 0.241432 0.532740 -0.116504 -2.250928
-0.336254 1.145328 -1.612681 1.370601 0.440255 -0.396866 0.940645 1.520598
-0.031238 1.681552 0.263565 -0.983979 -0.473846 0.190768 0.377640 1.815881
-0.071988 -0.906095 -2.048712 -1.081055 0.017623 0.078226 0.193158 0.409673
-0.780004 0.413182 -0.408464 0.292212 -0.706740 0.143140 -0.405999 1.339413
1.080905 -0.522486 0.966690 0.456391 0.601939 0.504483 0.484630 -0.004482
-0.696546 0.550368 -1.476579 -1.574498 -1.424201 0.411214 -0.138524 0.726555
-1.545700 -0.024534 0.638539 0.085405 1.372510 0.305896 -1.827525 -0.061199
-1.298748 0.720583 -2.430622 -0.052498 0.044816 -0.590613 1.660168 -0.115158
1.026632 1.848231 0.678198 1.040502 0.467699 1.105419 0.396893 -0.122874
0.946955 -0.929609 -0.524572 -0.399783 -0.324866 -0.116734 -0.673687 -0.070499
1.828607 0.238705 1.117798 0.548186 0.144562 0.104389 1.171212 0.546376
0.284783 -0.517057 0.839485 -0.853662 0.506117 1.338948 -2.183910 -1.233741
0.144430 -2.099655 -0.131715 -1.023003 -0.771297 -0.050581 1.216038 -1.018831
0.410588 -0.612050 1.103079 -1.356903 0.610313 0.422659 0.036729 0.011944
0.294274 0.739477 -1.646542 -0.709937 0.470100 0.272718 -0.485002 0.054591
0.770716 0.270371 0.694829 0.089197 0.470188 -0.609630 -0.337823 -0.099744
0.448235 1.416286 -0.071666 1.036183 0.867844 -0.644114 -0.438688 -0.332674
-0.773383 0.445598 0.187179 -1.102491 -0.215957 -0.723233 -0.501692 1.845939
1.861990 1.700490 0.064597 -0.100674 -1.532722 -0.622428 -0.333147 1.661018
-0.200682 0.245114 2.184191 1.603322 0.344727 0.710767 -0.131683 0.582509
-0.140294 -1.159439 -1.244279 0.443471 -0.578106 0.856413 -0.486138 -0.357319
0.666374 -0.074266 -0.209605 0.166321 1.470304 -0.939087 -0.601319 -0.099640
-0.948876 -2.389794 -0.254020 0.816400 0.959475 -0.260331 -0.786424 0.697872
-0.080467 -0.859027 -0.508570 -0.246993 0.855389 0.013749 0.069623 -0.105349
0.781144 -1.398580 0.989878 1.129041 -0.126562 -0.180372 -0.361623 0.585791
0.607588 -1.182564 -0.410294 0.640467 -0.381603 -0.479968 -0.096519 -1.606166
-0.579044 -0.517366 0.500012 0.194769 1.010337 -0.444119 -0.396474 0.533758
-0.478272 1.044296 -0.360040 1.281880 0.827525 -0.051460 0.606367 0.979775
0.672331 -1.282642 0.066391 -1.139757 -0.067881 1.163632 0.781387 -0.724937
-1.252638 0.408212 -0.827177 0.037526 -0.322907 -0.880649 -0.531246 0.694151
1.461801 -0.053034 -0.294056 0.160244 0.163192 -0.777321 -1.115098 0.900920
0.898860 -0.465516 0.297203 0.150120 0.357066 1.219021 -1.130206 -1.373988
-1.058181 0.223842 0.525507 -0.735616 2.742320 1.831272 1.940209 -1.106552
1.526620 0.916668 -0.284406 -0.519027 -0.418580 -0.520284 -1.518502 -1.015204
-0.445528 -0.079349 -0.308119 -1.042742 -0.256624 0.056908 0.314296 -0.157978
1.186130 -0.343201 0.663579 0.106300 -0.750253 -0.658510 -1.293461 1.974064
-0.941354 -2.563696 0.724721 0.803054 0.637929 0.403258 -0.353066 0.509496
-1.267226 0.174288 -0.474591 0.260500 1.403007 0.224498 -0.612002 -0.863064
0.453390 -0.399878 0.250103 -0.336714 -1.727715 0.178596 -1.887610 -0.629709
1.336097 -1.289456 0.762403 0.677772 0.351154 -2.642971 -1.448502 -0.970062
0.248776 -0.110663 1.166719 -0.373274 1.006788 0.742660 1.214928 -0.654625
-1.699623 -0.155891 -1.327051 1.081918 -0.589309 -0.723968 -0.163954 1.591752
1.935020 -1.169164 1.120440 1.746675 -1.966545 -0.327671 -0.878249 -0.207445
1.748300 2.594663 0.393379 0.442680 0.261286 -0.169314 0.237840 -0.530497
0.487612 0.749217 1.180029 0.008504 0.581495 -0.569228 -0.156173 0.557431
-0.726139 -1.034597 0.252802 -0.684739 -1.693581 -0.160179 -0.446114 2.145721
-0.436776 -1.214568 0.827620 0.184902 -0.294402 -0.244793 -1.060310 -1.001780
0.061277 0.085261 0.748125 -0.163562 -0.908557 0.312996 0.805048 -1.113360
0.466911 -1.185253 0.127119 0.410704 0.670771 0.162448 1.713293 0.552427
-1.873653 2.325906 -0.920391 0.666115 -0.440265 -2.317956 1.294583 0.222673
-0.768258 1.577670 1.551917 0.050912 0.474058 0.397531 0.595140 1.065317
-0.333408 0.420993 -0.551897 -0.319754 0.175931 0.035638 0.691556 -0.498177
-1.092323 -0.398407 0.754645 1.415166 0.055086 1.391572 0.169591 0.474614
-1.132401 0.092900 1.843769 0.450160 0.030052 -0.598991 -1.066569 0.596276
0.337340 0.332876 -1.234706 1.765862 0.017793 -0.066539 -0.733906 -0.761157
-0.485284 -0.598983 -0.127868 -2.088811 0.151005 1.084622 -0.020376 -0.350687
-1.017811 -0.098661 -0.862281 0.027792 -0.420321 0.880506 -0.113056 -1.573008
2.219963 -1.625133 0.218620 -1.290724 -0.648189 0.941829 0.375630 -0.557305
-2.772219 -0.633904 0.575086 -1.614556 0.818954 -0.184714 0.153492 0.755669
0.095042 0.656805 0.360001 2.601297 0.543528 -0.235286 -0.091071 1.423804
-0.108745 -0.418905 1.438438 -0.706843 -1.251951 3.025049 1.346259 0.855607
0.352704 0.471489 1.480668 1.283868 -0.075907 1.391640 -0.334530 -1.002066
-1.123705 0.194490 -0.527291 -0.686682 -0.136674 0.589607 0.807449 1.055568
0.935090 0.245325 0.910569 2.066009 0.914769 0.430363 0.224184 0.219374
0.070051 1.702109 -1.209333 0.391506 0.324680 -1.401246 -1.428009 -0.219611
0.097014 0.022302 1.024331 1.123177 0.232637 0.750065 -0.704764 -1.349865
0.459016 0.530933 -1.361481 1.956249 1.768490 -0.985799 -1.237076 -2.301875
0.060132 -0.758843 -1.560391 0.333124 1.248827 0.415746 -0.363368 2.734874
0.755112 0.797136 1.793804 0.633334 0.200465 -1.463845 -0.496091 0.456946
0.331342 -3.070805 -1.445707 -1.417697 -0.593942 -0.268713 -0.730760 -0.373304
0.340623 -0.619451 -0.269825 0.569930 -0.196687 0.671188 -0.695504 -0.928210
0.017760 0.097238 0.815394 1.279819 0.235209 -2.306564 0.387301 1.749729
-0.799704 0.126407 -1.376609 0.260446 0.657964 1.303785 0.609644 -0.273990
0.824409 0.473252 0.035203 -1.359915 -0.549305 -0.141359 0.247158 -1.170079
-0.341768 1.385212 0.437912 -0.962676 -0.608336 -0.421801 -1.251597 0.959459
-1.149269 -1.849842 0.450375 0.544929 0.155250 -0.871157 0.143123 -0.853014
1.367581 -0.319736 -0.913092 1.919209 -1.651487 2.147725 -0.660414 0.113526
-0.183792 0.484929 0.250010 1.663612 -0.338151 -0.421892 -1.080943 -0.537609
-0.260197 0.109065 0.511027 0.470116 0.487821 0.937551 -0.702423 0.289914
0.920805 -0.694363 1.512627 0.696950 -0.002093 1.103703 0.735898 -0.234980
-1.382151 -2.335661 -0.263996 -0.122353 -0.139968 1.116642 -0.268786 1.648781
-0.564739 -2.083826 -1.621884 -0.673097 0.435620 -0.315206 0.487639 -2.355899
-0.562321 -0.535406 1.252920 1.277160 -1.173673 -0.011274 -0.963347 1.446837
1.366620 -1.250676 -1.279589 -1.207655 -1.566063 -2.510991 1.361037 -0.551338
0.664273 -0.764992 0.076497 1.472723 1.041930 -0.295009 -1.547411 -0.881806
-0.781278 -0.495956 0.911161 -0.830081 -2.455488 0.212002 1.927833 1.211054
-0.554982 -0.628118 0.316803 -0.142438 0.592146 1.550064 1.484221 -0.492236
1.861945 -1.077893 0.884857 -0.834210 1.030074 -0.868098 -0.570160 0.323322
1.164189 -1.323283 2.623213 -0.152802 -0.144113 1.222723 0.815608 -0.923263
0.061787 -0.428654 -2.194652 -0.408879 0.341587 -0.496292 -0.343397 -0.264379
0.896554 -1.087851 -1.353930 0.705654 0.379226 0.608156 0.943600 0.693835
0.419211 0.049130 0.168614 0.357207 0.096587 -0.788353 0.617270 -0.762797
-0.208468 -1.479017 -0.597730 0.036877 0.203307 1.450258 -0.399313 -0.113144
-0.520140 -0.910964 -0.306592 -0.347983 -0.775017 -0.958222 1.435890 -0.780535
-0.324101 0.937418 -0.347347 -0.923993 -0.567541 2.180405 -0.681112 0.302567
0.860893 -1.713939 1.188145 -2.902346 -0.401810 -0.740449 -1.626285 -0.366523
0.145876 0.619578 1.899472 -2.045484 -1.551616 0.368295 0.554269 -2.262360
-0.030116 -0.098600 0.187775 -0.634680 -0.080283 -0.213005 -0.615779 -0.069299
-1.037556 0.483850 2.095371 -0.522948 1.133112 1.322592 0.903588 0.162066
0.647016 -0.635233 0.232733 0.008747 0.499379 -0.612196 1.312254 0.849056
0.692854 -0.860694 -1.416514 -0.452556 0.096716 1.133098 0.597600 1.624039
-1.202962 1.027995 -1.510233 0.672373 -0.070422 0.094097 -1.634569 -0.808225
1.179136 0.609888 0.044144 -0.238660 -1.145610 0.867669 -0.062117 0.074639
-0.459066 0.034916 1.088193 -1.038051 0.389975 0.055352 1.203179 -1.410754
-0.130384 2.107705 0.066151 0.423322 0.977096 0.954407 -0.245538 -0.182535
0.523662 0.137905 0.527771 -0.002516 0.296169 1.154988 1.319248 1.024359
0.802293 -0.760038 0.893893 -0.299504 -0.348891 -1.143908 -1.723238 -2.545323
0.096943 -0.791207 0.371196 1.511796 -0.891460 0.524747 0.351781 0.249127
1.109888 1.465490 0.791915 0.530888 -0.038287 -0.938940 -0.061581 -0.969834
0.091787 0.160056 -0.194873 0.680201 0.353262 0.515096 1.188419 1.153460
0.688575 0.075308 -1.410851 -1.474966 0.433500 -1.330396 1.918780 -0.117164
-0.293365 1.397810 -0.916657 -0.779372 -0.417538 1.105972 0.252853 -0.107540
0.745310 -0.972472 0.977632 -1.115193 1.080281 -1.023924 -0.766556 -0.251230
-0.116629 -0.007016 1.163593 0.565205 -1.685222 0.389475 1.445945 -1.129796
-0.762412 -0.345906 0.142797 -0.079492 1.153068 0.070168 -0.053701 3.455748
-1.058754 -0.427745 -0.021294 0.528219 0.133402 -0.853108 1.201274 0.278515
-0.144727 2.417752 0.620006 0.147669 -1.143031 -0.592617 0.574065 -0.283721
-1.461851 -0.098903 0.446155 1.207746 2.028922 1.721134 0.377056 -2.284853
-0.388874 -1.154700 -0.254564 -0.444093 1.687198 -0.540843 0.529522 -0.659610
0.094547 -0.192765 0.964765 -0.977494 -0.871875 -0.877510 2.850234 1.294021
-0.529330 -0.719311 -0.554854 0.149800 -0.100951 -0.551225 1.089793 0.794591
1.015056 0.716039 0.847285 0.860695 0.319501 -0.404677 -0.684005 -1.586445
-0.650710 0.626344 0.740253 0.386074 1.404723 1.868094 0.268801 1.357393
0.545546 0.407853 0.863688 1.993085 0.403433 0.518077 -0.043810 1.009731
-0.376499 -0.672676 -0.041555 2.051431 -0.600413 -0.086521 1.429513 -0.399523
-0.288962 1.035052 1.431787 0.883162 0.045805 0.665942 -0.228287 -0.625731
-1.938505 0.397973 -0.566623 -0.083700 -0.199186 1.198007 -1.427802 -0.411137
0.104100 -1.442158 -1.672086 -0.552549 0.565074 -1.295163 1.234716 -2.028111
1.323574 0.316186 -0.952513 0.453385 -0.762228 -0.264535 0.257235 0.590642
-0.517627 0.482918 -0.628794 -0.041483 -0.629951 1.014204 0.313916 1.017687
0.490584 -1.088991 -0.694124 0.031669 -0.663941 -0.576004 0.782008 2.235513
-1.773273 -0.990728 0.634861 1.023849 0.957474 0.019130 -1.070030 -0.751891
2.380224 -1.834853 0.387130 -1.364704 -0.365216 0.019413 -0.598676 -1.244456
-0.154574 -0.092324 1.013346 0.135377 0.745395 -0.770503 1.095902 0.135681
-0.435868 -0.931284 -0.094308 -0.694546 -0.118949 1.577503 -1.447996 -0.179356
0.016306 0.124042 0.689130 0.942043 -0.650859 -1.164312 -0.673998 1.272340
0.235982 -0.446566 -1.177802 1.412514 -0.023167 -0.011093 -0.995282 -0.299354
0.678099 -0.883969 -2.234274 -0.757805 0.746345 1.194180 -0.085151 1.048593
1.052658 -0.184746 -0.559977 -0.223407 0.488546 0.299399 -0.500229 -0.437031
0.035555 -1.402437 0.531056 -0.390776 -1.898382 0.106043 -0.457832 -1.205867
-0.459073 0.015071 -0.066030 1.177115 1.706557 1.992539 -0.268395 -1.281595
-0.550357 -0.623574 0.621941 -1.319037 0.095193 0.584047 -0.923152 -0.451738
-1.133803 -0.141283 -0.645627 0.410138 0.326719 -0.834428 -0.492173 0.658042
0.459629 1.175051 -0.310140 1.490824 -0.939101 0.270178 -0.216366 -0.127869
-0.195695 -0.449335 0.111900 -0.258259 1.254098 0.090750 -0.359946 -0.629730
2.904782 -1.189953 1.964687 -1.182316 -1.585586 0.056343 -0.930911 -0.393834
-0.981046 0.182280 0.711226 -1.346615 1.166145 0.039413 1.986035 -0.131041
-1.282712 0.960944 -0.045622 -1.140936 0.682469 -0.183830 -0.388339 -0.431009
1.589404 0.348550 1.678360 -0.005017 1.127379 1.380177 0.302929 0.104787
0.290907 -1.097292 -0.993757 -0.484880 -0.779411 0.509565 -0.868833 0.748498
0.406265 -0.052601 0.355697 -1.192397 -0.650202 -0.401134 -0.039074 0.617716
-1.120153 0.613777 1.097803 -0.759744 0.615799 0.509399 1.806503 -0.761497
-1.122190 -0.201951 0.301482 -0.325303 -0.656748 -0.663808 1.392901 -1.485891
0.645837 -0.386241 -0.967324 0.399815 0.068375 0.646705 -1.350283 1.044089
0.266871 1.048974 -0.041276 0.181042 -0.217190 -0.187309 -0.839471 1.155742
-0.453255 0.149757 1.610065 -0.586413 0.362983 1.577055 -1.179390 -0.735466
1.149620 1.431404 -1.069679 0.375708 -0.154308 -0.473679 -0.466801 -0.477902
-0.886091 0.330420 0.257875 0.511682 -0.604120 -0.454803 -0.355248 0.190318
0.272824 -1.742124 0.325163 1.489659 0.791916 1.375661 -0.958519 -0.654664
0.837118 -1.734256 0.471308 0.691393 0.721468 -0.466143 -0.510701 0.139392
0.367621 -1.834197 -0.632757 -0.131425 -0.250489 0.169778 -0.297112 0.219670
-0.213106 0.116152 -1.432024 0.511416 0.875952 -0.136508 0.520589 -1.882633
-1.565189 -0.198562 -0.712978 -1.264486 -1.282221 -1.538736 -0.570479 1.280566
-1.590575 -0.902011 1.426856 0.883324 0.501207 -0.811607 -1.012432 0.521237
-0.917078 1.004187 -1.019856 -2.722669 1.214504 0.262186 0.340390 1.270502
-0.892365 -0.685540 0.014388 -0.644590 0.691094 0.724395 -0.958555 -2.962054
-0.989771 -0.602204 -0.715337 -0.467405 0.551420 2.654942 1.058245 -0.146816
-0.848467 0.222402 1.798718 -0.520592 -0.699898 -0.113168 -0.389731 -0.368690
-1.229892 -1.494815 -0.759436 1.145686 0.276595 0.441121 0.072157 -0.584839
-0.199866 -0.154451 -1.178133 -1.281029 0.052056 -0.478509 1.188708 -0.870809
1.146210 -1.178733 -0.036673 0.671810 0.924230 0.269716 0.628537 -0.706619
-0.734547 0.993148 -0.390810 0.280850 -0.635424 0.033336 0.302604 1.241175
-0.891500 1.668485 -1.145917 1.153069 1.192446 2.094710 0.643946 -1.222127
-0.277373 0.455600 -0.323290 -0.405380 0.351108 1.143383 0.845791 0.967321
-0.141166 -1.454578 -0.032848 -0.960084 1.190666 1.632375 -0.155547 0.951737
0.873638 -0.878195 -0.130003 1.035496 -0.151508 -0.282335 0.546019 0.331020
-0.525559 0.637952 -2.991684 0.191366 -0.459127 -0.949575 -1.510548 1.490243
-0.888407 -0.441699 0.378851 -0.362921 0.022772 0.155621 1.569937 0.943541
-0.277033 -1.083882 0.410560 -0.228912 0.299446 1.301715 -0.667030 0.798439
0.410794 0.279248 0.152209 -0.208183 -1.482904 -0.625744 0.865574 -0.201391
-1.164878 0.378443 -0.962191 0.691382 0.134793 0.499826 -1.525330 -0.560889
0.106989 -0.101500 0.083015 0.712009 -0.900593 0.890689 0.476552 -0.839627
0.296188 -1.155714 -0.553909 -1.874780 -0.945355 0.373735 -0.576615 1.177811
0.712634 -0.407696 1.196854 -0.745403 0.573276 1.380427 0.176923 0.107912
0.330242 -0.953372 1.573457 1.869738 -1.063895 -0.227258 0.250061 1.161848
-0.069149 -0.196269 0.858898 -0.880383 -0.640846 1.064976 1.255401 0.813867
-1.256200 -1.457465 -0.516427 0.377552 -0.057710 -1.024950 -2.718385 -0.073690
-0.939268 0.456973 1.844049 0.492674 0.197014 0.419825 0.852889 0.290547
-0.187840 -1.545530 0.486374 0.228577 1.358557 -0.990526 -1.616828 0.731068
-0.976206 -0.292044 0.247764 1.096570 -1.465829 -0.164638 -0.465482 -0.132625
-0.894358 0.678801 0.787916 -2.000074 -0.631000 -0.888892 1.201848 -1.365183
-0.454450 1.688444 -0.633540 -2.985090 1.065403 -0.000509 1.266202 3.015857
1.937791 -0.553623 -1.302997 1.069602 -0.456183 1.363492 -2.421981 -0.083080
-0.007692 0.219012 0.012799 0.480002 0.343554 -0.776211 1.384073 -1.907064
-0.617760 -0.427961 -0.143060 1.090670 0.281857 0.042936 -0.072513 -0.301322
-1.121044 -0.430387 -0.131102 0.100290 1.989584 0.659096 -0.455220 1.061430
-0.384598 0.344537 -0.562176 -0.311270 0.568567 0.772106 0.155021 0.248569
0.211924 1.706385 0.277460 -0.791132 -1.002781 -0.433780 -0.043430 -0.842250
0.183870 1.662101 -0.947299 0.401501 0.389494 0.459127 2.014981 -0.659240
-1.683614 -0.041743 0.389018 0.561919 0.631071 0.247343 -0.763532 -1.603303
0.996291 0.758965 1.093325 -0.081687 0.589065 -2.247829 -0.716034 -2.215763
-1.372230 0.275890 0.592533 -0.416394 -0.951795 -1.576229 1.033706 0.085865
1.154606 0.982328 -1.595815 0.041371 0.195112 -1.287170 -0.941953 0.979564
0.645106 1.502249 -0.018001 0.238197 -0.066678 0.905767 -1.039782 1.284876
-0.681879 1.198329 -1.595101 0.658650 0.057883 -0.863373 -1.324886 -0.841272
0.709495 0.054154 -0.292454 -1.862897 1.469163 0.362120 -0.485812 2.102395
0.061273 -0.296458 -0.055557 -0.542702 -0.431966 -0.188055 -1.627188 -1.555294
0.785562 0.472706 0.232137 0.009120 0.045211 -0.810771 -1.102912 -0.813675
1.155020 1.221090 -0.133454 -1.268368 -0.475646 1.090819 0.657566 0.798507
-0.534527 -0.716140 1.599541 0.763716 0.003645 0.895174 -0.035323 -0.750405
-1.794677 0.401052 -0.678099 1.706424 -0.163102 0.624829 0.903185 -0.109219
1.118269 1.658718 0.414497 -1.011779 -0.579271 -0.980091 0.392299 0.275806
-1.797908 0.494546 -0.125958 -0.651300 -0.273580 0.534558 -0.304921 0.968379
0.351763 0.322525 0.891987 -0.633649 1.465295 -0.315634 1.232161 -0.126013
-0.379064 -0.181008 0.334114 0.706334 0.829687 -1.062052 0.538779 0.810837
-3.798186 0.133381 1.973733 1.011184 2.102517 0.264166 1.161976 -1.253471
-0.925286 -0.066141 0.350615 0.631601 -0.126374 0.781053 1.400930 0.063418
-0.855539 -0.864946 -0.378677 -1.139711 -0.007028 0.651792 0.128869 1.271106
-0.279640 -0.637964 0.463450 0.796815 0.352203 0.942291 1.849978 0.112020
0.949814 -1.399469 -0.737479 0.961322 -0.434177 -0.498542 0.508573 -0.130441
0.557232 0.509209 -1.914322 -0.647873 -0.690943 -0.449885 -0.817881 -1.487409
0.468859 -0.079692 0.455247 0.182863 0.124903 0.332231 0.274865 -1.316276
-1.304993 0.885874 0.130622 0.932330 0.998712 -1.245899 1.010738 0.466836
-1.063323 -0.344863 -1.038933 -0.578797 0.133689 0.361526 -0.926811 1.355726
-0.098978 0.792869 -1.321071 0.618215 1.090512 0.313134 0.600696 0.268085
-0.948876 -0.713980 0.684574 -0.416350 -0.931506 -0.915310 1.255394 0.349610
-2.004297 0.005512 0.460332 1.179114 -1.010552 -0.620259 -1.454879 -0.589757
-0.727878 0.619316 0.809968 -0.139715 -0.410364 -0.267002 -1.206927 1.767210
-0.171950 0.611104 0.729906 0.515499 -0.718611 -0.049755 -0.857011 -0.346081
-0.586338 -0.049742 0.304210 1.652241 -1.526123 -0.350465 -0.437469 -0.784127
-1.491530 -1.294786 0.939281 0.046122 0.281347 0.180897 -0.532460 0.871275
2.033263 1.004915 -1.901708 -0.515804 -0.122958 -1.163900 -0.127799 0.690804
0.015569 -0.563214 -0.408048 -0.068105 -1.420017 -0.251895 -0.660025 -1.422739
0.227466 -0.028789 -0.383611 -0.826447 -0.742481 1.465567 0.061445 -0.183358
-0.448963 1.875267 -0.878996 0.435270 -1.012680 -1.386430 0.712278 0.568653
-1.319724 0.013099 -0.995712 0.291329 -2.197792 -0.996415 0.221225 -0.872195
0.836505 -1.088285 0.127875 -0.115179 0.597859 0.534378 -0.929263 -0.041628
-0.526142 -1.315374 1.864113 1.343414 -0.778583 -1.755265 1.316878 1.074775
-0.825467 -0.476110 -0.933003 -0.340897 -1.735862 0.304115 -0.455200 0.930885
0.288293 1.727451 -1.645197 -0.493024 0.507050 0.960637 0.292596 0.372764
-1.905210 0.268505 -0.239798 0.937528 -0.344004 1.661164 -0.687978 -1.386606
-1.326448 -0.097351 1.288197 0.263821 1.361110 0.721463 0.417517 -0.183859
1.063738 2.817297 -0.128481 -0.177764 -1.364597 -0.966424 1.099427 0.131532
0.441056 0.376547 -1.076421 -0.801129 2.091567 0.274134 0.023020 -0.383777
-0.518959 -0.650519 -1.558188 1.081255 0.480812 1.033480 -0.321649 0.705987
-1.413580 -0.792855 0.072041 0.612282 0.946330 1.129439 0.333919 -0.153995
-0.796997 -0.926851 0.889043 -1.632771 0.376583 0.205234 0.793384 0.052161
0.410449 0.212371 1.438267 -0.158946 0.153663 -0.369352 -1.278108 2.603831
-1.051342 1.051160 0.873528 0.364547 1.251658 -0.823031 -0.011805 -1.880554
0.516571 1.084377 -0.854275 0.100999 0.734287 -1.328553 -0.330716 -1.620214
1.389813 0.371238 0.706852 -1.358070 -0.829101 -1.508707 0.155869 0.285930
-0.814034 0.939802 -0.607326 1.354563 1.735791 0.443237 0.548532 0.456032
0.343275 0.732974 -0.624168 1.617732 0.102653 -0.221762 0.860824 -0.038935
-0.188763 -0.809874 1.587901 0.209796 -0.031013 0.323072 -0.559989 -0.207836
-1.118164 0.151505 0.253724 0.565191 1.492991 0.131190 -0.221914 -0.704190
0.010005 -0.100688 -0.574716 0.498881 0.692312 1.288891 -2.204276 0.232719
-0.944821 0.697263 0.847381 0.178996 -0.249810 -0.058453 0.275608 -0.839348
1.481297 0.105878 1.499241 -0.055707 -0.087560 0.302925 0.559556 -0.259389
1.337634 1.738279 0.479317 0.109595 0.019869 0.584620 -1.201216 0.223162
0.132738 -0.286722 2.198829 0.919213 -0.177501 -0.606425 -0.202610 1.252714
-0.943477 2.028414 0.393122 0.413313 0.463899 -0.029827 1.271527 1.084865
-1.083172 -0.053154 -0.358736 0.437336 0.345652 1.256557 -1.442593 0.912989
-0.696254 -0.441503 0.124473 0.208530 0.831684 1.879942 0.003744 0.150657
0.468448 -0.039677 -2.273679 -1.466532 1.789162 -0.172515 0.719769 0.097773
0.824392 0.775608 1.678243 1.318612 0.347334 -1.060802 -0.513983 1.246526
-0.070389 -0.596654 -1.123053 -1.104678 -0.770435 -0.554094 0.066700 -0.755299
-1.428586 -0.879743 -0.056636 0.503024 2.177379 1.154261 0.622715 -0.445375
-1.388912 1.869712 -0.907836 -0.952896 1.783213 1.543766 -0.991257 1.291425
-0.189399 0.894314 -0.129232 0.796093 -0.571331 -0.496687 -0.716504 -0.450300
0.694097 -1.914171 -0.563552 -0.781140 0.054025 -0.683502 0.906781 0.043074
0.215443 -1.284180 2.229104 0.824936 0.455387 0.559914 0.212092 1.186125
0.275922 1.688988 2.419014 0.269531 1.321941 0.160581 -0.132210 0.557177
1.023974 0.777113 0.721724 0.520705 -0.609526 -0.456843 0.306282 0.762703
0.296496 -0.448565 0.049374 -0.974271 1.155380 -0.001318 0.987385 -0.132236
0.171019 -0.292449 0.907803 -1.249049 -0.502439 0.782237 1.421586 -0.551284
0.261502 2.062855 -0.641583 -1.433154 -0.321939 -0.375502 -1.178639 1.366114
-0.188152 -1.106335 0.133428 0.644484 -0.185123 0.407066 -0.143089 0.185465
-0.380973 -1.632829 -0.325754 2.110002 -0.558238 0.387900 -2.276814 0.373068
0.164319 -0.847430 -0.545148 0.239584 -1.042902 1.353938 -0.925989 -0.670097
0.752534 0.788607 0.394223 1.619700 1.332453 -1.064750 0.382259 0.480595
-0.618596 -0.662328 -0.893748 1.223873 -0.963394 0.362359 -0.493806 -0.479513
-0.290572 -0.061684 1.609568 0.763313 1.146874 0.085599 -0.809434 0.145052
1.137985 -0.728851 2.006292 0.398419 -1.297916 -0.081985 0.018285 0.193235
0.419184 -0.815467 -0.695061 0.898749 -0.763477 -0.196631 -0.363308 -1.553061
-0.777452 -0.192107 1.611770 0.026524 -0.436206 0.542207 0.569444 0.524698
1.453624 0.764083 1.713777 -0.949219 -2.049831 -0.489117 0.287794 0.684108
0.161464 1.238031 0.744886 0.099313 0.105336 0.538495 0.488842 -0.373836
0.522548 1.229838 0.926792 0.580304 -0.889691 1.727546 -2.699332 -0.326433
-0.671005 1.037621 1.686594 -0.308001 0.372926 0.057316 -0.562069 0.927714
-2.068328 0.836212 -0.523673 0.241919 1.089328 0.325194 0.644893 0.755107
-1.538980 -1.988480 -0.860259 0.698740 -0.469928 -0.533761 1.748896 -0.936393
1.238939 -0.481861 -0.284076 0.487638 -0.027695 -0.602158 -0.449484 -0.731646
-0.185994 0.989355 -0.082389 0.751114 0.223984 -1.368587 -1.728816 -0.163976
-0.674446 -1.889293 -1.842444 0.132277 -0.792870 1.229709 0.077734 1.803611
-0.338838 -0.466968 -0.401876 -1.310972 0.030792 -0.592190 -1.177118 1.740944
-0.297297 -0.183939 -0.425386 -1.151896 1.197069 -0.172175 0.288561 -0.572693
1.020990 0.163084 0.110456 0.402674 -0.392256 0.897206 2.586722 -0.074189
1.616026 0.070983 -0.834953 0.900485 -0.593324 1.630724 -1.600270 -1.012393
1.019763 1.417394 -1.453607 -1.087848 2.162582 -0.840114 -0.861444 -0.049974
0.929506 0.025967 -2.084268 1.193848 -1.737389 0.340732 0.673216 -1.172412
-0.662880 -0.803217 -1.282663 0.063954 0.072066 0.416296 0.184219 -0.515478
-0.029904 2.295769 -0.094101 -0.267412 1.333080 -0.478214 -1.502760 0.786677
-0.687726 -0.220698 0.832231 1.311684 -0.909004 0.011576 0.369465 -0.875613
0.341798 -0.739192 0.132110 -1.518695 -0.464603 0.528029 0.308919 0.702252
-0.604969 0.597545 1.819085 -0.428946 -0.301899 1.041299 0.172186 -0.114369
-1.289714 0.640170 1.219896 0.706946 -0.512496 -0.016341 -0.419240 0.429997
0.119406 0.300147 0.490459 -0.695066 -0.153878 0.934893 0.083890 -0.541493
0.279293 0.419028 -0.260210 -0.776585 -0.136062 0.411674 0.911220 -0.491178
-0.220926 0.489984 0.423737 -0.484381 1.130298 -0.139508 1.433670 0.002531
0.278917 0.209475 -0.197585 2.137032 1.311963 -0.546569 1.805835 -1.289626
-0.471412 1.289071 2.177453 1.111569 -0.185694 -0.294987 2.126502 -0.331919
-0.640780 1.166095 1.513371 -0.305728 0.868053 0.620053 -0.879668 0.011160
-0.485947 -0.062406 -0.184454 -0.584814 -0.874151 0.001457 -0.947129 -0.122020
-0.566478 -1.490770 -0.906776 -0.430886 0.012608 0.086614 -0.357363 0.102710
-1.128508 1.868531 -1.936524 -0.589839 1.233041 -0.641664 -1.357475 -0.030259
-0.751080 -0.669469 1.742334 0.736474 -0.319388 0.578349 0.464975 -0.554406
-3.478251 -2.000191 0.392570 -0.460316 1.361716 -0.153774 -0.513750 -1.514066
2.261685 1.700491 1.210502 0.857801 1.346131 0.900019 1.464472 -0.686867
-2.589772 -0.503093 1.180984 -0.424065 2.094438 1.081556 0.844784 -0.819938
0.050298 -0.235668 0.366071 1.124200 0.051316 0.259500 0.404454 0.541417
0.336733 -0.577452 0.807034 0.436494 0.177319 0.567026 -0.853359 0.791442
-0.456268 1.530044 -0.136077 -2.018670 0.832251 0.582312 0.554680 -0.600346
0.927141 0.566966 -0.179797 0.036656 0.068064 -0.599357 -0.285345 -0.783376
1.466170 -2.096495 -2.080114 0.429401 0.871174 -0.056371 0.078991 -0.221029
-0.625505 -1.095261 -0.029835 0.342022 0.644344 -0.011809 1.184168 0.764355
1.918148 -0.735276 -0.728629 -2.142551 1.472490 0.306108 0.126407 0.239533
0.660241 -0.339973 -0.474906 0.285731 -0.125521 0.616053 -1.403297 1.595196
0.252758 -1.628026 0.640684 -0.441692 -0.906924 0.320205 0.295620 -0.247429
-0.236792 0.623250 -0.542624 -1.024488 -1.259348 0.507788 -0.038200 -1.381258
-0.822146 1.563245 0.196161 -1.316770 -0.524804 1.076978 1.375284 -1.433062
-0.902339 1.367660 0.316791 -0.026546 0.434101 0.603613 -0.158282 -0.678892
0.269581 -0.031602 -1.275695 -0.637257 -0.761554 -0.467030 -1.202832 -2.458776
-0.530232 -1.398861 0.955015 -0.343826 -1.368635 -0.303207 0.851345 -1.144172
0.134169 -0.577507 -0.203868 -0.284250 -0.267070 -2.010243 -1.284212 -0.315653
0.689683 -0.370268 0.305180 0.452971 0.703423 1.798715 -0.386923 -0.196438
-1.774208 -0.920121 1.994469 -0.138947 0.277030 1.126886 -0.296194 -0.728149
0.577250 1.446173 0.914523 -1.041293 -0.744070 -0.284080 0.424729 -1.218255
0.639966 -0.151979 -0.162604 0.070735 -0.246083 0.058954 -1.314991 0.373046
-1.106029 -0.555342 -0.599957 -1.617006 0.729298 1.953136 0.780396 -1.444929
1.731146 -1.563801 -0.349288 0.511920 0.287375 1.500227 0.653818 0.892618
-1.069146 -1.489818 0.911413 0.974331 0.383636 -1.140006 0.246710 -0.211803
0.701582 0.082285 0.653862 -0.061784 0.089984 0.892191 -2.121152 -0.588528
-2.024018 -1.367768 0.797594 -2.185307 1.568416 2.565778 -0.054695 0.382669
0.784339 -0.319363 0.701638 2.672679 -0.896909 0.009829 1.088709 -0.313428
0.429324 0.466214 -1.681723 2.532345 0.353302 0.496722 0.383630 0.371214
0.601232 -0.121276 -0.240236 -0.478366 -1.933804 1.094011 1.240817 -1.790316
1.020806 -1.025440 -1.990763 1.482367 0.193197 1.072489 0.491717 -0.031795
0.934030 0.635551 -0.579804 0.341460 -0.572599 -0.737050 -0.197787 0.844877
-0.865781 -0.589613 -1.047247 0.221524 -0.096059 1.547805 0.154055 -0.879052
-0.650051 0.372729 0.409428 -1.033148 0.856551 0.819905 0.532796 0.134941
-0.496249 -0.215445 -0.579465 -1.503344 0.825849 3.144766 -1.141926 0.341353
0.089570 0.148030 1.066054 -0.884652 -0.243824 -0.522575 -0.864632 -0.433067
-1.476294 0.993495 -1.081760 0.861076 0.322923 -0.651378 2.153769 1.355681
-0.747918 1.077239 0.009654 1.255605 0.232052 -1.724843 -1.253386 1.246367
0.800138 0.276522 -0.790449 -0.887254 -0.215940 -0.506243 -2.301199 -0.168775
-0.626938 -0.600564 0.084798 1.613006 1.022203 -0.315330 0.253944 0.075195
1.163858 0.431687 -0.336763 0.404559 -1.216823 -2.468610 0.800934 -1.530503
-0.963482 -1.054306 -0.610988 0.110327 0.123558 -1.438885 -0.459358 0.719353
-0.160384 -0.618333 0.723859 0.188874 1.050053 0.796514 -0.903165 -0.289671
0.901907 0.317700 1.505380 -0.000454 -0.839994 -0.996346 1.969583 -0.624114
0.600517 -1.264665 0.910899 -0.668589 -0.165319 -1.389208 0.163408 1.055402
-1.317205 -0.098123 0.174589 -1.473792 1.023568 0.592514 -0.652696 0.899942
0.842918 -2.064285 0.942149 1.889433 0.037125 -0.340574 0.478289 0.760284
-0.808137 0.967826 -1.199317 0.679339 1.546428 0.244920 -0.803849 -0.260106
-0.553231 -0.463031 0.373803 -0.580388 -0.923760 0.955163 0.213549 0.768301
-0.999354 -0.831504 1.043396 1.122247 -0.581207 0.559044 -0.178173 -0.326636
-1.007929 0.026484 -0.802347 0.409144 0.215675 0.353003 0.147800 -0.806861
-0.269370 0.149677 0.795779 0.609319 0.520880 1.598692 1.066114 -0.279990
0.134517 -2.240706 0.446010 -2.195143 0.969364 -0.325680 2.116556 0.809063
-1.471008 0.722121 -0.467952 -1.764463 -0.041957 0.377636 0.037098 -0.492667
-1.296324 0.618739 -2.116606 0.304646 2.451335 0.145900 -1.093979 0.696049
0.649793 0.454035 -0.504402 0.509774 1.055510 0.465969 0.310236 -1.771450
1.752757 -1.136072 1.305541 -0.884292 -0.340820 0.786555 -0.182127 -0.131404
0.073439 -0.067428 1.251263 2.272812 -0.070988 -2.138659 1.575240 2.526247
-0.496202 1.559126 -1.202393 -0.635139 0.205713 1.208479 -1.297544 -1.784235
-1.554957 1.532239 0.913746 0.843180 0.132795 -0.217546 -0.928653 -0.453340
0.635049 1.220926 0.192284 -0.240637 0.865230 -1.523983 0.827048 0.235394
0.896350 -1.520848 -0.735397 -1.660821 1.558201 -0.208571 0.148068 0.189993
0.604245 1.274063 0.660340 -1.266168 -0.510074 -1.832049 0.218014 0.622887
0.002945 0.451510 -0.236465 -0.479860 -0.766598 -0.360329 0.580409 1.668334
-1.986600 1.219683 1.349480 0.434214 -0.418101 1.344009 -0.116285 0.117732
0.036838 -0.558158 1.331700 0.870927 0.693140 -0.383462 -0.262339 0.125697
0.619447 0.536532 0.209314 0.981080 0.483750 -2.151981 0.345739 -1.377805
0.152637 -0.207843 -0.571389 -1.300349 -0.200994 0.201812 -1.243282 -0.067030
-0.645330 -0.973437 1.053139 1.696831 -0.831635 -1.675737 0.042063 -1.636869
-0.600868 -1.470216 0.418527 -0.455762 -0.575839 -0.162405 0.845863 0.021750
0.521962 0.341262 1.010900 -0.046918 0.299282 -0.420630 -1.037724 0.639063
0.012834 -0.921301 0.828083 -0.686010 -0.758529 -0.270042 0.053719 0.478525
-1.690434 -0.451432 0.139698 0.393704 1.083874 1.341833 1.094037 0.349566
0.685787 0.205828 -0.244362 0.085245 -0.855309 -0.558359 0.054221 -0.586874
-2.851706 0.307915 2.588542 -0.609559 0.531418 -0.392020 -0.650824 1.147252
-0.164258 -1.351104 0.474991 0.375691 -0.589590 -0.468286 2.870020 -0.042011
-0.537231 -0.430535 0.820565 -0.318442 0.439602 0.495356 -1.734965 1.127834
1.148487 -0.049798 -0.727566 -0.503049 0.110586 0.257801 -0.603232 -0.554248
-0.627716 -0.378206 -1.480618 1.459861 0.447065 1.711880 -1.178174 -0.541906
0.527736 -0.000933 -1.565392 -0.683375 1.330935 0.437853 -1.314960 -1.925334
0.125459 2.401873 0.319874 -0.323856 0.906535 0.610322 0.364108 0.841360
-0.058117 0.065567 -0.166948 0.772771 0.568854 -0.149179 -1.282665 -0.412971
1.372173 1.342577 -1.291872 0.949498 -1.079018 -1.014345 -0.586514 1.795952
-1.089647 0.108256 -0.130157 -1.847184 0.392880 0.486265 -0.111925 -1.206144
-0.725037 0.435729 0.175320 1.632698 -0.064142 -0.084760 -0.813183 -0.036694
0.371842 -0.542140 1.325602 0.460846 0.755511 -0.037354 0.056621 -0.069712
-1.863997 -0.112303 -0.564324 0.451037 -1.708176 0.420295 1.465187 -0.524800
0.263337 0.462262 0.373713 0.348969 -1.054403 1.798270 1.013341 -0.960197
0.849040 0.267906 -0.201947 1.024502 0.814876 1.413517 1.593470 -0.742577
0.736582 1.142997 0.900517 -0.971124 -0.803808 0.358173 1.445186 -1.392679
-0.456757 0.721462 0.560142 0.534881 0.311906 -1.031709 -0.284269 -1.509724
0.189199 -0.117166 0.788113 1.106909 0.412981 0.052953 0.201031 -0.551521
-0.479023 0.860432 -1.540662 0.664802 -0.077005 -1.047929 -0.136787 -0.743892
-0.913500 -0.246714 0.572370 -0.409905 2.045342 -0.711266 1.036303 0.024272
-0.872987 0.630771 0.564668 -0.213894 0.686269 0.316716 0.560180 -0.407375
-0.304245 0.973865 1.331707 0.346712 1.407804 1.867085 -0.021664 -1.014911
-0.356594 -0.747293 -1.081834 0.149095 1.039405 0.739874 0.653460 0.765312
-0.796279 -1.065775 0.472396 -0.160376 0.111988 0.426420 1.892551 -1.189383
0.397647 1.544068 0.473381 0.401090 -0.274626 -0.376441 -2.180675 -0.389318
-0.544994 0.665261 -2.649856 0.238349 -1.267609 -0.647266 -0.121426 -1.150463
0.512124 0.345075 -1.171150 0.255970 0.451532 -0.777410 -2.579262 1.332769
0.310022 0.080718 0.137226 1.275692 0.426287 0.122464 0.557487 0.304640
-0.537301 -0.228720 -0.027439 -0.087967 0.570805 1.126296 0.593955 -0.608442
1.605452 -1.262489 -0.056789 0.637340 -2.725694 0.470981 0.154999 1.440957
0.635278 1.663554 -0.499229 -0.286389 1.062460 0.292314 -0.616033 -0.090944
-0.380073 -0.261994 -0.522605 -0.422744 0.077217 1.604980 1.268540 0.190818
0.277326 -0.928196 0.274769 0.663609 1.466359 -0.104329 0.768939 0.004070
-1.960176 -0.635412 -0.630168 0.098681 -0.377476 -0.368591 -1.827286 1.024069
-0.261881 -0.115397 1.706412 0.656287 0.963529 -0.788457 1.244990 -1.629257
0.794691 -0.869332 -0.428043 0.813580 0.240259 0.082464 0.199982 0.952563
-1.055189 -0.743795 0.455368 1.296982 0.082740 -1.343658 -1.497772 0.851259
-0.714710 -0.281149 1.939211 -0.511033 -1.880788 0.081251 -0.516189 -0.296503
-1.095076 -0.640684 1.220626 0.623336 0.781110 -1.881444 1.531301 -1.792153
-1.831260 1.450043 1.537863 -0.886828 1.199993 0.473744 1.947523 -0.971392
0.365846 0.540753 -0.427742 0.483528 -1.210604 0.750013 1.168360 0.614293
0.082194 0.585414 -0.899897 -0.540027 -1.485818 0.385496 -0.368252 -0.256463
-0.449691 1.299155 -0.706258 0.688741 -0.843514 1.750721 0.022626 0.281655
-0.695400 0.634647 -1.047142 -1.089397 0.873786 1.089265 -2.115519 2.185497
0.216204 0.374033 -0.962104 -1.305492 0.830221 0.229280 -0.503689 -0.115898
-0.364379 0.541455 -0.143365 0.122775 0.041202 -0.169855 -1.852872 0.257745
-0.022161 0.422384 -0.859579 0.290991 0.652944 2.097974 -0.924280 -0.459785
0.105167 0.122075 2.240628 0.128713 -1.205236 1.099475 -1.252655 0.730413
-0.895646 1.256603 -0.344567 -1.157759 0.482137 -0.619459 -0.135550 -1.608699
-0.086202 -2.266732 1.603536 -0.532189 -0.230337 0.768115 -0.327366 1.421924
-0.421572 0.844719 -1.990864 -0.172394 0.375735 0.317356 -0.451726 0.094174
0.809321 -0.529347 0.448284 -0.801326 0.631741 1.397006 -1.116118 0.143046
0.826838 1.208324 0.529319 -1.186539 1.175751 1.308941 -1.425311 -0.415271
0.927236 0.026324 0.705645 1.061509 -1.611512 0.452998 1.141260 0.237969
-0.280496 0.161361 1.097049 -1.247879 1.400434 -1.062401 1.582933 -0.240575
0.997516 -0.644947 0.337374 -0.359313 0.874908 1.429615 -0.782822 -0.338405
-2.259318 1.300635 1.994446 -0.288532 0.795841 0.604313 -1.371004 -0.754992
1.104740 0.513683 -0.204592 0.353251 1.138212 0.447709 1.375260 1.013970
-1.018909 0.967691 0.435624 0.275413 -2.532989 0.093488 0.342250 1.858062
-0.862877 -1.293243 1.385781 -1.847431 0.315284 -0.454502 -0.425421 -1.320094
-2.023739 -1.043591 1.240085 -0.533234 0.847846 0.557398 0.266261 -0.307865
0.269249 -1.865702 0.366760 -0.327168 0.218818 -0.104630 -1.354964 -1.758275
-0.285802 -1.313699 -0.668328 1.393862 1.882950 -1.496697 -1.389035 0.166537
-0.169277 0.142401 0.570132 1.141797 -1.229085 0.623789 0.186952 -0.917189
0.446510 1.470611 -1.590760 -0.102244 -0.545752 -1.375632 0.003624 -0.570372
-1.019130 -0.508039 -1.258580 -1.249012 0.619931 -1.318121 1.376366 1.357734
-0.232147 0.085551 0.258425 -0.607236 1.101666 0.494861 0.612998 1.831591
0.376626 1.945716 -0.721608 1.002077 1.115467 -1.891025 0.822615 -0.068795
-0.073079 0.377997 -0.138052 -0.270192 -0.407098 1.512131 1.272117 -0.554447
2.120958 -0.260396 0.769991 -0.562741 -0.725017 1.146694 -1.720161 0.924321
0.213339 0.698495 0.648712 0.441962 -1.403836 0.676610 0.256320 0.072225
-0.738613 -0.371665 0.244500 0.406564 0.937537 1.622744 1.354212 -1.027294
0.054693 0.459782 -0.782403 0.779173 -0.921664 0.305400 1.413986 -1.155570
-0.590984 -0.046413 -2.180118 1.397723 0.592827 0.193034 -0.057432 0.108170
0.302514 1.421873 0.446200 -0.315203 2.938152 -0.634688 -0.763944 -0.988431
1.169927 -0.592496 -1.034520 0.779761 -0.604113 -1.311590 0.823076 -0.382675
-0.699604 -0.720821 -1.266703 -0.128402 -0.057220 2.152814 -2.175632 0.542907
-0.644576 0.587270 -3.086717 -1.355388 -0.299860 1.083876 -0.805730 -0.033406
-0.736471 0.562971 0.477515 0.919779 1.025322 -0.378366 -0.987602 -0.690678
0.238763 -0.024026 0.006874 0.560913 0.924768 -0.456040 -0.152443 -1.002133
-0.521866 -1.250753 -1.419869 -1.575497 -0.162782 -0.839138 -0.415689 -1.493794
0.584272 -1.332223 -0.879874 -0.364352 -0.779116 -0.626637 0.079090 -0.506689
-0.640326 0.895817 -1.010630 0.546358 -0.455262 0.393050 0.445839 1.587875
-2.502290 1.265381 -0.554922 0.374564 -0.017326 -0.203936 1.135607 -0.758664
-2.241901 0.304050 0.435072 -1.238058 0.143391 1.241462 -1.677425 -1.060152
1.493159 0.261163 -1.019157 -0.857234 -0.341045 -0.707594 0.018101 -1.170444
0.596078 -0.380395 -1.632698 -0.418736 1.321087 -2.141846 0.342881 -0.827097
-1.531668 0.033760 -0.761376 0.662066 0.598589 -0.214299 -1.646433 0.864351
-1.649372 -0.518863 0.456068 -1.227017 -1.212273 -1.223543 1.680054 -0.298064
-0.260744 1.087005 -1.335000 -1.361829 -0.176131 1.271532 -0.174127 -1.454424
-0.707245 0.947650 0.260022 -1.492134 -0.371289 -0.465905 -0.678686 -0.930638
0.301923 0.028068 -0.327635 -0.335931 -0.787819 1.508878 -0.004929 -0.118732
1.648552 -0.180795 -1.857749 0.970172 -1.586910 0.048920 1.132778 -1.952770
0.562793 -0.252257 1.447197 0.978324 -1.319409 -0.071275 0.268536 -0.699052
1.753718 -0.038341 0.528396 -0.987307 2.730340 -0.359051 1.114334 0.020524
-0.532266 1.867164 1.754485 2.055403 -0.697046 -0.775758 -0.047771 1.533988
0.158440 1.046716 1.293871 0.503342 -0.454633 1.587545 0.323317 -0.207741
0.869602 -1.455616 0.305202 -1.013538 -1.329779 1.274735 -1.280494 -0.733989
-0.357731 0.269817 0.986741 -1.367089 0.449842 1.192694 -0.493094 0.556391
0.440737 -0.710442 -0.777961 0.440041 -0.131649 2.717550 0.637045 -0.678042
0.596517 0.026462 0.052008 0.601726 -1.024346 0.837041 -0.316108 -0.494390
0.636352 -0.433571 -1.453594 -1.560316 0.413936 0.352218 -1.164881 0.420963
0.822520 0.788977 -0.141008 1.067322 0.545185 0.904182 -1.434150 -0.909859
1.993920 1.056832 -1.372044 -0.362090 1.736978 0.648797 1.044121 -0.640685
-1.364529 0.179173 0.565240 0.327199 0.013574 2.691839 1.272917 -0.634301
0.559784 0.504010 0.982783 1.962301 -1.262815 -0.761891 2.113661 0.347698
0.950453 -1.534543 -0.170942 0.980184 -0.058624 2.073121 -0.397681 -0.201581
-0.178723 -1.156575 -0.986020 1.176279 -0.685572 -0.998941 0.544123 0.080593
1.787129 -1.028591 0.501068 2.052283 0.412204 -0.567371 0.621005 -0.366860
0.126523 0.231456 0.156393 0.249110 0.900347 1.676463 -0.486157 -1.300130
-0.312297 1.116761 -0.405314 -0.254715 0.116949 1.529984 -2.572788 -0.397498
-0.163567 -0.394633 -1.942886 0.010882 -0.750313 -0.038911 1.816698 0.424114
-0.585001 0.174114 -0.203150 -1.271365 0.872904 0.141364 -1.405804 0.408326
1.395178 -0.398047 0.935630 -1.086949 -1.285178 -0.048298 -2.355598 -0.036014
-0.624346 0.827130 0.045847 -1.458370 0.320088 -0.097889 0.282724 0.629660
-0.573422 0.769937 1.054789 -2.561612 0.697995 -0.296043 0.611091 -0.605840
1.647340 -1.707812 0.096255 -0.286452 1.016799 -0.657954 -0.399913 -1.797358
-0.378384 0.232395 -0.732179 -0.403740 1.206269 -0.693840 -1.516453 2.024211
-0.791900 0.177746 0.376362 0.560653 -2.370076 0.304409 0.150262 -0.786832
-1.332755 -0.050294 0.863779 0.237757 0.583578 -0.837096 -1.217213 -0.504418
-0.168559 -1.610314 0.189587 1.839997 -1.202328 -0.061074 0.149775 -0.164901
-0.306861 0.115803 1.080163 -0.451385 -0.354533 0.190453 -0.329585 0.834596
0.601768 -2.115614 0.515178 0.665044 1.613387 -0.118681 -0.938159 0.857712
-0.915362 1.018385 -1.359006 1.596092 -0.275976 2.179888 -0.416977 -0.177763
-1.101013 0.097085 -1.924856 0.056729 0.689988 -0.410476 0.875978 0.837925
-0.057939 0.177202 0.610694 0.132220 0.730044 1.910308 -0.381721 -0.848600
-0.515441 -0.584314 0.415944 -1.223740 1.241750 -1.702298 1.651396 -0.728043
0.593234 -0.057402 -1.125129 -0.512715 -1.493501 -1.126185 0.225291 -0.616930
0.856240 1.468748 0.384245 0.025024 -0.011376 1.180681 -0.658706 -0.085573
0.354235 0.599136 0.164944 0.702514 -0.069631 -1.037086 -0.088209 0.415075
-0.660088 0.599171 0.650085 0.621834 0.065885 -0.540176 0.427440 -1.374938
0.847517 0.309680 -0.421339 -0.215769 0.945317 1.661917 -0.847759 -0.290445
-1.250261 0.287486 1.047065 -0.792654 -0.205563 0.046656 0.909379 -0.729159
-0.382757 1.023597 1.058161 -0.777387 -0.062084 -0.770718 -0.054362 0.825550
0.218995 -0.222115 0.272078 1.062877 -0.526188 -0.918702 -1.620108 1.758701
-1.331643 -0.105516 -0.510281 0.957435 0.252806 0.132435 0.289545 0.902428
-1.040545 0.214775 0.202748 0.292529 0.055252 -0.019502 0.037480 -1.761458
0.533311 0.367207 -0.183703 -1.256943 -0.043250 -0.314257 1.550615 0.599288
0.636954 -0.809294 0.202694 0.099795 -0.934697 0.412354 -0.752956 -2.046810
0.526818 0.635308 0.007254 1.387415 -0.018114 -0.072516 -0.290330 -0.145049
0.333175 -0.188909 0.015711 -0.496191 0.559417 0.436842 0.509643 -0.082814
-0.491260 0.378837 -0.492316 -0.306098 0.428373 1.167964 -0.718981 -0.520091
0.201762 1.270699 0.285025 1.089926 2.457836 0.325168 1.671877 -0.311032
0.928720 0.098498 -2.000817 -1.062237 -0.134527 -1.014593 0.911525 -0.140800
0.232990 -0.099182 0.178143 -1.577541 0.738732 -0.495294 -1.526087 0.103582
-0.420177 -0.007522 -0.184431 -1.538576 0.360657 -0.299586 -1.244370 -0.877945
0.875457 0.205045 1.019692 -0.715636 0.032956 -1.045679 1.463707 0.397093
0.850004 0.487785 0.562235 -0.001106 -0.547345 0.183269 -0.754592 -1.041280
0.577799 1.512912 0.418039 0.414036 0.102973 0.600658 -0.068232 -1.728823
0.198944 0.793189 0.714822 -0.634319 -0.458256 2.205388 -1.854117 -1.360051
-0.925308 1.305130 1.308132 -2.712164 -0.943868 -0.652162 0.773408 0.872530
-1.226512 0.786126 -2.095715 0.453824 -0.439073 0.483611 0.926372 0.069310
1.365306 -0.710239 -1.465962 -0.510995 0.823390 1.197702 1.398034 0.200121
0.111946 0.992457 0.846950 0.190917 -0.426655 -0.482921 0.609613 0.593115
-0.380731 1.312392 -0.991995 0.536511 -2.344560 1.305061 -1.248259 0.268153
1.020501 -0.059654 0.040934 -0.747171 -0.785394 -0.672327 1.899667 -0.507843
-0.063088 0.950359 0.669218 0.125007 0.508546 -1.064666 -0.464773 -0.915267
-0.359519 -0.086212 -0.873270 0.311776 0.129500 -1.968994 1.082404 -0.793998
-0.054126 0.795626 0.498092 -0.154833 1.320510 -1.036261 0.991990 0.709808
0.746535 0.434901 -0.998375 0.008348 0.656701 1.205208 0.787519 -0.940196
0.779670 0.186097 1.082534 0.562782 -0.425883 1.332421 -2.382287 -0.537768
-0.580207 -0.736890 1.716941 0.379196 0.474814 0.417337 0.233452 1.586110
0.720779 1.948854 0.178028 -0.945633 0.011882 -0.675282 1.320198 -1.698059
0.700479 1.460135 -1.756555 0.061298 0.213770 -0.679504 -0.528132 2.030292
-0.621268 -0.720801 0.052995 0.471042 1.388271 -1.280911 0.342615 -1.531251
-1.887389 0.864226 0.200531 -0.241085 -0.754329 -0.170270 -0.120774 0.621519
-1.024658 0.955626 -0.424119 -1.414432 2.250452 0.949357 0.704674 -0.659555
-0.568338 -1.400468 0.523426 -1.394448 -2.803608 0.477665 0.325666 1.503863
1.470299 0.283192 0.996524 0.297493 -0.316707 1.349052 -0.557677 -0.478208
0.375288 -0.031879 -0.361118 -0.923950 0.875184 -1.034491 0.435411 -0.629712
-0.065811 1.493400 -0.079638 -0.301947 -1.121255 -0.229978 -1.160451 -0.753842
1.669527 -0.378353 1.637557 0.444718 -0.208889 0.017187 -1.358462 1.185271
0.356834 -0.894481 0.240184 2.919741 -0.702353 -0.704762 1.203811 -0.785778
0.296477 0.243165 0.074843 0.899156 -1.104387 1.352754 1.037937 -0.576344
-3.245675 2.067239 0.354790 0.008694 0.203146 -1.613259 0.094890 1.136751
-0.235473 0.760851 1.313019 -0.257959 -0.381065 0.437022 -0.928248 0.351103
1.798900 0.500540 0.665506 0.296851 2.769397 -0.482725 -0.150445 -0.377847
-0.963293 0.243659 -2.650307 -0.066610 -0.398330 -1.667440 -0.448014 -0.413670
-0.273007 1.246535 -0.615459 0.413928 -0.680213 1.336703 0.821990 0.822027
-0.981943 -1.144032 0.169570 -0.269954 0.371902 1.682988 -0.249153 -0.280299
-0.937199 -0.941746 0.364046 -0.401191 -0.106488 -0.050619 -1.861251 -0.020756
-0.740850 0.886092 -1.133923 -0.932753 -0.916289 0.406425 1.176074 -0.161391
-0.161958 -0.304093 -0.151003 0.547390 1.768121 -0.142143 0.432005 -0.851105
-0.289284 1.223085 0.867252 1.418611 -0.900678 -1.112398 0.338427 -2.177486
0.408670 -1.221209 0.566418 -0.252145 1.606351 0.161882 -1.308758 -0.394847
-0.942385 -1.046474 0.586707 0.312637 -0.705973 0.852947 0.771171 0.333291
2.129565 -0.003242 0.352103 2.312258 0.495224 1.665756 -2.739150 -1.863692
0.964449 -0.010043 2.826510 0.607373 -1.999305 -1.594182 -0.552748 0.205457
-0.049593 1.020561 -0.420434 1.018260 -1.288633 -2.092824 0.617425 -0.170756
-0.219259 -0.470112 -0.950082 -0.680840 -0.980899 -0.751958 -1.032486 -1.808029
0.234522 0.614066 0.402408 -1.998727 1.209870 -1.780969 -1.265109 -1.620096
-0.747620 -1.127481 1.282498 0.851449 -0.125590 1.494243 -1.460295 -1.184286
-1.834178 -0.037435 1.610027 -0.040250 0.022707 -0.773424 0.162729 1.675270
0.013904 0.390263 -0.964148 -0.122105 -0.067401 -0.460524 0.400820 -0.895441
-1.743293 0.674297 0.927277 -0.414966 0.077495 -0.145883 -0.897779 1.281821
0.193788 -1.967140 1.223242 -0.200467 -0.355655 0.183300 -0.561993 1.134379
-1.720619 0.279062 -0.908052 0.995633 -0.462722 0.572464 -0.720009 -0.613873
-1.223975 1.051173 -0.396902 0.344179 -0.331556 -0.275612 0.200723 0.456512
0.572237 0.392741 0.634578 -0.108276 -0.260795 0.177526 -1.844444 -0.436624
-0.094628 0.485084 1.164868 0.227708 -0.277391 1.545222 0.164007 0.377914
-1.999269 0.064341 0.269718 0.403470 0.679208 -1.272364 -0.320056 -0.728419
-1.751257 0.901633 -1.384005 -0.807734 1.206516 0.189402 -0.653278 -0.235921
0.534855 -0.255442 1.441270 -0.707680 -0.274617 -0.806200 1.346832 1.446385
-1.260891 -0.436853 0.822227 1.939109 -0.071898 0.251987 0.477834 2.554377
0.456731 1.106606 0.916955 -0.231278 -1.498668 0.642739 0.182229 -1.075720
1.572142 1.009473 0.402943 1.614553 0.447552 0.549911 0.219994 -0.019641
0.334555 -0.451633 -0.247860 0.846593 -0.525820 1.585372 0.096282 -0.201851
0.927752 1.135775 -0.229115 -2.184511 0.221187 -1.555645 0.015413 1.151878
-1.447691 1.361288 -1.306271 1.640743 -0.339317 0.133479 -0.914130 -0.154796
0.433016 -0.186992 -1.808846 -0.754728 1.234438 0.992685 0.545117 -2.043280
-0.695544 -0.085432 -2.077903 -0.304386 -0.210135 -1.643316 0.989085 -0.642484
1.245148 0.336481 1.287706 1.250454 0.847634 0.404210 0.526207 0.060704
-1.075345 2.020176 0.634285 -1.019582 0.257392 -1.176830 0.076470 2.286852
0.772226 -1.579667 -0.680548 -1.231475 1.358775 -1.186990 1.505394 1.564652
-0.296873 2.117445 0.766661 -1.936872 -0.457295 2.616401 1.180386 1.203534
-0.699772 -1.096972 -0.551661 -0.326322 0.620529 -1.409861 -0.415395 3.068681
0.191902 -0.562329 -0.750458 0.782477 -0.315210 0.045616 -0.129067 0.279837
-1.127706 0.925733 0.937740 -0.948113 -1.864185 0.609667 1.608738 -0.202725
-0.719803 1.137315 0.879878 0.634925 -0.675745 1.970422 0.904363 -0.952646
0.152835 -0.008276 1.379530 -0.204396 -0.463792 -1.326901 -0.826744 0.968699
1.475305 0.683948 -1.025700 0.381296 1.981719 -0.702315 0.532221 -2.481226
0.429210 -1.576329 -0.558552 -1.416237 -0.655604 1.060940 0.677964 -1.725021
-2.173332 0.467393 -1.299320 -0.261592 -1.103004 -0.730702 1.030414 -0.726331
0.787216 -0.150022 -0.264413 1.052617 -2.071826 0.558447 1.436593 -0.053208
0.590817 -0.076099 0.104487 0.369446 0.223522 0.125951 -0.419302 -1.620722
-0.543221 -0.692663 2.015783 -2.486730 1.081800 -0.415200 2.435686 0.834431
1.399105 1.952245 -0.414018 -2.139998 -1.142332 -0.067770 -0.522822 0.941754
-1.318020 1.064731 -0.936325 -0.249246 0.439152 0.987430 1.660196 0.238228
0.284203 0.797805 0.153096 2.299364 -1.200719 -0.377060 0.382902 0.982592
2.587070 -0.738667 0.329652 2.811424 -0.879488 -0.330602 0.645703 0.178404
-1.088943 -0.305889 -2.214793 1.327531 -0.315829 -0.278810 -1.435818 1.490410
-1.068720 0.095422 0.459795 -1.014631 0.224414 0.240625 0.111923 0.640808
0.157399 -0.549125 0.597875 -0.865238 -1.143358 -1.399585 1.008274 -0.674710
0.433919 -1.229628 1.262129 -1.026100 1.468617 0.259696 -0.241052 0.682901
0.034434 0.936168 -1.664576 0.289352 0.035302 0.071637 -0.829353 -0.331716
1.005526 -0.010771 -0.062363 0.445718 1.854571 -0.409744 2.278710 -0.289891
2.617636 -0.702486 -0.160854 0.827320 -0.308631 1.230351 1.363337 -0.551402
0.552800 0.182165 -0.181171 -0.983285 1.638297 1.436440 0.640290 -0.828071
-0.274583 0.664004 0.660877 0.718998 0.490676 1.272005 -0.189199 -0.574655
-1.091197 -1.320158 0.238116 1.290346 1.951936 1.140892 0.689068 1.705246
0.597309 -0.304112 1.867831 1.195182 -0.196667 1.064757 1.793821 0.090046
-0.378772 -0.139701 0.850439 0.165006 -0.762146 0.498697 0.564769 -0.753325
0.465913 1.353925 -1.459296 0.374694 0.746073 0.265900 -1.085418 -1.508464
-0.295459 0.841677 1.260134 -0.928027 0.526552 -0.763198 1.590732 -1.063505
0.697852 -1.663813 2.336058 -1.138904 -0.126682 -0.456376 1.246892 -1.579683
-0.750633 -0.003572 -0.195771 0.702097 -0.916346 -0.467462 -0.539586 -0.390900
-1.377730 -1.775174 0.463024 -0.554559 0.142539 -0.567960 -0.626790 0.599087
0.834133 1.131761 -0.572116 0.284665 0.177339 0.233194 -0.705455 1.309366
-0.694137 0.101066 1.277027 -0.556666 0.756266 0.017834 -0.231177 0.159451
1.143995 -0.205152 0.408506 -0.313442 2.325890 -0.519764 1.040688 -0.390622
0.502375 -0.494360 -1.145110 0.061149 1.219774 0.623676 1.426343 -0.511834
0.612871 -0.211885 2.518388 0.154116 -1.904434 0.772912 1.122723 -0.154230
1.001449 -1.747739 -2.562538 -0.689342 -0.515947 1.968391 0.478810 0.010634
-0.759371 -0.863469 1.770491 -0.314510 1.032345 1.550638 0.303288 0.436952
0.878913 -0.700385 -0.624778 -0.300082 -1.403623 -1.246140 -0.226565 0.190023
-0.614984 -0.943663 0.424306 -0.519173 -1.215731 -1.214318 0.631819 0.178961
-0.160121 -0.386903 -1.082751 -1.110264 -1.846017 -2.103643 -0.648412 -0.755341
-0.936062 -0.195930 1.234487 -0.838007 0.454899 -0.124999 -0.902863 -0.743633
0.314218 -0.510429 -1.459131 0.490499 0.439960 0.992035 1.696024 -0.278994
-0.636280 2.306603 1.156803 -0.468874 1.550826 0.540643 -2.369586 0.554159
0.024500 0.259827 0.734868 -0.006030 -0.788438 1.137125 -1.736621 0.961479
-0.488082 -0.656836 -0.472082 0.359717 0.530750 1.007924 1.609511 1.601682
-0.001762 0.558247 0.498442 0.130179 -0.592109 -0.242655 0.351912 0.027244
0.072006 1.071755 -1.000206 0.048416 0.800691 0.403874 -0.602025 0.078051
-0.246610 0.020012 -0.232880 0.552520 -1.494873 -1.066002 0.265348 -0.180399
0.179348 1.027955 0.769392 -0.659738 -0.490479 0.140342 0.845026 1.598856
-0.613811 0.426994 2.048244 0.122683 0.752648 0.907142 0.166259 -1.728677
-1.163292 -1.229504 -0.116095 -0.000865 0.966325 -0.695578 0.931391 -1.661895
-1.125667 0.306925 -0.869587 -0.136372 0.899039 -1.141147 0.281751 1.230870
-0.554615 1.968978 0.161856 1.375998 -0.151495 1.388090 -1.138165 -0.793830
-0.720081 -0.243530 -0.162663 0.428858 0.265138 -0.406976 -0.652896 -0.348205
-0.602495 0.817565 0.724705 -1.138645 0.931509 -0.522632 0.732451 -0.628716
1.014301 -0.271578 -0.637167 -0.039376 1.831193 -0.632500 -0.411823 -1.191566
-1.116428 -0.609735 -0.013871 -0.161310 -0.965659 1.269744 1.118420 -0.294617
1.139584 0.420397 0.155398 0.804210 -0.657198 -2.079860 -0.659663 -0.980675
-0.502068 0.459301 -1.306812 0.930263 1.070962 1.338475 0.278290 -1.328766
-0.280716 -2.407038 -2.474003 -0.019293 -0.505705 2.117324 -0.829229 0.873183
0.213139 -0.869371 1.070826 0.563421 0.112938 -0.212585 1.239489 1.800864
-0.693348 -0.876124 0.005738 0.262186 0.438751 -0.579529 0.175838 -0.299497
-1.144973 -0.802596 -1.030935 1.159761 0.731389 1.951315 0.387247 0.207000
-0.522923 -0.260921 -2.144998 1.024712 2.144716 -0.343846 0.913100 -2.460742
-0.567626 0.252085 -0.476417 -0.433794 0.776163 -0.500677 -1.155972 -0.002180
-1.594418 -0.289061 1.033380 0.930602 1.916444 -0.502896 -2.003269 0.179187
-2.133718 1.042817 0.448354 -1.923585 0.897710 -1.470923 -1.293740 -0.268514
-0.025883 -0.270501 1.049856 -0.741451 -0.798240 -0.393509 1.038719 -0.557245
-0.271010 2.152770 -1.205985 0.332165 -0.454447 -0.961397 -3.324866 0.778322
-0.294256 0.305393 -1.591164 -0.828094 -0.643996 0.080216 -0.728756 -0.448874
1.288042 -0.415467 -0.451614 1.996085 -0.702321 0.455278 0.634102 0.819694
0.937591 0.910960 -0.119561 0.244442 0.568069 -1.643176 -0.754065 -0.864021
0.155168 1.037620 -0.475965 1.352420 1.023849 2.214400 -1.079298 2.229992
-0.903326 -0.561393 0.118176 1.026743 0.868460 0.390721 -0.525555 1.777986
-0.167674 -0.970357 -2.387466 0.006327 0.846431 -0.093814 0.526117 -0.602739
0.802135 -1.153735 0.146758 0.917422 -1.643397 0.966920 0.808108 -0.941386
-0.083985 -0.789866 -0.416535 0.058085 -0.421702 1.514575 -0.064412 1.422614
-1.039962 -0.209700 0.416606 0.890651 -0.215025 0.666542 0.929922 -1.056324
0.916139 -1.630130 1.623774 -0.863278 0.495263 2.115925 -1.239892 2.625568
0.326831 -1.319841 0.774388 0.365857 0.184359 0.580229 -0.149623 -0.105116
0.957249 1.121544 -0.868343 -1.090185 -0.159717 -1.589229 1.490388 1.714767
-0.849988 -0.369552 2.479926 -0.639531 0.535350 0.729751 -1.376723 1.604207
-0.741155 0.355958 -0.779442 0.831482 0.585960 -0.709131 -0.102875 -2.354871
1.431153 -0.448354 0.668678 0.773007 -0.345025 1.130351 0.627178 -0.634968
-0.788975 -1.213312 -0.890584 -0.583214 -0.896818 -1.116712 -1.446511 -0.366625
0.729846 0.913247 0.628585 0.806483 1.464832 1.218606 -1.840649 -1.204348
-1.059382 -0.141629 1.144255 0.601059 0.003237 0.082407 0.269957 -0.410244
-1.623707 0.011684 -1.585803 0.802642 -0.014481 -1.710124 -0.513602 0.553045
-1.077855 0.000039 -2.091818 0.383191 0.153323 0.341517 0.172744 -0.536614
0.594598 1.469051 -1.243755 0.351847 -0.082831 0.196680 1.158953 -0.357629
-0.129617 1.189378 0.991686 0.315231 1.813282 0.446619 -0.754735 -0.171676
-0.180920 -0.318567 -0.032542 0.635319 0.071003 0.728435 -1.024031 -0.781869
1.296339 -1.538266 1.097623 0.370864 0.455970 0.867399 -1.592543 -0.082000
-1.200143 -0.793399 -2.730976 -0.014750 -0.040016 -0.114949 1.458335 0.483625
1.434484 -2.315189 0.414447 -0.450264 0.386953 0.810882 -1.587217 -0.072239
-0.712528 0.262950 1.132527 0.882809 0.976368 0.352554 -0.510326 0.048220
0.593430 -0.138131 0.962606 1.048115 -0.355351 0.654723 0.666729 -0.381774
-0.293056 1.044037 -0.503735 -1.003595 0.051305 -0.727919 0.759525 0.028696
0.298383 0.591346 -1.101306 2.044615 -0.603671 -0.134092 0.371555 0.697157
0.100986 0.405919 0.900914 -0.115426 -0.226116 0.866420 -0.494676 -0.716531
1.711755 -0.853852 1.043779 1.885795 1.575719 1.199075 1.456063 -0.204166
-0.930004 -0.591955 0.021145 0.023977 -0.732453 -1.691827 -1.196977 0.863427
-0.688060 0.861021 0.550421 1.432652 0.727868 -0.086845 -0.642499 0.040368
-0.158729 -0.331711 -0.654091 -1.249626 -1.079554 -0.955380 0.124181 0.237715
-1.426542 0.053956 -0.710264 0.449674 0.886498 0.576657 -1.234746 -0.177653
-1.439505 -0.604229 -0.503896 1.638987 1.464799 -0.497003 -1.233577 0.317445
-0.445607 -0.807304 -0.877399 0.134936 1.521688 0.237886 0.828561 -0.735617
2.793398 0.422835 -0.007763 -1.395544 1.599433 -0.781547 -0.749797 0.296213
-0.053691 0.999820 0.195276 1.630417 -0.656021 0.988342 -1.364335 -0.040992
0.993391 1.118316 -0.059430 1.075522 0.604194 0.840995 0.513016 1.418990
1.653778 1.938720 1.254553 0.588178 -0.524246 -0.204745 0.453123 0.376735
0.448770 -0.434734 1.858336 0.358278 0.184502 1.472188 0.905695 -2.005184
1.772222 -1.475945 0.647510 -0.483296 0.546248 1.673466 0.234475 0.244166
-0.955626 0.435142 -1.100557 0.913084 -0.459598 2.190128 -0.682377 -0.228776
-0.129623 -1.208168 -0.512269 0.358265 -0.101505 0.446344 1.105491 0.407811
1.008130 1.481389 1.115736 0.148265 1.424644 0.158821 0.570883 -0.080596
-0.386958 0.060038 0.762052 -0.427347 0.381376 -0.025947 2.004166 -0.661469
0.494928 -1.148011 2.382577 0.478083 -0.270660 -0.609808 1.761363 0.974433
-1.210880 1.487155 -0.438701 -1.344187 1.209091 -0.110864 -1.289222 -0.039133
-0.406508 -0.026160 0.715450 1.148735 0.454019 0.284645 -0.068804 0.146081
0.727636 -1.625199 0.392539 -0.065713 -1.125794 -0.731687 1.112858 -0.485158
1.060750 0.219260 -1.209778 0.163953 0.223486 0.377994 0.859075 0.067043
0.971886 0.143566 1.066573 -0.121042 1.588802 0.883532 0.719898 2.342768
-0.710013 -1.250508 -1.174849 -1.416874 -0.595063 -0.401381 0.433787 0.420783
-0.608742 0.983269 2.428080 1.144029 -0.101146 0.099174 0.381458 1.672327
-0.503124 1.852599 -0.336572 -0.429785 0.653434 0.816225 -1.516566 1.885809
1.794592 -0.842764 -0.776124 0.706520 0.020996 -0.714811 -0.218179 0.654565
-1.340275 -0.727621 0.850485 0.178416 -0.104455 1.082002 -0.995901 0.342160
-0.044914 -2.444459 -1.247802 -0.046425 0.879428 -0.744310 1.398215 0.711479
-1.901693 0.506941 -0.868109 -0.094063 0.922383 -0.603804 -0.628732 -0.847917
0.805915 0.575732 -1.321881 0.390889 -0.458907 -0.001825 -0.614730 -1.041556
0.668464 0.917010 -0.520317 0.246950 0.713477 2.264979 -1.008412 -0.589495
0.024974 -0.430021 1.017188 -0.548503 1.608385 0.586327 0.157589 -0.982811
0.215597 1.432543 0.297416 0.670877 -1.319939 0.073140 0.380896 0.910378
-0.364081 1.198965 0.703358 1.980670 0.016623 -0.031949 0.845605 -1.135947
0.264327 -0.056734 0.533066 -0.348502 0.072361 -1.026419 -1.130815 -0.426489
-1.105487 -0.463276 0.371547 1.352292 -1.829179 -0.792140 0.818201 -0.244107
0.094145 -0.651136 0.174674 -0.711425 0.220095 -1.131285 -0.341465 -0.363092
0.325818 0.326326 1.789461 1.519919 -0.010702 -0.229738 0.296528 0.835361
0.436856 -1.298834 0.068718 0.292650 0.875412 1.168701 0.503108 -0.310699
-0.232238 0.538780 -0.363889 -0.933743 0.467779 -0.281706 2.586093 -1.599663
-0.529414 -0.475758 -0.133505 -0.527322 0.363695 -0.407611 2.135914 -0.121217
0.445008 -0.226353 0.782571 0.696306 0.077511 -0.074566 0.750357 -0.370988
-0.446144 -0.397921 0.157569 0.132643 0.779748 -0.476980 -0.098120 -0.049786
1.352780 -0.416327 -0.965460 -1.001443 -0.129587 0.819164 1.072760 1.700219
1.028985 0.577800 0.075566 -0.268210 0.067011 0.873507 -0.836526 0.318476
-0.602494 1.013429 -0.171854 0.427675 0.138144 -0.069450 0.128202 -0.416439
-0.414017 0.970861 0.867502 -0.459043 0.201018 1.709387 -0.984257 1.389831
0.142182 -0.633456 -0.612701 -1.013135 0.067003 0.091684 1.140725 -0.941331
-1.214059 0.067716 1.320895 0.551396 0.503992 -0.266599 -0.834520 -0.099321
0.544057 -1.688908 -0.260025 0.548995 -0.680834 -0.008506 0.313909 -0.692318
-0.071446 0.812085 -2.032787 -1.836104 -0.688278 -1.285801 -1.092150 0.434366
-1.646049 -0.863300 -0.185741 -0.149635 -0.232727 -0.108350 -1.145690 -1.135425
-0.764422 -0.382158 0.924940 0.761873 0.701034 -0.361749 -0.605714 2.220929
-0.539631 -0.313751 -0.829625 -1.289218 0.561352 2.566321 0.392743 2.558599
-1.300934 -0.813741 0.825960 1.323451 0.642792 0.301991 -0.542255 -0.314633
-1.066633 0.278769 -0.222241 0.013001 -0.171366 0.067894 1.478477 0.852767
0.879391 0.864930 -1.185686 1.044879 0.420696 -0.353211 -0.121269 -0.427104
0.716255 -0.721003 1.719398 0.701901 1.458044 -0.746064 -1.242670 -0.304465
-1.294282 -0.838318 0.979643 2.206109 0.539468 1.215356 -0.201400 1.138911
-0.168382 -0.021136 1.478740 0.899986 -0.206295 -0.292924 0.890365 -0.787436
0.143368 0.499003 0.489572 0.270058 0.806874 -1.122134 0.000318 -0.074068
1.395953 -0.972675 0.544223 0.718526 0.379028 0.014416 1.095845 0.351564
1.115955 0.806055 0.220485 -0.001667 -0.809407 0.322733 -0.542207 1.163913
1.960019 -0.388984 -0.720218 -1.706420 0.001930 -0.479491 -1.020074 0.786574
-0.928183 0.591509 1.128796 -0.548682 1.496536 1.080192 -0.112909 -0.739753
-0.413312 -0.507557 -1.770614 -0.056285 0.763259 0.129536 -1.711489 0.677943
1.411538 0.381439 -0.051372 0.867922 -1.171275 1.219972 -0.940491 0.660886
0.713337 0.451987 -0.311040 -1.573137 0.189232 -0.117659 0.851383 0.588982
-0.723699 -0.810769 -0.493450 -0.039379 -0.217947 1.122735 0.548609 -0.204462
0.308404 1.380041 -0.462513 -1.806898 -2.569602 -0.266426 0.886834 0.382583
-0.749743 -0.185430 1.035532 -1.129578 2.074444 0.424148 -0.651634 -0.061959
1.096709 1.059600 0.183795 -0.645671 1.630319 -0.024468 -1.378237 -0.770701
-0.336467 0.095192 0.055450 1.300289 -0.734584 0.358058 -0.753131 -0.713306
0.499766 0.906355 -0.273310 -0.844499 0.067407 -1.177112 -2.319306 1.088154
1.744458 -1.301372 -1.697510 0.538948 -0.428274 0.138573 -0.922324 2.035957
0.058864 2.555553 1.787545 0.392105 1.063577 1.001817 -0.682584 0.882783
-0.996966 -1.243443 -0.406347 0.472835 0.368606 -1.253449 0.179494 -0.385992
1.763135 0.613553 1.480453 1.023499 -0.264691 -1.951850 -1.096856 0.710017
0.377504 -0.407585 0.186951 -0.941212 0.596294 1.191475 -0.413115 -0.029720
-0.254090 0.267406 1.720336 -0.583099 -0.332704 0.410504 -0.428486 -1.657991
0.381537 -0.160005 0.142528 -0.183858 0.612930 -1.588429 -0.470487 -0.118788
1.579390 0.454216 -0.162626 0.880883 0.556537 -0.483263 -1.017676 0.361224
-1.629155 -0.990638 1.427666 -0.287695 -0.801134 -0.949119 -0.422981 1.443599
0.450765 0.981836 0.245941 -0.967779 -0.135364 0.304149 -0.483606 1.381801
-0.365461 0.669150 0.465185 -0.870999 0.249094 0.343085 -0.552613 0.676302
-0.862179 -1.359727 -1.826587 0.306861 -0.405708 0.624411 -0.643684 3.047564
0.862469 0.725905 1.773718 -0.238889 1.974362 -1.157200 -2.244786 -0.581409
-0.847897 -2.041810 -0.021143 0.225768 0.318795 1.329620 1.189453 -0.860716
-1.758795 -0.258986 -0.268947 0.683641 -0.407014 0.635594 0.394455 -1.294441
2.527404 -0.078725 -0.409964 -0.151094 0.427118 1.011762 0.347764 -0.167703
-0.493758 0.858959 2.583187 0.809154 0.373587 -0.138911 1.600948 0.628139
-0.878353 1.312308 0.821658 -1.115308 1.025081 -1.201259 0.742392 -1.672028
-0.484439 -1.496765 -1.195936 -0.666778 0.216880 -0.808201 0.938497 -1.124699
0.761338 -1.889842 -0.231370 0.200518 1.502287 -1.495207 0.508254 -1.339163
-0.757131 -0.390316 0.621354 -0.200697 -0.278414 1.094371 -0.638219 -0.494675
0.259506 -0.709890 0.004541 -0.822131 -0.519627 -0.240604 -0.668867 0.215130
0.773976 0.740949 0.165335 -1.202330 -0.277865 0.318027 -0.531263 0.567683
-2.179354 -1.258589 1.527664 0.173150 1.749963 1.254020 0.118993 -1.918170
0.200042 -0.999796 -1.003801 -0.335914 -0.672018 0.273477 -0.020734 -1.909953
-0.736384 -0.227167 0.354007 -1.629977 1.642711 1.440253 1.137485 -0.638325
-0.692471 0.469016 0.732005 -2.300435 -1.128578 1.245349 0.337777 -0.395817
-0.466433 -0.767190 0.472129 -1.122161 0.867010 -1.956016 0.160212 -1.021947
0.693052 0.207197 -0.855709 -0.257199 0.128374 -0.584017 -1.675840 1.018500
0.128963 0.358217 1.755383 -1.401618 -0.193211 -1.329616 0.778318 -1.104428
0.817213 1.082951 0.120753 -1.408609 0.476002 1.071260 -1.177618 0.811996
-1.418945 -0.763855 1.143041 -0.944142 0.730037 -0.645599 1.188332 -0.183127
1.023975 -0.129125 -0.624764 -0.857718 0.404706 1.007613 -0.014648 -0.033775
0.021846 0.602653 -1.885566 0.536288 -2.237458 -0.867744 0.500580 1.279997
-2.154124 1.030559 0.431461 -0.735661 -2.288844 1.110633 0.828380 1.813919
-0.496150 -1.446861 -0.123268 -0.738892 1.386656 0.089034 -2.164146 -0.929864
1.713576 -0.675923 -0.380016 -0.701181 -0.272907 -0.425015 0.738802 -0.586542
1.268034 -0.335848 0.124050 -0.573220 -0.147712 0.213269 0.884392 -0.857030
-0.156528 -0.540385 -0.173662 -0.725563 -0.626794 -0.117813 -1.006691 -0.036967
-0.324655 0.868416 -0.048592 -1.178803 0.074910 1.430895 -0.165930 1.317565
0.965790 1.094010 0.749591 -0.022632 -1.507885 0.523312 -0.145390 -0.470623
-0.733723 0.918836 -0.735656 -1.016138 -0.815662 -0.574513 -1.031084 -0.085956
-0.082031 1.064773 -0.087622 -0.920383 -1.395517 0.069892 0.895706 3.275943
-0.127959 0.034526 -0.084349 -1.429067 -0.468726 1.046232 0.699070 -0.388640
-1.680516 0.648725 0.844311 1.054494 -0.395176 -0.192638 -0.237186 -0.205133
-0.064798 -0.564002 -0.383111 0.207636 0.662372 0.325469 1.378129 0.814455
-0.395110 -0.949008 -1.069974 -2.174329 0.835833 0.163578 -0.287149 -0.258963
-0.291473 2.787637 0.004431 0.893300 -0.046816 0.060691 -1.515797 -0.600899
0.828049 -0.105381 1.364673 -0.046623 -0.753671 -0.748015 -1.408193 0.382552
-1.349352 0.480168 0.247878 -0.140943 -0.240481 1.044882 0.884933 0.464679
-0.682308 -1.194120 -0.489593 0.246634 -0.098474 0.482053 -1.004486 0.160566
0.664261 -1.023393 -0.129643 -0.441904 0.457420 0.412652 1.939495 -0.611266
0.965901 0.082368 0.527794 0.241663 -0.160367 0.314294 0.868416 -0.741916
-1.685397 0.348086 -1.315622 1.264457 1.099070 0.392164 0.852110 -0.731373
0.503609 0.091969 -0.173190 2.802893 0.420394 -0.530912 -1.270741 -1.567230
-0.426520 2.242908 2.014982 -2.143645 0.181375 -1.006300 -0.324544 2.003864
-0.009248 0.018189 -0.024921 0.942860 -0.981127 0.491421 0.022458 -0.689211
-1.461250 0.520053 -1.181677 -1.933394 1.001468 -1.081361 -2.320909 -1.870458
1.661996 -0.543196 0.372634 -0.170122 -0.733721 0.251326 0.759874 1.547888
0.488204 2.007548 0.111710 -0.494525 1.121988 0.787380 0.953082 -0.299436
-0.155342 0.158379 0.501548 -0.138342 0.378204 0.732010 -0.705843 -1.214557
-0.266831 -1.218932 0.142588 -0.315707 1.423683 1.012526 -0.714746 0.344612
0.887659 -0.715996 -1.328437 1.051788 -1.710557 0.601347 1.834090 -0.360098
-0.627440 0.185794 0.942324 0.200282 -0.127345 0.244118 0.670646 -1.307500
-0.043463 0.016506 0.294414 -0.236856 -1.275165 -0.840289 0.361502 0.820727
-1.241349 -2.031915 -1.806689 2.338365 -0.195464 -0.249820 -0.677426 -1.157592
1.866066 0.578631 0.230083 0.910739 0.827597 0.358188 -1.640999 1.547874
1.406708 -1.531749 0.948385 0.095647 0.316591 1.063743 0.200449 -1.822429
-0.654074 -1.760966 -0.133819 -0.936778 -0.490997 -0.209127 0.225480 0.377767
0.198282 -0.064526 0.020724 0.735866 0.480996 -0.657719 0.411771 0.708440
-1.424688 0.997402 -0.450420 0.482734 0.785663 -0.167804 -0.030930 0.097603
1.217279 -0.072578 -0.151908 -0.399290 1.338353 0.055205 -1.473890 -0.588876
-1.074592 1.222460 -0.437920 -0.451273 1.046926 0.748439 1.266417 0.024739
-1.643362 -0.752858 -0.818596 0.022914 -0.772949 -0.039141 0.305864 -0.269159
-0.207068 0.325046 -1.012072 0.709789 -0.127412 1.845798 0.894834 -0.185443
1.280053 -1.431652 2.117071 1.083253 -1.119790 0.672058 0.029819 -1.396572
-0.797870 -0.292813 1.561127 -0.217091 -0.612343 -0.618765 -0.084198 -0.753726
-1.007498 1.119612 0.256705 1.206047 -0.118593 0.457216 0.100556 -0.781306
0.452413 -0.735643 1.461810 0.056687 -0.624027 -0.308724 0.186121 0.026731
1.386411 -1.303711 0.821611 1.319702 1.973525 1.593314 -0.868599 1.633301
0.368995 -1.035774 -0.530817 1.010427 0.693128 0.813796 -1.225143 -0.429564
-0.634806 0.380038 -0.807007 0.207998 1.247075 0.361065 0.128344 0.296377
0.859009 -0.769064 -0.746801 -0.353179 0.153795 0.343344 -0.561727 -0.337911
2.122361 0.145410 -0.556763 0.007575 -0.332537 -0.176334 1.378642 0.948881
0.815142 0.189392 1.545804 -0.058065 -0.753829 -1.014385 0.858450 0.118289
-0.911924 1.420931 -0.648601 -1.225556 -1.913972 2.399139 0.350024 -0.150762
-2.394491 -1.124776 -0.334437 0.312052 -0.191067 -0.603237 0.242947 -0.820151
-0.024633 0.044972 0.048400 0.696191 -0.641050 -0.811142 0.580670 -1.007494
0.433688 1.252755 0.265283 -1.627714 -0.203614 0.903185 -0.283628 -0.736640
0.440971 -0.805134 -0.802089 -0.358677 -0.118134 0.834069 -0.227661 -0.481185
-0.749816 0.721975 0.314113 -0.574506 0.876941 -0.998691 0.222651 -0.192796
0.411747 -0.866956 0.283416 1.450033 -0.637617 0.107641 0.460049 -1.216644
-0.111997 -1.087166 -0.376526 0.699162 0.677526 0.744999 0.553997 -0.839835
0.462643 -0.056738 0.417026 0.011229 0.566742 0.034566 -0.183093 -0.503957
-0.607506 -1.327008 0.810650 0.266972 0.245820 -0.128051 1.327330 0.293774
0.172968 -1.597967 -0.882601 -0.728510 1.081615 0.689936 0.146592 -0.259864
1.115750 0.477675 0.265480 -1.329450 -1.143314 0.910249 -1.735160 -0.271254
1.761638 -0.460934 -0.743065 -0.789455 0.603293 -1.098009 1.832124 1.298138
-1.326489 -1.368643 -0.308453 0.616315 0.300068 0.850716 -0.801753 -0.579548
-0.203645 0.750153 0.071635 0.064949 0.012153 0.486059 0.662842 -0.632820
-0.892293 -1.767146 2.171061 -0.228962 0.057164 0.710837 0.729758 -1.477781
-0.654718 0.396469 -1.103634 -0.183594 -0.071815 -0.624997 0.815252 -0.614567
-2.379380 -0.395029 -0.287171 0.073963 -1.732304 -1.089909 0.365826 1.432590
0.978778 0.229048 -0.517249 -0.521157 0.924589 -0.088614 -0.928246 -0.621206
-1.428617 -0.642829 -1.971687 -0.769355 -2.616730 0.737972 1.654052 -0.696546
-0.727966 1.214590 -0.572807 -0.141188 0.733350 -0.431135 0.371219 -0.587574
-0.085545 0.288027 1.396224 -0.165498 -0.834690 1.055823 -0.105092 1.979595
-0.428709 0.880678 0.361332 0.785200 0.423099 0.440028 -0.158827 0.414609
0.261938 -0.256761 -0.171521 1.278927 -1.821153 0.035682 -0.515407 1.699020
-0.995911 2.590451 0.322704 -0.475458 0.825916 0.660672 -1.628269 0.012422
0.462394 1.391757 1.198858 0.601583 1.374340 0.815174 1.630695 0.418949
-0.453612 0.051838 0.456465 0.420643 1.123625 -1.887283 0.654816 -0.677704
0.229371 1.275672 -0.441913 -1.588081 -1.302270 1.534735 1.129675 -0.893742
-2.180782 -0.872813 2.076051 1.059801 -0.707988 0.767460 -0.279996 0.829370
0.551308 0.629536 0.175921 1.633922 1.259941 -0.633559 -0.865611 0.285397
-0.511257 0.047965 -0.774678 0.164243 -0.462233 -0.042431 1.859612 -1.620758
-0.227657 0.705996 -2.417613 1.259395 1.944197 -0.334401 1.636931 -1.430103
0.917976 1.247272 -0.811824 -0.852413 -0.383788 -1.175833 -0.111987 1.484411
0.540028 -0.023652 -0.776172 -0.957175 -0.400803 -0.803401 0.204319 0.046246
1.697369 -1.415444 0.298810 0.638304 -0.592226 -0.916728 0.894877 0.086894
0.249840 0.902376 0.985038 1.062734 0.821260 0.210194 -1.611627 -0.709432
-1.329673 1.657597 -0.087799 0.462388 0.490040 0.019400 -0.644734 -0.969180
1.659199 -0.977459 -1.437661 -1.079218 -1.031609 0.491257 -0.991874 0.377399
-0.938863 0.314068 -0.669299 -1.927397 0.777422 -0.230881 -1.604918 -1.515045
1.163009 -1.632617 0.634334 0.226170 0.992024 1.055482 -0.728119 1.305766
-1.063055 -0.591635 0.069075 -1.194718 0.926271 1.997005 0.167104 -0.081173
-0.090142 1.285326 0.955299 1.024064 -2.740989 0.583531 2.336739 -1.044020
1.665487 0.461252 -0.884709 -0.481007 -0.143526 1.564996 -0.062773 -1.252028
0.129112 0.842735 0.366008 0.903592 1.928566 -0.990151 -0.661429 -0.417332
-0.093089 -0.392363 -1.927327 -0.918851 1.127413 1.418753 -0.301234 -1.690174
0.800001 -0.903147 -0.843480 -0.320364 0.533347 -0.210627 -1.602603 -0.674760
0.807658 0.444491 0.120857 0.794390 -0.269197 1.632001 1.455883 0.851388
1.212367 0.903804 -0.454744 0.595693 -0.080322 -1.530730 0.535018 -1.133415
0.343471 0.165150 -1.060223 1.401151 -1.780176 1.164660 -0.278713 1.027179
0.126259 -0.969431 -1.532696 -1.317220 -1.650521 -1.829290 0.007661 0.737197
-0.227785 -1.011738 -0.024277 -0.842159 0.235933 0.376266 -2.278864 0.500001
0.604034 -0.061711 -0.272440 2.052820 -0.663591 0.458647 -1.687214 0.031868
-0.276505 -1.114586 1.542969 0.231089 1.560453 0.829036 0.361455 -0.447494
0.054783 -0.659273 0.232268 -0.600458 -0.221876 -0.271206 1.588176 0.999755
-0.085171 1.040697 -0.524170 -0.513188 0.429536 1.815051 -1.150861 -0.305846
0.807673 0.795666 0.223547 -0.051322 0.738031 1.502079 0.820560 -0.056695
-1.987422 0.998231 0.003224 0.078188 -1.070523 -1.021017 1.732187 0.542008
0.305372 1.136446 0.684448 0.269108 0.821034 0.275115 -0.389336 -0.202261
2.023945 -0.249390 0.690549 2.430166 0.078943 0.080062 0.391772 -0.935466
-0.040214 1.356385 1.055191 0.889271 -0.470752 0.388066 -0.401333 1.693406
0.808840 0.069809 0.930310 -1.571903 0.019392 -0.001619 0.545577 -0.395791
-2.315247 1.908214 -1.633276 -0.302580 0.530923 1.356106 0.116709 -0.925519
-0.269507 1.029627 -0.806862 0.114735 -0.947098 0.053183 0.922658 -1.387732
1.120767 -2.057989 -1.032248 -1.351315 -0.167351 -1.465251 -0.316347 -0.697637
-0.305204 -0.049320 -0.624975 0.172768 1.229489 -0.961010 1.102061 -0.107670
-1.770667 0.336284 0.895061 -0.228739 0.372900 -0.756580 0.404467 -0.717417
-0.122934 -0.189976 0.970056 -2.057273 -1.214229 1.903543 0.896975 -2.043683
0.450337 0.035387 0.194760 -0.335815 -1.167153 0.136951 -0.537738 -1.294548
1.851313 0.855019 0.039732 -0.067237 -1.858420 -0.613929 -0.947198 0.409085
-1.751447 0.287492 1.136497 0.780911 1.084991 0.179227 -1.321159 -0.370434
-1.609842 0.261399 -1.708358 0.580845 -0.446473 0.321014 -0.573422 -1.510365
-0.629553 -0.623560 -1.869472 0.797275 -0.374513 1.448507 0.700497 2.249390
-0.467094 0.534772 1.856041 -0.116878 0.669316 -0.060952 -0.142863 -1.309090
-0.104875 1.342417 -0.552044 -0.063200 1.445758 -0.348341 -0.005311 0.602217
0.504657 -0.377796 1.383244 0.230647 -1.171322 -0.037634 0.104712 -0.511439
0.283415 -0.801103 1.233090 -0.677125 -0.823501 0.132720 0.830585 0.648150
1.064454 1.667590 0.442142 0.415886 -0.801498 0.136933 -0.633546 0.644394
-1.037464 -1.927638 0.815961 -0.045466 -0.225154 0.486783 -0.716733 -0.004354
-0.549829 0.420990 -0.118964 0.928062 0.009927 -0.763806 0.011460 -0.141580
0.249542 -0.151378 -0.610387 -0.282145 1.334264 -0.943552 0.001534 -0.228732
-0.925707 -0.887728 0.804821 -0.205249 0.102509 0.863981 -0.083042 1.371559
0.535829 -0.226020 0.246965 -0.194933 0.881706 0.873715 0.720684 0.277204
-0.125747 1.712794 0.014394 -0.446310 1.326858 0.247780 -1.693461 1.398087
-0.476185 1.113271 2.190094 0.353066 0.447395 0.719166 -1.929988 0.997511
-1.259213 1.058889 -0.968579 -0.744742 0.333552 0.206039 0.107490 0.350712
0.268264 0.081677 -0.306414 0.526428 -0.634172 0.129886 0.602399 -1.968168
-0.996043 -0.301823 -0.764625 -1.442963 -1.098242 1.075817 0.110980 -0.423742
-0.319021 -1.935911 -0.425871 1.198732 0.053187 -0.511121 -0.493459 -0.663929
-0.488520 0.718035 1.848642 -2.431525 -0.470106 0.438073 0.770267 -0.148510
0.115813 0.444141 0.178503 0.395333 -0.616011 1.383166 -0.526955 -1.718224
1.137301 1.393516 0.168439 -0.808593 -1.601917 0.026045 -0.148677 0.208358
-1.363972 0.834390 -0.142559 0.605900 -0.408087 -1.668475 -0.199376 0.654833
-0.241623 -0.186522 0.539171 0.543714 0.936319 -1.827401 0.027654 -0.075237
-1.423929 -0.210874 -0.484389 0.836639 0.512772 -0.101017 -0.649070 -2.199211
0.505845 1.066138 -1.171350 -0.292278 0.957959 -0.123034 0.856516 -0.507482
0.965643 2.548050 0.778368 1.421582 -0.082584 -1.220519 0.341502 -0.170828
1.677802 1.011286 -1.316810 -0.355988 -0.733428 -0.501223 -0.284102 -0.570078
-1.305104 0.738295 -0.334543 1.181604 0.457852 0.338424 0.756684 -0.796173
-1.224931 0.687751 -1.207875 1.954463 -0.722226 -0.792809 -0.737386 0.227886
0.334688 0.231070 -1.211431 -1.259111 -0.010216 0.977931 0.074859 -1.881960
2.006651 0.380732 0.019202 0.262292 -2.203049 -0.589889 0.333276 -0.368556
1.083554 -0.749369 1.643429 -1.629976 1.099237 1.875234 -0.211776 0.208484
-0.561514 -0.759088 0.389790 -0.016618 -0.794521 -0.872736 0.725938 2.431294
0.367438 0.619635 -0.223966 0.033973 0.542623 -0.661096 0.308700 -0.086177
-0.908811 1.322617 0.421807 -1.366528 -0.035334 -0.726232 -0.067970 -0.456933
-0.772451 0.164858 0.088975 -1.261881 -0.270070 0.107355 0.637736 0.453109
0.330454 0.785359 -0.304701 -0.406596 -1.157833 -0.355884 -0.855593 0.234395
0.846336 -0.475017 -0.373962 -1.895360 0.513810 0.364346 -0.274503 0.336415
-0.060511 -2.031833 -1.267302 1.471222 0.266259 1.021119 -0.976037 -0.033032
-0.044082 -0.200048 -0.183937 1.004261 1.930600 -1.027277 -0.203957 0.817144
-0.625988 0.805809 -0.851901 2.058846 0.130453 -0.628718 -2.158491 0.957687
1.898228 -0.562646 -0.523880 0.352578 0.383943 0.463949 0.221321 0.900816
0.745018 1.487053 -0.051455 0.252729 0.795048 1.264183 -0.040397 -0.191244
-0.483614 -0.137010 0.067389 -0.011400 -1.318525 -0.619602 0.257918 0.314662
0.800247 -0.430150 -0.028391 1.632447 1.189839 0.615308 0.286338 0.203686
1.562700 1.397541 0.454390 0.715302 -2.683496 -0.035448 -0.128664 -0.100303
-0.005979 -0.105841 -0.245594 -0.413821 -1.373168 -0.519262 -1.060091 0.114543
1.593197 0.823922 0.174949 0.378117 -0.525097 1.186775 0.448941 0.602088
0.054336 0.377454 -0.962603 -0.214976 -0.621403 -2.443206 0.537140 0.975363
-1.628473 0.251715 0.900197 -0.031724 -0.108901 1.488641 0.818394 0.182262
-0.230808 1.974236 0.415750 0.960684 1.716659 0.083450 0.354462 0.049450
1.244051 -0.976764 -0.757654 -0.699835 -0.804709 -0.122313 -2.434213 2.315510
-1.361781 -0.276437 0.245755 -1.270214 0.684475 0.858604 0.704606 -0.069022
-0.009518 -2.797829 -0.845709 -0.685150 0.116005 -1.219225 1.354382 -2.048671
0.192731 0.378781 -0.494367 -0.131814 0.167492 -0.097386 0.630862 0.111354
-0.449073 -1.451587 -0.830207 -0.360382 -1.645199 -1.007590 -0.363108 -0.902027
0.744395 -0.174091 -0.917800 -2.132535 -0.413170 -0.476463 0.503180 0.270433
-0.043286 1.035593 1.341706 -0.118902 -0.076877 0.594747 0.572372 2.663831
-1.040207 0.975073 0.445895 -0.134737 2.225296 -0.311831 0.598295 1.581503
-0.014487 0.136653 0.656659 0.133787 0.713743 0.683232 1.149870 -0.282452
-1.265922 0.286505 -0.031550 0.531556 0.625890 -0.615384 -0.657111 0.195112
