-0.206537 -0.142105 -0.203519 0.176347 -0.034614 -0.275179 0.088003 -0.052246 -0.002758 -0.111227 0.162502 0.093649 0.197253 0.008402 -0.224026 0.166889 0.178426 0.016327 0.192425 -0.000701 0.062150 -0.261204 -0.244468 0.093009
-0.130572 0.115427 -0.244552 -0.117563 -0.249098 -0.199372 0.020960 -0.139060 0.142705 -0.052777 0.302191 0.040063 -0.051717 -0.210602 -0.136451 -0.155658 -0.014616 -0.117769 0.187830 -0.044753 0.189905 0.097039 -0.197622 -0.029407
-0.057198 -0.235626 0.120818 0.069039 0.203998 0.026135 0.119278 0.258855 0.093675 -0.224347 0.191220 -0.053947 0.040445 -0.226497 -0.269628 0.090386 0.107175 0.192543 -0.264532 -0.227960 -0.191779 -0.375033 0.177270 0.055391
-0.057129 -0.060721 -0.060073 0.019479 -0.184527 0.004447 0.241249 0.208423 0.102046 -0.218463 -0.126615 0.293704 0.020317 0.169798 0.166504 0.104796 -0.387767 0.094600 -0.168795 -0.183100 0.023955 -0.120998 0.076508 0.110636
0.118507 -0.133912 0.311632 -0.262387 -0.096665 0.020609 -0.190050 0.108112 -0.133934 -0.159908 0.216597 -0.089140 0.149442 0.204528 0.046394 0.226801 -0.342578 0.021491 0.348567 -0.022929 -0.382556 0.021151 -0.168356 -0.084130
0.126260 0.172619 0.065622 -0.177342 0.012061 0.297903 -0.022117 0.216426 -0.107162 -0.026869 0.272117 -0.073343 0.170086 0.241174 0.170237 0.133926 0.150201 0.234182 -0.172971 0.147547 0.290024 0.143796 -0.188888 0.257099
0.114800 -0.038579 -0.298541 0.216138 -0.291969 0.079780 0.219702 0.156836 -0.187061 -0.180104 -0.177417 -0.169222 -0.037059 0.184333 0.078665 -0.067644 0.013982 0.070765 -0.172525 0.166143 -0.340103 -0.013791 0.140634 0.032771
0.109922 0.251611 0.153826 0.039118 0.189425 0.289125 -0.085007 -0.174915 0.040666 -0.034736 0.294539 -0.042306 0.120945 0.125354 0.218823 -0.110952 0.167547 0.073200 0.134021 -0.310399 0.356844 0.092285 0.124516 0.282517
-0.143455 -0.006495 -0.213447 0.117267 -0.050539 0.087050 -0.027483 0.253869 0.132405 -0.306354 -0.391514 -0.054097 -0.142724 -0.156752 0.332833 0.120585 0.037072 0.158069 -0.062967 0.196662 -0.026897 -0.089331 0.083526 -0.226481
0.189160 0.046238 0.103699 0.117658 -0.040661 -0.044675 -0.075561 -0.014503 0.027012 -0.490192 0.242362 0.182833 -0.051972 0.166613 0.039880 0.314882 -0.200427 -0.144739 0.067960 0.061994 0.099829 -0.100366 -0.005252 0.240036
-0.332872 0.076194 0.002643 0.033567 -0.264259 -0.061072 -0.025277 0.238304 0.307268 -0.168156 0.233509 -0.220943 0.091349 0.076443 -0.298494 0.178809 0.262393 -0.092906 -0.203338 -0.033288 0.150521 -0.240238 -0.060556 0.176047
0.280561 0.280000 0.325191 0.343480 0.221063 -0.326577 0.197799 -0.084676 -0.248705 -0.003166 -0.094281 -0.253061 0.208604 0.088325 -0.184430 -0.211179 0.173611 0.215908 0.213079 -0.217497 0.102208 -0.273791 0.223426 0.197745
-0.301912 0.062977 0.309102 -0.197427 0.143015 0.007628 -0.156038 0.104165 0.204707 0.373861 0.150571 -0.117762 0.068494 0.144529 0.013811 0.094320 -0.057739 -0.145682 0.132703 0.100133 -0.016918 0.059267 0.067812 -0.019148
0.008969 -0.058547 -0.139845 -0.185548 -0.101971 -0.155798 0.069727 -0.101076 -0.216246 -0.052093 -0.051182 -0.259440 0.075349 0.099208 -0.160906 -0.306253 0.209563 0.335131 0.303529 0.011553 0.238510 -0.163754 -0.382030 -0.211594
0.404661 -0.140132 -0.004007 0.252221 0.361397 0.191774 0.390969 -0.003573 0.097549 0.041021 0.239201 -0.170406 0.307356 -0.286194 -0.189245 0.106614 0.101860 0.039392 -0.115738 -0.032774 0.308627 0.185489 -0.056904 -0.015031
-0.221848 0.352738 0.101169 -0.047450 -0.000913 0.342783 0.280036 -0.241105 0.000282 0.093901 -0.032530 -0.240430 -0.097459 0.045856 -0.040150 -0.188569 -0.002660 -0.234482 -0.140030 -0.073326 0.405464 -0.117917 0.103719 -0.065160
0.061314 -0.261836 0.036309 -0.188835 0.250498 -0.093073 -0.009048 0.338321 0.141402 0.031027 0.204705 0.111739 0.201869 0.014318 -0.170545 0.081600 -0.255961 0.009975 -0.148024 -0.365059 -0.208371 -0.329354 -0.096007 -0.318543
0.069711 -0.021765 -0.098760 0.202347 -0.252467 -0.072026 0.003117 -0.080202 0.054874 0.163206 -0.343701 0.002948 -0.308169 -0.192958 0.058299 0.083481 -0.040919 -0.095476 0.082963 -0.025017 -0.072309 0.170562 0.447442 0.012913
-0.237701 -0.083653 -0.247293 0.226744 -0.163195 -0.158188 0.103408 0.312633 0.081690 -0.271777 0.285089 0.178396 -0.182330 0.051526 -0.309032 -0.084810 -0.045127 -0.235657 0.016800 0.039863 -0.030555 0.119115 -0.239301 0.037076
-0.315363 -0.080874 -0.049353 0.164981 0.173074 -0.096350 0.193503 0.148843 0.132287 0.138021 -0.188755 0.388485 0.041818 -0.258084 -0.319604 0.134119 -0.100716 0.197560 0.062968 -0.134120 0.026304 -0.214089 0.447975 0.107903
0.111335 0.176037 -0.052370 -0.153840 -0.035216 -0.273389 -0.097035 0.164064 0.068395 -0.044893 -0.153022 0.330592 0.037211 -0.229478 0.094074 0.168724 -0.268135 0.115945 -0.113173 0.265347 -0.248083 -0.085770 -0.026339 0.029432
0.224007 -0.234717 0.085127 -0.101774 -0.151461 -0.041841 0.168127 -0.183090 -0.181561 0.064303 -0.085434 -0.016001 0.184138 0.089444 -0.084835 -0.171719 -0.149277 0.025311 -0.049827 -0.133570 -0.214428 -0.216390 0.289258 0.084840
0.069165 0.062213 -0.104109 0.116945 0.070517 -0.294506 -0.111256 -0.175924 -0.285862 0.242751 0.231852 -0.218095 0.050297 0.154158 -0.344660 -0.063124 -0.176399 -0.079009 -0.071737 -0.060495 -0.070670 -0.271496 0.192071 -0.054346
-0.154757 0.054331 0.115658 -0.021473 -0.106693 -0.010843 -0.016310 0.008055 -0.178529 -0.029724 0.037846 0.176598 -0.076193 -0.094329 -0.178529 0.167047 0.078919 0.290851 0.288762 0.234293 -0.251110 -0.063629 0.307685 0.172407
0.085041 0.167094 -0.207689 0.151439 0.151806 -0.073893 -0.139500 0.109826 0.188838 -0.098180 0.118913 0.094516 0.197156 0.161005 -0.075708 0.007375 -0.139366 -0.007464 -0.292636 -0.071659 0.170286 -0.218302 0.022316 0.026926
-0.100620 0.257533 0.110920 -0.180641 0.202842 0.145176 -0.114012 -0.053720 -0.231063 -0.105033 0.357958 -0.153500 0.062519 -0.101123 -0.147563 -0.346195 0.059160 -0.067869 0.125002 -0.010464 -0.121275 -0.186529 -0.395805 -0.020840
0.187591 0.061238 -0.015128 0.157246 0.015229 0.282724 -0.227844 -0.058713 -0.097429 -0.240060 0.150867 0.169140 0.060374 0.083807 0.197157 -0.077505 -0.080240 0.138325 -0.112434 -0.270364 -0.037300 0.138950 -0.093635 0.109500
-0.059995 0.314890 0.149305 -0.158013 -0.194015 0.285876 -0.253231 -0.165871 0.281782 0.104175 0.136370 -0.336010 0.095021 -0.022489 0.210849 -0.170397 0.008124 -0.005223 -0.257081 -0.040173 -0.205732 -0.104453 -0.312761 0.116638
-0.169639 -0.390053 -0.191549 -0.208097 -0.019580 -0.106317 0.068104 -0.156821 -0.231514 -0.007294 0.159819 0.090563 0.178757 0.132885 -0.174909 0.063238 -0.309024 0.137546 -0.104189 0.107848 -0.247621 -0.000747 -0.200522 0.144068
-0.058270 -0.056761 -0.131859 -0.218579 -0.104588 0.259989 0.199013 0.017549 -0.136321 0.026889 0.087730 -0.274621 0.295537 0.163839 0.160287 -0.282923 0.087884 0.247895 0.004883 -0.026010 0.220927 -0.084854 0.092261 0.098920
-0.111891 0.193451 0.246118 0.006841 0.161749 -0.061910 -0.043986 -0.108152 0.169672 0.300113 -0.017583 -0.133861 0.015543 -0.246684 0.411982 0.200452 0.183938 -0.200532 -0.070874 -0.210039 0.174096 -0.069293 -0.056265 -0.218476
0.009700 0.029697 -0.228048 0.171120 0.050694 0.108967 -0.227420 0.123533 0.184699 0.092261 -0.043114 0.092425 -0.156624 0.154113 0.063755 0.124290 -0.295193 0.145793 0.019675 -0.229442 -0.085495 0.272311 -0.181538 0.144790
0.217002 -0.255484 -0.206155 -0.286531 0.046109 -0.331199 0.193647 0.255642 -0.071880 0.070041 0.256765 0.043049 -0.163011 -0.081074 0.206308 -0.218676 -0.195814 -0.002622 -0.034512 -0.043712 -0.205888 -0.220335 0.195389 -0.032005
-0.076962 0.144868 0.045531 -0.184812 -0.066596 -0.205372 -0.249233 -0.149406 0.185535 0.055889 -0.154981 0.201633 0.076070 0.352072 -0.245422 0.123550 0.178375 0.120771 -0.060692 0.072445 0.164533 -0.181489 0.165790 -0.035221
0.262714 0.035052 -0.134266 0.172491 -0.042216 0.134251 0.237477 0.127945 0.022847 0.291187 0.256433 -0.156192 0.040144 0.019969 0.052722 -0.120608 0.213153 0.269619 0.031897 -0.259481 0.355327 -0.172925 -0.001078 0.233478
-0.183587 -0.168237 0.100333 -0.196206 -0.081556 -0.194787 -0.238534 -0.008420 0.206627 0.226598 -0.128814 -0.065481 -0.047249 0.242223 -0.346169 -0.016989 -0.050084 -0.047896 0.149126 -0.224666 -0.307242 -0.223076 0.028761 0.036742
0.026218 -0.141351 0.105886 0.174395 0.021416 0.010118 -0.184897 -0.223892 0.067176 0.089983 0.275312 -0.056856 -0.100016 0.223698 -0.426874 0.275380 0.237996 0.251414 0.102969 -0.022726 0.107802 -0.184180 0.011178 -0.132121
-0.060162 -0.165806 0.187789 0.099984 0.024801 -0.130407 -0.069302 0.376799 0.090797 -0.230689 -0.011137 0.112802 0.097091 0.034009 -0.171840 0.134367 0.147021 0.080549 0.029876 -0.266388 -0.226868 0.179593 -0.076799 -0.192345
-0.277964 0.035765 0.137988 0.070111 0.166117 -0.320164 -0.282241 0.199595 0.269129 0.040576 0.164684 0.411152 -0.141275 0.290296 0.095543 -0.225344 -0.071782 0.260048 0.242598 -0.116694 0.179791 -0.232761 0.125767 0.065450
0.074994 0.074793 0.026229 0.121028 0.214138 0.113020 0.158477 0.287432 0.105076 -0.151332 -0.114716 0.178749 0.032689 0.314971 -0.112165 0.065966 -0.302452 -0.112508 0.143674 -0.199950 -0.127546 -0.001245 0.021597 0.267605
-0.065003 0.062071 -0.193186 0.020150 0.059556 -0.089546 0.096143 0.137724 -0.206973 -0.391635 0.224490 -0.121904 0.092921 0.056206 0.020744 0.164619 -0.250024 0.022358 -0.067552 0.079126 0.078575 0.127351 0.217541 0.225785
0.119328 -0.123724 -0.251408 -0.060596 -0.112211 -0.192104 -0.153572 -0.196007 -0.020642 -0.263208 -0.151768 0.079586 -0.230530 0.219506 -0.142336 0.161475 0.186682 0.167873 -0.251824 -0.050849 -0.002144 -0.183225 -0.226057 -0.279852
-0.176252 0.046153 -0.089195 0.086078 -0.113179 -0.119316 0.001302 0.350737 0.047904 -0.410203 0.343251 0.032112 0.156434 0.058902 -0.323071 0.088670 -0.221889 -0.251890 -0.070046 0.071833 -0.069097 -0.097089 -0.160480 0.310276
0.065672 -0.191553 -0.192658 -0.095457 -0.057413 -0.021448 -0.109005 -0.101309 -0.329554 0.146054 -0.116415 0.220487 -0.053346 0.048503 -0.224487 -0.006116 -0.063964 0.155367 -0.077937 0.104772 -0.113848 -0.071356 -0.160488 -0.052892
0.028061 -0.065581 -0.153485 0.118820 0.071646 0.282658 -0.104996 0.165728 0.199740 0.125813 0.235698 -0.325497 0.239041 -0.065745 0.124307 0.229783 0.027739 -0.062623 0.129610 0.192370 -0.249453 0.285649 0.042284 0.133486
-0.009495 -0.171293 -0.037760 -0.017296 -0.246462 0.149009 0.210147 -0.241866 0.019717 -0.348419 -0.088036 0.322740 0.012830 0.204764 0.084215 0.084043 -0.350059 0.142254 -0.089641 -0.187236 -0.113439 0.252823 -0.066947 0.216735
-0.046510 -0.183047 -0.195557 0.136808 0.139338 -0.129833 -0.052430 0.212493 -0.132749 -0.133027 0.161671 0.194768 -0.007771 0.103617 -0.341123 -0.039936 -0.295574 -0.053032 0.066416 0.034415 0.158247 -0.040564 -0.131400 -0.191534
-0.146163 -0.362318 0.015802 0.076229 0.311609 0.145588 -0.072284 0.027991 0.107012 -0.270840 -0.010754 0.116302 -0.179260 0.305525 -0.052951 0.283319 -0.104745 -0.106854 0.030716 -0.272303 -0.159685 -0.070935 0.177830 0.110023
0.218046 -0.177889 0.034530 -0.214912 0.155502 -0.013681 -0.255187 0.235432 -0.255202 -0.114213 0.132984 -0.104885 -0.193914 -0.006269 -0.237766 0.290867 -0.162873 -0.007803 0.178444 -0.026207 -0.057666 -0.266671 0.123398 0.168971
-0.190996 0.121614 0.120890 0.160600 -0.052024 -0.122125 0.219832 0.223194 -0.126911 -0.276831 0.349013 -0.083597 -0.129226 -0.119687 0.059891 0.012515 0.208864 -0.094379 0.020337 -0.229704 -0.221333 -0.397645 0.066131 0.145920
0.005296 0.199814 0.008966 -0.090755 0.075135 -0.396415 0.106969 -0.155230 0.209803 -0.429896 0.331468 0.138274 0.153837 0.076767 0.016926 0.010098 -0.089229 0.035860 0.095091 0.194218 0.027291 -0.188548 0.158028 0.329617
0.265230 -0.249739 -0.010201 0.053066 -0.098086 0.135968 -0.302450 0.208412 -0.206880 -0.026608 -0.031002 -0.308090 0.064982 0.060082 -0.215159 0.198159 0.220555 -0.021532 -0.032111 -0.167832 -0.241564 -0.255390 -0.049403 -0.119451
-0.101824 0.008654 0.248205 -0.105466 0.197313 -0.243010 -0.080511 -0.047840 0.052450 0.122682 0.278713 0.034293 0.136069 0.225467 0.245566 0.070301 -0.250621 0.119993 0.168058 0.139302 0.034514 0.076448 0.035566 0.230401
0.068637 0.059048 -0.223626 0.113595 0.148571 -0.171282 -0.288971 0.245762 -0.031276 0.106016 0.179670 0.196700 -0.177969 0.034595 -0.387816 0.022872 0.117679 -0.124154 0.118245 -0.267340 0.109322 -0.291777 -0.130803 -0.234865
0.086222 -0.315631 0.163710 -0.317728 -0.076328 -0.092375 -0.003347 -0.057509 0.220613 0.078222 -0.074504 -0.030997 -0.167710 -0.189715 -0.181482 0.190885 -0.277671 0.310412 0.361614 0.060211 0.113494 -0.002488 0.191016 0.165945
-0.383957 0.238993 -0.018603 -0.205538 0.297530 0.062807 0.077741 -0.077778 0.134294 0.120996 -0.202845 -0.174575 0.038026 -0.394281 0.296548 -0.265314 -0.092463 -0.040100 -0.088858 0.074368 -0.042171 0.077574 0.026717 0.090454
0.000513 -0.097832 -0.234056 -0.072854 0.096896 -0.074828 -0.186396 0.070756 -0.233714 0.083452 -0.122480 -0.093964 0.100116 0.304945 -0.233646 0.075912 -0.025470 -0.111902 -0.092341 -0.069837 -0.356214 0.171067 -0.218857 -0.280648
-0.243912 0.230389 -0.099646 -0.084954 0.135974 0.033862 -0.073225 0.083971 -0.096583 -0.271197 -0.106488 -0.056379 -0.080686 -0.317825 0.013815 -0.080875 0.278851 0.083067 -0.026956 -0.018764 -0.242680 -0.187977 -0.175293 -0.178263
-0.281354 0.171471 0.251630 -0.268389 -0.157763 0.038207 0.199709 0.095072 -0.003151 0.237998 0.374364 -0.080649 0.093869 0.011114 -0.101151 -0.134704 0.152632 0.265369 -0.100503 -0.321968 -0.150071 -0.045582 -0.269254 0.103432
0.140950 0.227382 -0.123345 0.163971 0.338363 0.218232 0.171882 0.066487 0.120865 0.264145 0.234468 0.217733 0.003682 0.073538 0.249122 -0.197559 -0.006303 -0.296057 -0.084537 0.226204 -0.146581 0.226887 0.174509 -0.225423
-0.222038 -0.010659 -0.265616 0.129751 -0.055109 0.148100 -0.026709 -0.059012 -0.174779 -0.030002 0.227301 -0.023995 -0.022945 -0.078479 -0.162231 -0.011316 0.153955 -0.038249 -0.084329 0.177753 0.278136 -0.226302 -0.199035 0.011801
-0.125140 -0.027310 -0.117917 -0.072544 -0.197349 0.082101 0.077963 0.322970 0.210159 -0.120052 0.152627 0.092509 0.016567 -0.242748 -0.102557 0.129521 0.052734 0.105574 0.223481 0.247643 -0.241765 -0.098297 0.086702 0.113555
-0.207859 0.023910 -0.028093 0.136288 -0.055199 0.035908 0.037935 0.285357 -0.063445 0.053032 0.038441 0.173486 -0.084595 0.086310 -0.326469 0.070773 -0.306325 -0.165030 -0.062583 -0.212906 0.161917 0.097580 0.087493 -0.104255
0.200331 0.290919 -0.113323 -0.009412 0.216828 0.339813 0.162427 -0.327149 -0.181106 0.142502 -0.302063 0.126911 0.084923 -0.188712 -0.199739 -0.203812 0.272383 0.077711 0.195994 -0.164483 -0.069205 0.153122 -0.199125 0.146113
0.044557 0.256841 -0.057013 -0.081638 -0.109779 0.273999 0.009540 -0.128603 -0.326677 0.196716 0.378309 -0.246531 0.075745 -0.107503 -0.150710 -0.306470 0.059358 0.270063 -0.074504 0.219832 0.016579 -0.144389 -0.245487 0.235572
0.048094 0.124833 -0.112783 0.325762 -0.223885 0.028000 0.102815 -0.030989 -0.252061 -0.117124 0.013772 -0.143614 -0.248052 0.102902 -0.028198 -0.106519 -0.074387 0.043304 0.174237 0.028485 0.193896 -0.046794 0.077023 -0.202306
0.185116 -0.114819 0.159562 0.073242 -0.167421 -0.087424 0.107527 0.126207 0.032585 -0.034559 -0.143807 -0.190417 -0.228975 -0.102597 -0.255594 0.027373 0.137433 0.140207 0.133583 0.058588 0.116508 0.182406 0.094431 0.280576
-0.282946 0.254866 0.166814 -0.205631 -0.269834 0.093718 0.256105 0.131133 -0.244757 0.234256 0.042486 -0.137705 -0.131461 -0.013920 0.210353 -0.086468 -0.139665 0.047690 -0.139937 -0.332563 0.266783 -0.093528 -0.285772 -0.242750
0.151770 0.174445 -0.239699 -0.089061 -0.017251 -0.077181 0.026737 -0.048941 0.094449 -0.314572 -0.309113 0.177690 0.165376 0.140821 0.015651 -0.001931 -0.193278 -0.223407 -0.266939 -0.008655 -0.153300 -0.300605 0.166290 0.294301
-0.110041 -0.326818 0.065184 -0.092235 0.182680 -0.196895 0.164788 0.029375 0.211538 0.075154 0.256199 0.129194 -0.071470 -0.011315 0.176647 -0.204064 -0.097658 0.126834 0.099429 -0.161074 -0.337608 -0.008084 -0.025491 -0.117996
0.052283 0.225014 -0.191957 0.102935 -0.116800 -0.069912 -0.061521 0.384473 0.069054 0.059998 -0.042055 0.189664 -0.188605 -0.398010 -0.219741 0.000884 -0.208257 0.152035 -0.014114 -0.107810 -0.153183 0.231555 0.423356 -0.163408
0.123206 -0.075660 -0.020724 -0.107867 -0.197023 -0.167227 -0.001184 0.205429 0.039603 0.196532 0.315110 -0.002071 0.094375 -0.170497 0.223475 0.179700 -0.402569 -0.227118 -0.162645 -0.262830 -0.356894 0.114193 -0.056259 0.161424
-0.043747 -0.117379 -0.088582 -0.011739 -0.019369 -0.275117 -0.243360 0.100154 0.054494 -0.001312 0.091490 -0.031638 -0.191824 0.123512 -0.063111 -0.229438 0.207433 -0.071405 -0.313389 -0.238156 -0.173415 -0.324745 0.149588 -0.164022
-0.160220 0.307052 -0.099128 -0.078960 -0.139169 0.151574 -0.135727 -0.245487 -0.110704 -0.184686 0.174924 0.040360 0.112054 -0.260821 -0.266123 -0.117782 0.265693 0.017249 0.240100 0.134935 0.155230 -0.078472 0.036179 -0.148462
0.025367 -0.142384 -0.218332 -0.154697 -0.103886 -0.098635 -0.191063 0.130531 -0.203335 0.162891 -0.157523 0.099854 0.141862 0.327094 -0.289760 -0.034517 -0.201435 -0.138337 -0.240126 -0.176596 -0.018349 0.192309 0.058068 -0.020565
-0.025123 -0.129249 0.183351 -0.243534 -0.040802 -0.318911 -0.142356 -0.129294 -0.263654 -0.028474 -0.103019 0.095026 0.195626 0.015590 -0.035881 -0.031780 0.104299 0.328218 -0.071066 -0.286135 0.051043 0.024479 0.283508 0.080648
0.115516 0.067704 0.023971 -0.011751 0.140461 0.296127 -0.084417 -0.215859 -0.262966 0.048615 0.172707 -0.009322 0.228411 0.051391 0.135346 -0.207616 0.207431 0.256321 0.190616 0.031516 -0.166812 0.225753 -0.056956 -0.241557
0.173567 0.196399 0.154021 0.239537 0.026902 0.204366 0.313678 0.108092 0.027135 -0.027169 -0.046875 0.067079 -0.173255 0.045224 -0.321721 -0.226960 -0.116612 -0.203257 0.236362 0.036459 -0.112736 0.222328 0.105647 0.168018
-0.229124 -0.301136 -0.282810 0.222100 -0.205323 -0.361203 -0.150564 0.058001 0.130730 -0.016603 0.005593 0.019461 0.018442 0.130953 -0.361200 -0.265473 0.003000 0.058509 0.092964 0.012047 0.161522 -0.180895 0.031274 -0.153130
-0.178512 -0.281717 0.272850 -0.227315 -0.052943 0.123694 -0.256017 0.113193 -0.258292 0.236621 0.254221 0.002761 0.170181 0.206641 -0.078116 0.107172 -0.021548 -0.140768 0.000449 -0.243588 -0.359832 0.007301 -0.156898 -0.128673
0.117142 -0.158999 0.180227 -0.296971 -0.217573 0.055173 -0.116705 0.044698 0.078794 -0.258840 -0.138791 0.091178 -0.118399 0.297608 -0.278313 0.247648 0.086808 -0.028067 -0.063935 0.211713 0.182315 -0.223837 -0.116351 -0.046171
-0.017285 -0.219093 -0.303591 0.069352 0.007585 -0.234597 0.113734 0.304760 -0.110130 0.166301 0.116448 0.107406 -0.119536 0.216047 0.113439 -0.287771 -0.071696 -0.105972 -0.159977 -0.202579 -0.096303 -0.129480 -0.136840 0.093022
0.026894 -0.258851 -0.019527 -0.249647 -0.180415 0.085761 0.080078 0.046802 0.104171 -0.147401 0.270365 -0.210012 -0.216984 -0.095340 -0.138849 0.299295 -0.016082 -0.062634 0.144246 0.256285 -0.283408 -0.162547 0.228171 0.272948
0.001288 0.162303 0.107409 -0.057037 -0.049985 -0.005538 -0.057678 0.280853 0.045680 -0.370699 0.333072 -0.134879 0.007002 0.173934 0.066381 0.173474 -0.130617 -0.121028 0.280987 0.028288 0.296150 0.223336 0.103518 0.342631
0.030793 0.115492 0.145866 0.275939 0.024797 0.086807 -0.046382 -0.004897 -0.134689 0.116030 -0.022610 0.293845 0.004716 -0.037921 -0.192102 0.046460 -0.202967 -0.060097 -0.066103 -0.296974 0.165349 -0.195186 0.315728 0.305860
0.230096 0.221263 -0.044089 -0.213245 -0.072114 -0.056307 0.123080 0.104734 -0.204415 -0.245544 0.042543 0.185028 0.129722 -0.032484 0.163590 -0.127722 -0.327347 0.122152 0.180681 -0.204953 -0.133215 0.074821 0.012136 -0.089741
-0.254614 -0.251333 -0.182264 -0.111838 -0.042186 -0.081406 -0.188031 0.273570 0.168845 0.057149 0.284345 0.295286 -0.116682 0.097384 -0.226782 -0.112464 -0.151690 -0.061573 -0.225085 0.176571 -0.271748 0.049073 -0.122261 0.061229
0.234061 0.103279 0.264145 -0.004200 -0.165177 -0.042818 -0.070715 -0.095324 -0.105826 -0.225144 0.057289 -0.104296 -0.018804 0.042236 -0.175854 -0.007504 -0.150414 0.312517 -0.023535 -0.216394 -0.134035 0.063408 0.235183 0.288446
-0.081303 0.051747 -0.266454 0.091886 -0.044437 -0.137491 -0.020109 0.107561 -0.265666 -0.096708 -0.468251 -0.004082 -0.063520 -0.120881 -0.101388 -0.005496 -0.164871 0.166968 0.005054 0.193167 -0.071140 0.119152 0.082756 0.053739
-0.153478 0.070928 -0.026905 -0.162729 -0.185104 -0.232697 -0.100532 -0.280766 -0.056895 -0.220864 -0.173847 0.280897 0.126275 0.346326 0.071569 -0.169847 0.111127 0.044027 0.016032 -0.187824 -0.031088 0.072602 0.034334 0.039544
-0.112026 0.166340 -0.160442 0.140812 -0.240620 0.125659 0.323931 -0.089341 -0.293976 0.123265 -0.224697 0.085734 -0.318278 -0.281161 -0.284482 0.098103 -0.063442 -0.231189 -0.187440 0.003965 0.167524 -0.133268 0.045755 0.269359
0.202572 0.079257 0.177273 -0.071228 -0.282926 -0.239874 -0.281182 0.382480 0.034189 0.029636 -0.099535 -0.162974 -0.252888 0.241990 -0.091032 0.233392 0.110426 -0.185246 -0.276613 -0.147490 -0.085917 -0.047757 0.044786 -0.000593
-0.074233 0.035963 -0.244001 0.068765 -0.027035 -0.203382 -0.008264 -0.212865 0.003668 -0.093593 -0.262910 0.280994 -0.310705 0.013241 -0.005707 -0.061224 0.128897 0.101187 0.022764 -0.028925 0.240112 0.238827 0.095146 0.200219
0.178217 0.144635 0.014735 -0.247475 0.019333 -0.080473 -0.219199 -0.183612 -0.252512 -0.268766 0.006705 -0.173082 -0.075507 -0.007655 -0.048629 0.157238 0.107605 0.214454 -0.070981 0.164066 0.119098 0.230470 0.093503 0.260575
0.131048 0.043560 -0.295591 -0.015079 0.218438 0.343196 -0.161459 -0.042686 0.171452 -0.094362 0.190138 0.013822 0.097832 0.105905 0.230232 -0.110465 0.131819 -0.198699 0.183277 0.020357 -0.046553 0.197401 0.138218 -0.075501
-0.005980 0.122031 0.041565 -0.208344 0.024423 -0.293862 0.176573 -0.077029 -0.205861 -0.060149 0.037297 0.208048 0.109007 -0.129950 0.041358 0.164842 -0.417638 0.131399 -0.025579 -0.331677 -0.027794 0.105841 0.304308 0.178017
0.013011 -0.061631 0.020653 0.029980 0.243258 -0.056981 -0.054296 -0.187712 0.143295 0.209605 -0.129071 0.018478 0.328167 0.011639 0.315904 -0.033423 0.218741 0.057513 0.199897 -0.268525 0.235016 0.031068 0.163681 0.110576
0.199308 -0.057131 -0.246221 0.182145 -0.201517 0.177613 0.151027 -0.078505 0.225336 -0.211459 -0.137958 -0.288896 0.002766 0.084687 -0.162241 0.052170 0.042575 0.307736 -0.035806 0.015899 0.148214 -0.121383 -0.019367 0.219775
0.068813 0.190126 -0.293482 0.067136 -0.256757 -0.018758 0.014219 0.064602 0.249961 0.272375 -0.330112 0.162135 -0.210236 -0.373641 0.329674 0.274571 -0.165495 -0.306176 0.146516 0.156612 0.077333 0.150937 -0.098637 0.083399
-0.152657 -0.173579 -0.302972 0.209581 0.091370 -0.132755 0.129022 0.290471 0.026369 -0.227960 0.152125 -0.052927 0.217675 -0.103244 -0.301572 -0.245014 -0.205414 -0.118371 -0.111336 -0.181744 -0.204970 -0.196542 0.070459 0.168046
0.251773 0.142622 0.060525 0.003169 0.295147 0.378334 -0.035018 -0.288078 -0.209721 -0.023381 -0.128829 0.137191 -0.164231 -0.337884 0.010103 -0.040915 0.260581 -0.203290 0.069761 0.264026 0.380004 0.230731 -0.148262 -0.065463
0.223544 0.136320 0.106623 -0.065542 0.000263 -0.211270 0.185454 -0.080264 -0.373938 -0.132748 0.163097 0.115553 0.057436 0.077462 0.081050 -0.080798 -0.372069 0.271894 0.180571 0.031345 -0.277242 0.009259 0.129566 0.237983
0.250081 -0.239974 -0.188463 -0.263596 0.010969 -0.008896 0.093939 -0.185994 -0.004542 -0.166745 -0.069871 0.039053 0.199308 0.110940 -0.139346 -0.045539 -0.160607 -0.113003 -0.237393 -0.111255 -0.296893 -0.038756 0.267131 0.081968
0.043102 -0.010792 -0.162980 0.142453 0.260258 0.255627 -0.131944 0.169050 -0.049701 -0.085278 0.199148 -0.228757 -0.181211 0.337331 0.041273 0.207570 -0.251801 0.162438 0.179433 -0.171740 -0.052462 0.240165 0.034714 0.184706
0.159432 -0.320657 0.079778 -0.254539 -0.008936 0.128523 0.204204 0.204625 -0.029881 -0.044079 0.044465 0.088348 0.229681 0.029993 -0.189699 0.049042 -0.251002 0.096698 -0.264642 -0.182961 -0.392589 -0.191574 -0.080859 0.154949
0.042205 0.094163 -0.069217 0.075022 0.016075 0.132495 -0.107584 0.271432 -0.051403 -0.297599 0.287619 0.121238 -0.167660 0.021518 -0.315155 0.200903 -0.010768 0.230254 -0.175433 0.190871 0.220448 0.265697 -0.241223 0.262157
-0.207251 -0.192024 -0.025557 0.239540 0.075250 0.258449 -0.049666 0.123791 0.138412 0.312334 0.304144 0.074063 0.269393 0.072274 0.261267 0.184538 0.124455 -0.075762 0.181373 -0.011355 0.155021 -0.022671 -0.270809 -0.150271
-0.043834 -0.314247 -0.280441 0.074581 0.017326 -0.105965 0.021545 -0.207182 -0.104111 -0.115395 -0.137162 0.251563 -0.110828 0.212734 -0.253624 0.076234 -0.287564 0.132536 0.172917 0.101743 -0.035059 -0.092038 -0.094653 -0.189072
0.185606 -0.231083 -0.063691 -0.052327 -0.156878 0.124255 -0.346767 0.069977 -0.266582 -0.321455 -0.037543 -0.048487 -0.091477 0.320593 -0.132749 0.050129 0.055379 -0.094461 0.075642 0.164895 -0.121001 -0.054045 0.128111 0.075907
0.117781 0.090457 -0.132195 -0.253621 -0.079644 -0.291947 -0.190231 0.141876 -0.174634 -0.075539 -0.181244 0.243621 0.143150 0.158026 -0.112874 0.130732 -0.190456 0.164007 0.122253 -0.082439 -0.202106 -0.229825 0.308917 0.077189
0.202400 -0.049556 0.189020 0.104099 -0.310362 -0.033580 0.028218 0.244029 -0.326450 -0.111832 0.050704 0.153014 -0.316784 0.054995 0.258296 0.026186 -0.209786 0.099702 0.117817 -0.096388 -0.281708 0.247251 0.207659 0.094481
0.094052 -0.108436 0.312642 0.247163 0.250961 0.234265 -0.183276 -0.161152 0.023296 -0.083786 0.401915 -0.216813 0.221327 0.210942 -0.236105 0.202113 0.091270 0.185137 -0.094176 0.271417 0.261984 -0.136663 0.130887 -0.014823
0.014542 -0.062366 -0.029705 -0.246543 0.160284 -0.098308 0.159000 -0.048166 -0.289942 -0.301525 -0.107476 -0.023092 0.159620 0.080887 0.179969 0.190180 0.012537 -0.055966 -0.059508 -0.208197 -0.379687 -0.051989 0.271274 -0.130456
0.187789 -0.049954 -0.028703 -0.130916 0.335070 0.188166 -0.185200 -0.162575 -0.309283 0.324482 0.289862 0.096580 0.174995 -0.015565 0.101869 -0.105175 -0.135900 0.093639 -0.029296 0.159485 -0.061931 0.205859 -0.224861 -0.276556
-0.040762 0.007120 -0.049686 -0.196857 0.029435 0.281599 0.152435 0.267353 -0.093093 -0.305546 0.194245 -0.200449 0.319731 0.099749 -0.323063 0.070708 -0.177660 0.134670 -0.059446 -0.189806 0.162694 -0.125306 0.145071 0.256616
0.010703 0.275290 -0.318026 -0.403480 -0.137392 0.303434 -0.143131 -0.020933 -0.250235 -0.091623 0.327840 0.051513 0.166579 -0.157963 0.098264 0.050065 -0.122366 0.016986 -0.082049 0.088700 0.147242 -0.008486 -0.303382 -0.256210
-0.127249 -0.062428 -0.211491 0.241172 -0.094401 -0.268674 0.044812 -0.132496 0.225549 -0.075720 0.027127 0.155397 0.082381 -0.099426 -0.150400 -0.106015 -0.037236 0.120837 -0.196932 -0.081576 -0.026030 -0.269192 0.368575 -0.041004
-0.214250 0.025364 -0.246152 0.145294 -0.208794 0.166897 0.045318 0.252626 0.251983 -0.261069 -0.247103 0.314871 -0.104723 0.110409 -0.038109 0.278196 0.229847 0.117821 0.275144 0.047230 0.121967 -0.262184 -0.150567 -0.176049
0.060654 -0.379015 0.052924 0.002826 -0.274810 -0.226457 -0.096200 0.075950 -0.125780 -0.033694 0.118788 -0.224243 -0.076823 -0.190900 -0.053226 -0.150860 0.248098 0.080165 -0.010751 -0.149104 -0.329784 0.060356 0.306091 -0.198198
0.064144 -0.066178 -0.328450 0.122057 -0.157398 -0.093584 -0.000239 -0.002465 0.171552 0.032334 -0.419637 0.160901 -0.307590 -0.048967 0.200448 0.154158 0.023035 -0.223792 -0.206789 -0.268379 -0.069643 -0.098163 0.051570 -0.248294
-0.018985 -0.209218 -0.064768 -0.181492 -0.187203 -0.178159 0.002942 0.301946 -0.116573 -0.310200 0.330163 -0.022065 -0.085498 0.105194 -0.067080 0.167948 -0.052755 0.123887 -0.006517 0.109842 -0.348542 -0.185522 -0.316344 0.056186
0.144561 -0.044207 0.036921 -0.066453 -0.199020 -0.321080 0.049154 -0.272470 0.100525 -0.396761 0.073488 0.006566 0.174178 -0.115630 0.149435 0.047828 -0.244406 0.028262 0.217437 0.070635 -0.036601 0.121725 0.229095 0.361775
0.166483 0.150241 -0.002789 -0.230797 -0.106369 -0.204045 0.169443 -0.127939 0.196506 -0.067020 -0.075223 -0.228428 0.050478 0.230235 -0.317528 -0.308651 -0.295443 -0.114728 0.147046 0.174853 -0.003907 -0.107555 0.185180 -0.093196
-0.197046 0.038501 0.176422 -0.047399 -0.278487 -0.110469 -0.073279 0.283406 -0.024810 -0.080367 0.143664 0.206350 -0.120589 -0.188961 -0.107263 0.185200 0.108111 -0.062097 0.020034 0.175062 -0.150712 -0.008139 -0.023684 0.296511
-0.205526 -0.051845 0.019173 0.115272 0.133309 0.203771 -0.117145 -0.096763 -0.054182 -0.167060 -0.313898 0.245492 -0.212776 -0.038513 -0.238398 0.151846 0.284547 -0.197613 -0.219872 -0.023030 -0.151501 -0.073340 0.104004 -0.120212
-0.245424 -0.271589 0.027993 -0.007446 0.025461 -0.086833 0.220194 0.249175 0.281049 -0.174960 0.448109 0.197498 -0.118209 -0.182972 -0.220834 -0.112046 -0.348671 -0.134620 -0.067342 0.037895 -0.155942 -0.179565 0.159028 0.089679
0.073734 -0.131912 0.189656 -0.145077 0.176683 0.029916 0.207246 -0.142452 0.080164 0.089705 -0.055653 0.307294 0.094161 0.269351 -0.239545 -0.080417 -0.222989 -0.057700 0.059460 0.074424 0.183345 -0.275017 0.135162 0.042929
0.219540 -0.122640 -0.099985 -0.413845 0.150145 0.039650 -0.129844 0.113652 -0.278420 -0.187807 0.215822 0.104407 -0.118598 -0.011665 0.006962 0.281221 -0.206845 0.071429 -0.071642 -0.094208 -0.254601 0.095464 -0.019004 -0.090307
